tree
version=v4
num_class=1
num_tree_per_iteration=1
label_index=0
max_feature_idx=111
objective=binary sigmoid:1
feature_names=l_feat_1 l_feat_2 l_feat_3 l_feat_4 l_feat_5 l_feat_6 l_feat_7 l_feat_8 l_feat_9 l_feat_10 l_feat_11 l_feat_12 l_feat_13 l_feat_14 l_feat_15 l_feat_16 l_feat_17 l_feat_18 l_feat_19 l_feat_20 l_feat_21 l_feat_22 l_feat_23 l_feat_24 l_feat_25 l_feat_26 l_feat_27 feat_e_1 feat_e_2 feat_e_3 feat_e_4 feat_e_5 feat_e_6 feat_e_7 feat_e_8 feat_e_9 feat_e_10 feat_d_1 feat_d_2 feat_d_3 feat_d_4 feat_d_5 feat_d_6 feat_c_1 feat_c_2 feat_c_3 feat_c_4 feat_c_5 feat_c_6 feat_c_7 feat_c_8 feat_b_1 feat_b_2 feat_b_3 feat_b_4 feat_b_5 feat_b_6 feat_a_1 feat_a_2 feat_a_3 feat_a_4 feat_a_5 feat_a_6 feat_a_7 feat_a_8 feat_a_9 feat_a_10 feat_a_11 feat_a_12 feat_a_13 feat_a_14 feat_a_15 feat_a_16 feat_a_17 feat_a_18 history_a_1 history_a_2 history_a_3 history_a_4 history_a_5 history_a_6 history_a_7 history_b_1 history_b_2 history_b_3 history_b_4 history_b_5 history_b_6 history_b_7 history_b_8 history_b_9 history_b_10 history_b_11 history_b_12 history_b_13 history_b_14 history_b_15 history_b_16 history_b_17 history_b_18 history_b_19 history_b_20 history_b_21 history_b_22 history_b_23 history_b_24 history_b_25 history_b_26 history_b_27 history_b_28 history_b_29 history_b_30
feature_infos=[1:2] [1:2] [1:3] [1:26] [1:1026] [1:870] [1:301] [1:2] [1:461] [1:254] [1:1446] [1:4856] [1:2] [2:3191] [2:2535] [1:2] [1:461] [0:6] [1:2] [2:2] [1:2] [1:2] [1:1] [1:2] [1:2079] [1:18] [1:5] [0.3611111044883728:65] [-155664.9375:17395.740234375] [1.1363636255264282:170.45454406738281] [-0.10000000149011612:0] [-2.4313726425170898:0.019607843831181526] [-1.5714285373687744:0.012987012974917889] [-0.0625:1277.375] [-778.9111328125:0.02222222276031971] [-587.67742919921875:0.01075268816202879] [-2391.94287109375:0.014285714365541935] [0:0.38961037993431091] [0:2] [0:1.7647058963775635] [0:78] [-0.30303031206130981:0] [-0.42253521084785461:0] [0:58.840435028076172] [0:35.999992370605469] [0:83] [0:29] [0:47] [0:7.9719300270080566] [0:73.891685485839844] [0:32] [0:2064.402099609375] [-278.43374633789062:0] [0:1090.388916015625] [0:1.3195875883102417] [-967.59649658203125:0] [0:86991.8359375] [0:14.399999618530273] [0:4.8000001907348633] [0:30.600000381469727] [0:88.199996948242188] [0:86.808601379394531] [0:17.100000381469727] [0:36.900001525878906] [0:63] [0:90] [0:76.5] [0:37.799999237060547] [0:14] [0:47.700000762939453] [0:7] [0:62.099998474121094] [0:18.899999618530273] [0:3.5999999046325684] [0:47.700000762939453] [0:18.709814071655273] [-23.44444465637207:0] [0:12.292682647705078] [-7713.5712890625:0] [-2.8405797481536865:0] [-3826.857177734375:0] [-234.46153259277344:0] [0:41] [0:89] [0:30.5] [0:32.5] [0:17] [0:1] [0:16] [0:33] [0:3] [0:18] [0:46.5] [0:4.5] [0:18.5] [0:37.5] [0:0.5] [0:46.5] [0:10.5] [0:7.5] [0:6.5] [0:1.5] [0:5.5] [0:45] [0:45] [0:7.5] [0:3] [0:28] [0:32] [0:10] [0:26] [0:33]
tree_sizes=6867 7011 7006 7002 6994 7036 7022 7053 7048 7025 7035 7060 7062 7041 7075 7041 7053 7058 7071 7073 7065 7064 7041 7045 7064 7082 7067 7095 7065 7092 7114 7092 7068 7083 7066 7065 7083 7101 7068 7101 7089 7083 7066 7093 7097 7039 7109 7103 7084 7084 7076 7090

Tree=0
num_leaves=64
num_cat=0
split_feature=75 75 79 76 75 75 40 26 76 76 75 44 5 75 82 89 75 47 41 54 4 75 44 46 62 48 4 54 8 45 51 32 50 11 52 14 61 40 14 91 81 5 25 93 51 44 40 82 75 70 107 41 52 75 35 37 45 40 44 101 4 109 75
split_gain=1179.36 360.345 302.383 265.305 253.235 131.505 91.8425 66.5264 63.8113 63.0283 75.8476 41.9393 39.746 35.3781 43.3484 30.8411 28.6593 28.0343 26.9818 26.7136 25.6954 23.4701 22.6584 24.5186 22.5718 22.1763 22.3898 28.7682 22.0925 22.9723 31.7769 21.4447 21.2745 20.2805 19.4118 19.0195 22.6669 17.0642 18.1647 16.5488 16.5384 16.0334 17.9731 15.6598 26.5877 15.5986 15.4303 18.6984 15.3816 21.3387 29.2044 15.0265 14.5493 14.4933 15.2699 14.3977 14.236 18.5083 13.6117 13.2273 12.8679 15.9828 16.1123
threshold=0.14209000021219256 0.85482627153396618 -0.050724638625979417 -0.083333333954215036 0.049572501331567771 0.29941999912261968 9.3987951278686541 2.5000000000000004 -0.36111111938953394 -1.0000000180025095e-35 0.4191462397575379 15.958752632141115 13.500000000000002 0.09363999962806703 0.16567485034465793 0.039454801008105285 0.033379999920725829 5.0120091438293466 -0.28787878155708307 0.86082473397254955 185.50000000000003 0.31653749942779547 0.18336502462625506 27.527319908142093 6.6499998569488534 1.7702448368072512 200.50000000000003 0.015463917050510647 333.00000000000006 38.188804626464851 4.5515465736389169 -0.071428570896387086 28.983408927917484 2394.0000000000005 -2.4999999999999996 2429.0000000000005 34.647750854492195 2.230697870254517 795.50000000000011 0.60111451148986828 -2.5288461446762081 192.50000000000003 5.5000000000000009 0.015629400033503774 4.4072165489196786 0.04918543994426728 1.8760026693344118 3.7706141471862797 0.10001125186681749 1.9281500577926638 0.025788000784814361 -0.13636363297700879 -7.2228915691375724 0.50044250488281261 -0.13440860062837598 0.30519479513168341 6.8058958053588876 2.3672285079956059 3.0097042322158818 0.0014810999855399134 63.500000000000007 0.082389000803232207 0.11774374917149545
decision_type=10 10 10 10 10 10 10 2 10 10 10 10 2 10 10 10 10 10 10 10 2 10 10 10 10 10 2 10 2 10 8 10 10 2 10 2 10 10 2 10 10 2 2 8 8 10 10 10 10 10 8 10 10 10 8 10 10 10 10 8 2 10 10
left_child=4 2 5 -3 16 12 17 -8 15 10 18 46 -2 32 22 31 40 -5 35 25 -12 41 23 -15 -23 -20 -27 -28 29 33 -31 -6 56 -14 -29 36 43 -17 -39 58 -1 -13 -43 44 -4 -21 47 -11 -33 -50 -51 60 -34 54 -48 -55 57 -10 -22 -52 -16 -62 -63
right_child=1 3 9 6 8 -7 7 -9 13 11 20 21 28 14 51 37 -18 -19 19 45 39 24 -24 -25 -26 26 27 34 -30 30 -32 48 52 -35 -36 -37 -38 38 -40 -41 -42 42 -44 -45 -46 -47 53 -49 49 50 59 -53 -54 55 -56 -57 -58 -59 -60 -61 61 62 -64
leaf_value=-3.9326646945679333 -3.92036175743922 -3.4228505437782335 -3.6640110134302928 -3.8464725542237619 -3.9157412701517598 -3.6000849002304398 -3.7875554259383035 -3.508523952967217 -3.9212722773377444 -3.9173575922563724 -3.8442345681716508 -3.9188201473169464 -3.6250463883736379 -3.7371886420308851 -3.9190367553469252 -3.9029480778846986 -3.9192661507533408 -3.7535391510999778 -3.9101932892051336 -3.8227062027691265 -3.8508146482710375 -3.754516300351336 -3.8755427859970739 -3.8533431482506577 -3.8832785189872148 -3.8818021360787394 -3.7281357917890072 -3.7523400727145342 -3.827080047759527 -3.8449983625666317 -3.7043380344061121 -3.8808932970241421 -3.8613274983456072 -3.802976181311605 -3.8514956051279925 -3.8979943528351999 -3.8806051794788439 -3.8856253677450541 -3.784335758925641 -3.6560889089231985 -3.844260434359974 -3.7785738678055658 -3.8825013692631307 -3.8545724381160706 -3.8335368292074654 -3.9190458511452886 -3.8935440878342331 -3.8443393027714223 -3.9084781349208368 -3.7312464111829553 -3.9277424819948452 -3.9076635506768778 -3.9000699515928403 -3.8805476239434755 -3.8062666291285181 -3.7776378565401134 -3.9142048590105354 -3.8060000437826069 -3.7227545733126628 -3.8155652272026237 -3.8831811072900138 -3.888512112096659 -3.7514568319581238
leaf_weight=1173.3292169943452 4.7645134180784217 6.1396372094750395 6.042797505855563 19.697195716202259 30.678818106651306 11.814443841576574 5.2680798768997175 4.8226172402501106 6.391420438885687 74.276052676141262 8.0183274596929568 10.013225354254248 6.1202692687511462 7.0305624827742603 21.130423329770565 5.7135425135493305 666.3346326649189 15.862343452870844 14.56469142436981 3.912324026227 5.7135425135493261 10.962254449725153 32.26698924601078 13.731869973242281 5.2680798768997184 28.974439322948456 5.8297501578927031 4.9194569438695899 15.78487168997526 12.163066774606706 6.1783730909228316 60.892805635929108 26.166087917983532 4.2609469592571259 53.474884338676929 5.1325042918324462 5.713542513549327 6.1977410316467312 19.193629257380962 6.0234295651316634 4.4158904850482932 6.081533387303355 11.388349145650862 4.473994307219983 5.17124017328024 28.044778168201447 80.880520462989807 8.9286206737160665 6.5076280832290676 6.8175151348113987 4.4933622479438773 148.28095418214798 227.43772792071104 8.3863183334469777 4.3771546036005011 5.4811272248625746 605.94539348781109 6.0427975058555603 3.9510599076747894 4.3771546036005029 93.39221017062664 4.2609469592571241 3.9123240262269974
leaf_count=60581 246 317 312 1017 1584 610 272 249 330 3835 414 517 316 363 1091 295 34404 819 752 202 295 566 1666 709 272 1496 301 254 815 628 319 3144 1351 220 2761 265 295 320 991 311 228 314 588 231 267 1448 4176 461 336 352 232 7656 11743 433 226 283 31286 312 204 226 4822 220 202
internal_value=-3.90408 -3.83501 -3.84887 -3.71085 -3.91557 -3.74583 -3.75907 -3.63054 -3.89904 -3.86434 -3.84316 -3.88233 -3.78613 -3.90285 -3.88877 -3.86782 -3.92759 -3.80203 -3.85568 -3.86497 -3.76091 -3.83891 -3.84786 -3.80814 -3.79267 -3.85317 -3.84429 -3.82796 -3.77172 -3.74492 -3.78973 -3.88029 -3.90809 -3.68276 -3.84073 -3.80992 -3.79002 -3.82438 -3.80742 -3.72447 -3.93228 -3.86918 -3.84148 -3.76042 -3.73 -3.90514 -3.89304 -3.9089 -3.86722 -3.83232 -3.80237 -3.89695 -3.89592 -3.87982 -3.88798 -3.83409 -3.91309 -3.86211 -3.78635 -3.86901 -3.88408 -3.87674 -3.81341
internal_weight=3713.82 528.88 477.09 51.7899 3184.94 61.0865 45.6502 10.0907 1340.86 416.004 189.961 226.043 49.272 1195.99 324.006 144.872 1844.08 35.5595 166.254 139.72 23.7064 43.7134 53.0294 20.7624 16.2303 107.763 93.1985 64.2241 44.5075 28.7227 18.3414 113.767 871.983 10.3812 58.3943 26.5341 21.4016 31.1049 25.3914 15.688 1177.75 27.4831 17.4699 15.688 11.214 31.9571 182.33 83.2047 83.0885 22.1957 15.688 270.977 253.604 99.1251 85.2577 13.8674 618.38 12.4342 9.6646 8.87052 122.696 101.565 8.17327
internal_count=191751 27307 24633 2674 164444 3154 2357 521 69231 21479 9808 11671 2544 61751 16729 7480 95213 1836 8584 7214 1224 2257 2738 1072 838 5564 4812 3316 2298 1483 947 5874 45022 536 3015 1370 1105 1606 1311 810 60809 1419 902 810 579 1650 9414 4296 4290 1146 810 13991 13094 5118 4402 716 31928 642 499 458 6335 5244 422
is_linear=0
shrinkage=1


Tree=1
num_leaves=64
num_cat=0
split_feature=75 75 77 77 75 75 75 5 1 0 34 50 75 50 76 75 79 0 84 75 36 50 41 36 5 9 44 28 44 44 45 43 111 34 34 0 76 86 8 8 28 41 93 104 47 34 34 55 54 55 96 82 90 13 50 84 26 33 35 5 9 36 88
split_gain=1038.95 294.245 317.847 140.572 124.158 76.4164 62.7001 51.5253 50.0455 56.2384 41.3587 39.4193 35.319 32.6643 31.4133 29.183 24.8878 21.244 20.1418 32.7989 24.6647 20.068 19.4812 19.2202 19.2178 18.3736 18.1865 17.8294 17.4931 17.3482 16.5103 20.506 15.9669 17.6552 39.2689 15.9523 16.8938 15.5954 15.5288 24.7377 15.2148 15.2016 18.1633 16.0857 16.8884 17.4078 19.8488 16.9781 14.6716 21.4324 27.0636 14.1609 15.5905 14.1194 13.8062 15.7253 13.2328 13.0885 12.8474 12.7052 12.6521 26.8281 12.418
threshold=0.094763748347759261 0.31653749942779547 0.030487803742289547 0.18902438879013064 0.033379999920725829 2.3082387447357182 0.71456876397132885 425.50000000000006 1.5000000000000002 1.5000000000000002 -137.32221984863278 25.583843231201175 0.16780125349760058 8.4431033134460467 -0.13888889178633687 0.13891249895095828 -0.021739130839705464 1.5000000000000002 0.35091164708137518 0.25979374349117285 -83.021427154541001 12.553755283355715 -0.015151515137404202 -120.26428604125975 66.000000000000014 205.00000000000003 0.47241216897964483 -562.84259033203114 35.998815536499031 35.999692916870124 6.8058958053588876 56.98547554016114 0.22606154531240466 -223.6111145019531 -117.92222213745116 1.5000000000000002 -0.58333334326744068 0.049221800640225417 404.00000000000006 418.50000000000006 -163.21296691894528 -0.13636363297700879 0.022341599687933925 0.14639849960803988 29.332427024841312 -99.633335113525376 -157.81111145019528 -35.464910507202141 0.77835050225257885 -35.885965347290032 0.0016813999973237517 0.24629929661750796 0.0089175002649426478 3140.5000000000005 31.378506660461429 0.054915249347686775 2.5000000000000004 14.531250000000002 -5.8333334922790518 152.00000000000003 158.50000000000003 -396.35000610351557 0.030659200623631481
decision_type=10 10 10 10 10 10 10 2 10 2 10 10 10 10 10 10 10 2 10 10 10 10 10 10 2 2 10 10 10 10 10 10 10 8 10 2 10 10 2 2 10 10 10 10 10 10 8 10 10 10 10 10 10 2 10 8 2 10 10 2 2 8 10
left_child=4 3 5 8 -1 11 7 16 53 -10 -9 22 17 24 35 41 -4 -5 19 25 -20 -22 27 -18 -11 48 -7 -3 30 -24 31 -16 33 -19 -35 54 -37 51 57 -40 -23 42 43 44 62 46 -46 -48 59 50 -50 -14 -53 -2 -6 -56 -13 60 -27 -17 -30 -62 -15
right_child=1 2 6 12 14 26 -8 10 9 13 -12 56 37 15 28 18 23 32 20 -21 21 40 29 -25 -26 58 -28 -29 38 -31 -32 -33 -34 34 -36 36 -38 -39 39 -41 -42 -43 -44 -45 45 -47 47 -49 49 -51 -52 52 -54 -55 55 -57 -58 -59 -60 -61 61 -63 -64
leaf_value=-0.027622496652355978 -0.0084616488961331542 0.016040190042216001 0.1541818617703159 -0.00076883528906695423 -0.024898731869739493 0.098900132397710339 0.3031428627323125 0.35792972400783563 -0.010988008746507261 0.082225097740041775 0.14572441804572753 0.053183532551303273 0.066848681578567798 0.02756059248527995 -0.032310588584274415 0.14592634797995233 -0.025299320580753459 0.058198197346975393 0.014993856998178621 0.17065477153292191 0.016443406551532532 0.17359955571614061 0.027283087316342616 0.10564297526116291 0.00018156616266446323 0.057735669955983206 0.24091957074706244 0.10688652280296761 -0.0056282273652684704 0.096736376210198177 -0.01506730219866001 0.071270950853808357 -0.012983612625642139 0.18976585935714504 0.022194199188883795 0.051697601194138812 0.0051967437493555787 0.031506341134722574 0.12785238698123147 -0.014002210302805429 0.041794503736638455 0.009687651816735773 0.086525747753150292 -0.0083739259674157039 0.028082646598006744 -0.025191443263630806 0.039791421141404777 0.16198271753180443 0.029076530231222406 0.023208891370353577 0.15506248009485613 0.18362752962041878 0.069598985190947038 0.056945993705034892 -0.0045449541868700736 0.0995569172447687 0.17326289054833457 -0.011186603573535485 -0.037972447656904135 0.071279982143640605 0.11877094744114358 0.012683489929657364 0.14883836820877405
leaf_weight=1148.5695943515748 130.59613474272192 7.9525087829679277 12.878433579578994 10.952267587184904 73.72952688857913 7.0025754477828723 13.527096429839728 4.7460314482450476 72.690540624782443 6.8867985624819985 8.1477111596614105 4.763423025608061 7.486640369519594 4.1014274843037111 7.0665719453245428 10.172792663797738 4.8603807352483273 27.379170686006546 43.694516412913799 7.3480492103844872 7.1676192637532976 5.9047171231359252 100.45749537833035 4.7497558612376469 75.18882143124938 5.4432546570897102 5.8507670965045691 18.945491822436452 30.980786614120007 9.1503214593976718 868.779151648283 11.273331223055719 4.2730539850890628 8.9686484392732364 5.8380794320255509 19.453599335625768 444.72419591248035 4.4567848779261103 5.1558867208659631 5.7842265479266644 4.3971621822565767 64.093943275511265 17.180635131895542 20.119848363101482 55.88466514647007 10.641024569049476 7.2673274204134941 4.8727569580078107 8.9918842092156392 27.293673401698474 8.2211965397000295 17.53380849771202 5.6357518080621949 7.8079038783907881 13.009997837245466 3.9876570701599112 7.6938106771558523 112.04998974502087 6.7104505412280542 21.077875809744 6.9577825125306845 24.925494898110632 5.0086994580924511
leaf_count=60927 6652 380 543 543 3814 311 500 199 3669 346 368 225 354 203 357 495 236 1337 2208 356 366 298 4870 232 3841 266 261 909 1613 418 45322 572 200 429 283 990 23007 201 268 301 221 3306 862 1012 2795 528 360 244 431 1361 392 811 263 396 669 204 350 5825 325 1037 362 1298 250
internal_value=0.000354185 0.0456994 0.0976391 0.0306197 -0.0150418 0.0631402 0.208227 0.164604 0.0221966 0.0295448 0.243975 0.0522683 0.0879114 0.0364436 -0.00615381 0.0431628 0.110648 0.0619305 0.0591635 0.0736036 0.0358515 0.084384 0.0438198 0.0432754 0.00797257 0.0636635 0.176271 0.0815651 -0.0111453 0.0339034 -0.0140647 0.0317528 0.0764161 0.0855625 0.129279 0.00350047 0.00725253 0.1275 0.00279035 0.0579601 0.126017 0.0296904 0.0397825 0.0316132 0.04077 0.0324414 0.0416912 0.0974312 0.0727118 0.0522352 0.0944591 0.140019 0.159918 -0.00438973 -0.0155656 0.0240521 0.134711 -0.000970141 0.00602271 0.0993504 0.0171299 0.0387425 0.102365
internal_weight=3718.46 942.014 210.726 731.288 2776.45 161.816 48.9094 35.3823 638.764 500.36 12.8937 148.963 92.5242 427.669 1627.88 345.594 22.4886 57.4112 156.423 95.2592 61.164 17.4695 136.506 9.61014 82.0756 87.9111 12.8533 26.898 1072.97 109.608 887.119 18.3399 46.459 42.1859 14.8067 554.905 464.178 35.113 185.854 10.9401 10.3019 189.17 125.076 107.896 87.7759 78.6658 68.0247 12.1401 75.7574 44.5068 17.2131 30.6562 23.1696 138.404 90.7272 16.9977 12.4572 174.914 12.1537 31.2507 62.8641 31.8833 9.11013
internal_count=191972 46443 9802 36641 145529 7724 2078 1578 32220 25172 567 7152 4421 21503 84602 17316 1011 2792 7756 4663 3093 885 6577 468 4187 4307 572 1289 55918 5288 46251 929 2249 2049 712 28684 23997 1629 9667 569 519 9560 6254 5392 4380 3927 3399 604 3716 2184 823 1428 1074 7048 4687 873 575 9098 591 1532 3273 1660 453
is_linear=0
shrinkage=0.05


Tree=2
num_leaves=64
num_cat=0
split_feature=75 75 77 77 75 40 75 29 75 0 41 56 46 11 43 77 29 82 56 96 3 108 29 81 9 76 44 5 82 28 56 9 37 38 77 75 1 5 40 36 44 81 111 47 36 44 5 37 32 81 44 44 61 44 111 41 50 34 50 84 111 70 28
split_gain=933.683 275.721 164.247 131.78 113.715 69.8528 68.517 57.2065 51.0367 47.4866 43.6392 43.1771 27.5336 27.2416 26.1449 26.085 26.0106 31.2313 24.9721 24.552 29.8024 27.0814 22.2396 21.2077 21.1091 20.2217 19.7493 19.177 23.6251 18.5887 18.5091 17.901 17.871 17.3503 17.0988 17.6142 17.0199 16.8805 16.3845 15.7569 15.4735 15.46 15.3786 22.1731 17.0108 15.1658 14.719 20.1043 14.5747 14.3769 14.325 24.9441 14.2083 14.0646 17.3021 13.9112 13.7361 13.399 16.2313 13.2565 21.9246 13.1274 14.962
threshold=0.094763748347759261 0.55594125390052807 0.18902438879013064 0.018292682245373729 0.039583750069141395 6.5043046474456796 0.17734249681234363 5.6250000000000009 1.3944450020790102 1.5000000000000002 -1.0000000180025095e-35 65.458332061767592 6.1960976123809823 4640.5000000000009 14.921511650085451 0.067073170095682158 2.6704545021057133 0.2680457085371018 143.87500000000003 0.002053800038993359 6.5000000000000009 0.076031997799873366 4.6022727489471444 -0.16346154361963269 98.500000000000014 -0.13888889178633687 14.386089324951174 231.50000000000003 0.47153690457344061 -2505.4814453124995 187.79166412353518 114.50000000000001 0.22727272659540179 1.1000000238418581 0.030487803742289547 0.27127875387668615 1.5000000000000002 243.50000000000003 33.00561714172364 -45.449998855590813 0.31184491515159612 -2.4519231319427486 0.24268859624862674 44.324684143066413 -118.26428604125975 35.999681472778327 152.00000000000003 0.25324675440788275 -0.045454544946551316 -2.1442308425903316 6.590022325515748 9.9942226409912127 63.048900604248054 35.999406814575202 0.13149839639663699 -0.26767677068710322 14.675470829010012 -98.277778625488267 20.192219734191898 0.26643274724483496 0.27283409237861639 2.5504500865936284 -579.50924682617176
decision_type=10 10 10 10 10 10 10 10 10 2 10 10 10 2 10 10 10 10 10 10 2 10 8 10 2 10 10 2 10 10 10 2 10 10 10 10 10 2 10 8 8 10 10 8 8 10 2 10 8 10 10 10 8 10 8 8 10 10 10 10 8 10 8
left_child=4 2 7 5 49 36 -4 10 18 -8 11 12 -2 27 -7 24 -11 -18 39 -17 -21 -22 25 -16 -13 38 34 31 -29 -26 33 -14 -28 -31 46 57 56 -23 50 52 -37 -35 53 44 -44 -46 47 -9 -30 -1 55 -52 -5 54 -34 -6 -3 58 -36 60 -32 -12 -63
right_child=1 3 6 8 22 14 9 26 -10 16 61 15 13 -15 23 19 17 -19 -20 20 21 37 -24 -25 29 -27 32 28 48 30 59 -33 42 41 35 40 -38 -39 -40 -41 -42 -43 43 -45 45 -47 -48 -49 -50 -51 51 -53 -54 -55 -56 -57 -58 -59 -60 -61 -62 62 -64
leaf_value=-0.025534666445295187 0.0015336365321449278 -0.0074377293102374292 0.05339818197747026 0.18311542824473886 -0.0006845913505595146 0.18924551961397462 0.027770905745726451 0.054306949875145422 0.30718582363118141 0.064235092601005378 -0.016308609156086059 -0.0047425125117661017 0.0036065030821580539 -0.00066706375963895457 0.0030383671321526804 0.037161780431089364 0.06036223631209045 0.20365262936082906 0.23075513436374007 0.0036078310136395211 0.039182593024668831 0.070912355635124255 -0.010557892212933734 0.13793751052302261 0.099145896262707089 -0.0052279480923561501 0.095621743142699334 0.047054486927105676 0.23169129751954737 0.018823497090135973 0.013908224715602836 0.10303117645770887 0.10375031577544405 0.032767635052377418 0.058982374782164199 0.13641824814313994 0.069401995552467746 0.18691828625840332 0.073684558805010028 0.040863780511789433 0.010686270200963854 0.1647890544903613 0.0024563989906486098 0.1365814559048158 0.01582441325038203 0.105649006108887 -0.019210327344798009 -0.0074111815017831378 0.10053715624477047 0.054928912635656593 0.13144227803594649 0.02089314758128322 0.067409023450511044 -0.019493405980573517 -0.0050457632012736202 0.049818054735266432 0.068851972638436829 -0.020654088287343324 0.0053744467029969356 -0.01499414316911518 0.10595750744358348 0.096555006987214476 0.0087715269121220706
leaf_weight=1385.4899391736835 8.5257172565907222 19.614973509684209 65.001313572749496 8.3822199963033164 161.94711763970554 14.175834881141784 9.1319873351603729 17.994904289022088 7.637529630213975 7.6611441560089579 42.205704122781754 49.762659087777138 6.3341910541057613 5.9608779903501263 5.4707553051412106 76.054387506097555 5.7317682709544924 24.290969032794237 7.5027043912559739 8.1509423274546844 9.5289998035877961 6.7895370461046722 749.55351212434471 5.34721567109227 9.3250299952924234 354.13463766686618 7.8666183445602647 5.1247544046491411 7.6673947926610708 9.7466877065598982 36.725324388593435 15.551264099776743 5.1440143492072794 4.3804103676229715 19.910289328545332 4.602827895432708 31.766321867704391 10.763600768521426 9.8338932581245881 6.5818023644387784 4.6720399763435134 5.2588484734296781 27.958567636087537 4.3332802820950738 9.4740280229598302 9.2115175649523717 105.86700043641031 42.581097755581141 6.2615192700177413 4.6727869920432559 4.7601885180920354 51.158566934987903 6.1581991612911233 30.717463312670588 8.8032252229750156 13.886841969564555 7.3401791509240857 23.697813848033547 44.1973213609308 23.978201154619455 6.9660093132406464 5.1042008828371763 24.932708648964766
leaf_count=75031 419 898 2961 305 8319 568 374 905 222 300 2105 2465 308 284 235 3629 247 915 246 375 438 302 39169 217 453 18647 371 248 366 480 1809 746 258 215 982 205 1418 477 503 221 202 256 1337 203 449 425 5343 2156 301 239 243 2607 222 1524 436 716 325 1168 2167 1178 334 253 1255
internal_value=-0.000175954 0.0415696 0.0316263 0.112317 -0.0152014 0.0762802 0.0879209 0.0231515 0.191231 0.133735 0.036591 0.0446559 0.0845026 0.0992383 0.144924 0.0357829 0.158031 0.179124 0.150968 0.0539709 0.0882281 0.112661 -0.00483232 0.0757473 0.0216602 0.00237738 0.00898938 0.113454 0.150916 0.035201 0.0273033 0.0756702 0.0273822 0.0691645 0.00168869 0.0182614 0.0451254 0.148288 0.0135014 0.113478 0.0802873 0.113513 0.0208381 0.0393275 0.0276155 0.0632231 -0.00802889 0.0115072 0.183417 -0.0252249 0.0106421 0.0324478 0.141602 -0.000663592 0.0393369 0.00356312 0.0150566 0.0108793 0.022674 0.0144784 0.0306268 0.00153238 0.026319
internal_weight=3719.36 983.926 863.948 119.978 2735.44 83.7153 111.817 752.131 36.2625 46.8159 385.099 312.856 55.4257 46.9 24.9938 257.431 37.6839 30.0227 28.6249 111.287 35.2331 27.0821 1345.27 10.818 146.143 595.721 367.032 40.9391 19.0537 96.3805 87.0555 21.8855 103.509 19.3859 263.523 97.0803 58.7215 17.5531 241.587 21.1222 9.27487 9.63926 95.6421 50.9774 46.6441 18.6855 166.443 60.576 13.9289 1390.16 231.753 55.9188 14.5404 44.6647 13.9472 175.834 26.9552 87.8054 64.1076 67.6695 43.6913 72.2426 30.0369
internal_count=191975 46501 41624 4877 145474 3661 4797 36827 1216 1836 18696 15083 2672 2253 1020 12411 1462 1162 994 5221 1592 1217 70204 452 7190 31035 18131 1969 915 4725 4272 1054 5003 951 13128 4724 2641 779 12388 748 407 471 4632 2414 2211 874 8404 3061 667 75270 11885 2850 527 2218 694 9035 1223 4317 3149 3321 2143 3613 1508
is_linear=0
shrinkage=0.05


Tree=3
num_leaves=64
num_cat=0
split_feature=75 75 75 77 77 75 56 29 41 1 76 89 51 50 75 4 41 26 14 45 44 5 52 4 6 4 44 47 36 36 35 75 52 34 47 56 5 50 36 44 49 43 50 75 70 4 32 29 32 37 35 6 61 49 47 17 63 82 6 70 4 91 50
split_gain=808.827 234.831 126.289 109.28 104.451 63.2432 65.3236 54.47 41.246 32.1017 30.1723 39.0439 27.1479 33.9995 25.8797 27.152 24.6402 24.2789 26.2189 23.7906 22.1845 20.4392 20.1121 19.8105 19.326 18.6133 18.6095 18.3482 24.7994 20.0709 18.1394 17.2899 17.271 16.9515 16.2995 14.7167 18.0161 14.2031 13.9173 13.8984 18.3084 17.0557 18.9688 16.5948 17.5598 13.9423 14.3934 13.7765 13.543 13.2362 12.2117 12.1579 12.1209 12.0418 13.1045 12.0213 18.0458 17.7006 15.2597 17.7713 14.1079 13.3033 19.8941
threshold=0.10001125186681749 0.4191462397575379 0.045937500894069679 0.26219512522220617 1.0000000180025095e-35 1.3944450020790102 1017.2083435058595 5.6250000000000009 -1.0000000180025095e-35 1.5000000000000002 -0.36111111938953394 0.03910499997437001 1.5000000000000002 25.583843231201175 0.17734249681234363 195.50000000000003 -1.0000000180025095e-35 3.5000000000000004 795.50000000000011 5.653691530227662 0.044016284868121154 142.50000000000003 -4.6325299739837638 74.500000000000014 258.50000000000006 558.50000000000011 1.1458650827407839 6.4309632778167733 -165.57856750488278 -49.364286422729485 -12.82258081436157 0.029076250270009044 -3.9096386432647701 -180.94444274902341 34.00952339172364 9.3750000000000018 192.50000000000003 4.1784498691558847 -567.76428222656239 9.2640099525451678 40.845880508422859 45.554807662963874 26.791760444641117 0.28429250419139868 3.1265499591827397 725.50000000000011 -0.045454544946551316 6.1363637447357187 -0.045454544946551316 0.27922078967094427 -14.27419328689575 130.50000000000003 85.32089996337892 54.670562744140632 5.6140079498291025 1.5000000000000002 1.0000000180025095e-35 0.14092314988374713 183.50000000000003 2.9844501018524174 608.50000000000011 0.075230099260807051 19.492345809936527
decision_type=10 10 10 10 10 10 8 10 10 10 10 10 10 10 10 2 10 2 2 10 10 2 10 2 2 2 10 10 8 10 10 8 10 10 10 10 2 10 8 10 10 10 10 10 8 2 10 8 10 8 10 2 10 10 10 10 10 10 2 10 2 10 10
left_child=2 3 31 7 16 6 9 8 14 53 11 48 13 27 15 -2 -3 -18 -19 -12 -5 -13 25 -24 32 -22 51 -11 -29 -30 33 -1 -16 -17 -25 36 -34 -32 -36 40 -9 42 49 45 -45 -42 -47 -28 -4 -41 -23 -21 -53 54 -6 -39 57 -57 59 -59 61 -61 -63
right_child=1 4 10 20 5 -7 -8 39 -10 12 19 21 -14 -15 24 30 17 18 -20 26 22 50 23 34 -26 -27 47 28 29 -31 37 -33 35 -35 38 -37 -38 55 -40 41 43 -43 -44 44 -46 46 -48 -49 -50 -51 -52 52 -54 -55 -56 56 -58 58 -60 60 -62 62 -64
leaf_value=-0.028008421629929798 0.0014109116795597617 0.092826469966606331 -0.011631820170856982 0.013182394149971882 0.0061583404891766549 0.21894239978332505 0.26105891145358429 -0.024399632864077234 -0.0032556685261938101 0.035901443363339079 0.071915798237541587 0.0054720499275462894 0.038494088834474235 0.22712129856467517 0.13890484294175445 0.038745480357181672 0.013816316509836175 -0.009708707292955367 0.12440144811602123 -0.019615685055364481 0.096497071638409648 0.063303162648434746 0.026198871544298116 0.2027762943804563 -0.0040323771017174888 0.0015535539774759089 0.014109374169772268 0.029368259711151957 0.19370974193502646 0.070354621456553926 -0.025983929426050663 -0.017512228337194836 0.033678552300387833 -0.025275911846763411 0.17828126801818245 0.050456861651256769 0.15125268982368403 0.028329851362487779 0.081130671990717981 0.097701700154752852 -0.0064072081164842825 0.007703373868614952 0.12148702795789153 0.010846549890395702 0.11341477622368722 0.055965608606543531 -8.1645866891307092e-05 -0.0045300027852422306 0.027444810743972904 0.011647763350765859 0.19056329167003824 -0.0065168445714531911 0.047496653570567218 -0.022285609560180265 0.099808257718879217 0.14365433783325188 0.0047790319937264418 0.043013379611361098 0.029973643727924344 0.029585088579721221 0.1912258260694325 0.032946142602500852 0.18395737410337407
leaf_weight=889.05734654888511 55.209150983020663 23.641319744288921 37.098612375557423 9.0865195132791978 6.8489635586738604 15.603476852178572 5.5522509571164838 57.266117254272103 60.75859016366303 8.7502885870635492 9.172689560800789 4.3219678793102494 11.213980322703717 7.2540613655000916 7.9402798675000659 24.598116951063275 46.687480788677931 5.0463307797908774 10.95174331218004 223.73635598272085 10.507049690932037 5.1275734566152087 5.469667697325348 7.4588206075131884 9.6356785576790553 9.4223892316222173 172.54473981261253 5.8177609648555517 11.237893568351863 6.8044745456427398 5.025675054639577 716.59308910928667 6.0874250270426264 16.460748858749866 5.3190757222473621 66.871775398030877 8.3895423021167499 31.730032328516245 20.127980368211869 4.7173493914306164 115.4828130248934 71.276865677908063 6.5365079734474412 10.307298295199873 6.2969097886234513 20.498923752456903 24.513105997815728 230.38408016972244 52.520393773913383 22.119457187131051 4.5905313510447732 401.5040283780545 9.6711167581379396 5.9028262160718432 7.6034919209778309 7.9875868279486886 10.647407578304408 18.128526955842972 23.057781981304288 7.6807445697486463 4.3685070704668751 4.3666281066834909 4.746368607506156
leaf_count=49631 2664 989 1879 354 281 425 147 2936 3060 342 451 205 374 236 307 1128 2053 217 427 11762 423 241 230 262 444 380 8911 215 407 245 250 38850 283 780 207 2933 364 1468 756 213 5733 3395 300 475 283 1010 1195 12069 2613 1046 216 21094 507 225 287 355 499 837 1078 343 203 207 214
internal_value=-0.00052035 0.0390062 -0.0142821 0.027088 0.0905314 0.127298 0.106154 0.02126 0.0344012 0.0906759 -0.00163631 0.0239642 0.111655 0.130789 0.0416997 0.031666 0.0500916 0.03277 0.0840161 -0.00419132 0.0875109 0.0985612 0.0986769 0.12001 0.0628718 0.0538279 -0.00493255 0.10324 0.125498 0.153325 0.04211 -0.0233378 0.0700565 0.0130882 0.13437 0.0617312 0.107184 0.0520353 0.107411 0.00671613 -7.07905e-05 0.0217723 0.0507217 0.00788893 0.053977 0.00281611 0.0261044 0.00346704 0.0113188 0.0297407 0.135588 -0.0102602 -0.00513426 0.0352701 0.0586985 0.0557119 0.065964 0.0750293 0.0641087 0.0828998 0.113586 0.0837776 0.122011
internal_weight=3715.34 959.014 2756.32 780.097 178.916 92.5895 76.986 712.706 373.691 71.4337 1150.67 103.659 51.0785 39.8645 312.932 214.007 86.3269 62.6856 15.9981 1047.01 67.3915 14.0401 58.305 38.3755 98.9247 19.9294 1037.84 32.6104 23.8601 18.0424 158.798 1605.65 89.289 41.0589 32.9059 81.3487 14.477 117.739 25.4471 339.015 234.365 104.65 33.3733 177.099 16.6042 160.495 45.012 402.929 89.619 26.8368 9.7181 634.912 411.175 20.3553 14.4525 112.714 80.9836 70.3361 62.3486 39.2908 21.1622 16.7937 9.113
internal_count=191914 43485 148429 36615 6870 3184 2759 34003 17417 2612 59948 5154 1819 1445 14357 10026 3686 2697 644 54794 2612 662 2258 1455 4331 803 54343 1209 867 652 7362 88481 3887 1908 1225 3580 647 5454 963 16586 11632 4954 1559 8696 758 7938 2205 20980 4492 1259 457 33363 21601 793 568 5204 3736 3237 2882 1804 967 764 421
is_linear=0
shrinkage=0.05


Tree=4
num_leaves=64
num_cat=0
split_feature=75 75 75 77 77 29 75 76 40 44 28 4 86 76 4 40 4 54 34 44 78 50 11 81 14 34 0 10 13 70 27 70 16 36 36 44 4 32 56 29 1 50 37 45 47 45 11 13 70 9 54 9 55 111 28 46 55 63 51 75 84 108 25
split_gain=761.165 145.82 117.407 99.0034 60.8361 46.0264 40.2131 35.3661 35.0055 29.7048 29.2562 38.6131 23.4352 22.0338 20.9162 19.9465 25.8544 20.8042 19.8845 25.6444 18.7802 18.2959 17.7404 17.5824 16.6407 16.59 19.157 16.3094 15.5972 15.1066 25.1659 22.124 16.6951 17.2705 17.9404 14.96 15.5559 12.9153 12.6625 12.5645 12.551 20.0634 18.1868 20.235 12.517 12.502 20.146 21.8753 13.904 12.4634 27.4046 13.8485 12.2966 16.8439 16.9676 14.7398 13.4827 16.4796 12.0929 11.5886 11.5734 17.1227 10.9937
threshold=0.10001125186681749 0.62630748748779308 0.035923751071095474 0.16463414579629901 0.018292682245373729 5.3977272510528573 0.23812124878168109 -1.638888895511627 15.588375568389894 14.386089324951174 -174.84259033203122 189.50000000000003 0.022244499996304515 -0.36111111938953394 96.500000000000014 12.899612426757814 591.00000000000011 0.62371131777763378 -227.96666717529294 0.37652243673801428 -45.642858505249016 6.0787498950958261 422.50000000000006 -2.2980768680572505 2373.5000000000005 -108.92222213745116 1.5000000000000002 656.00000000000011 3015.5000000000005 3.0208499431610112 64.458332061767592 6.5775499343872079 100.50000000000001 -41.807142257690423 -159.34999847412107 4.6278026103973398 375.00000000000006 -0.12337662279605864 437.04167175292974 4.3750000000000009 1.5000000000000002 16.376939773559574 0.084415584802627577 72.883316040039077 1.0249933004379275 75.056987762451186 2719.5000000000005 2971.5000000000005 3.6333498954772954 142.00000000000003 0.2216494828462601 205.00000000000003 -0.39473684132099146 0.30860444903373724 -971.12036132812489 27.691862106323246 -1.6228070259094236 26.650000572204593 4.4793815612792978 0.082363750785589232 0.17998050153255465 0.086870398372411742 10.500000000000002
decision_type=10 10 10 10 10 8 10 10 10 10 10 2 10 10 2 10 2 10 10 10 10 10 2 10 2 10 2 2 2 10 10 10 2 10 10 10 2 10 8 8 10 8 10 10 10 10 2 2 10 2 10 2 10 10 10 10 8 10 10 10 10 10 2
left_child=2 3 -1 5 8 15 14 -5 37 20 11 -6 -9 18 -7 21 17 23 -4 -20 -8 38 -22 -17 27 26 -14 -21 -18 -23 31 32 -31 34 -34 59 -37 -3 -2 -38 41 44 -42 -44 -39 46 48 -48 -28 50 -11 -51 53 -16 55 -55 57 -56 -32 -15 61 -30 -41
right_child=1 4 13 7 10 6 9 12 -10 49 -12 -13 25 35 52 16 28 -19 19 24 22 29 -24 -25 -26 -27 45 -29 60 30 58 -33 33 -35 -36 36 39 40 -40 62 42 -43 43 -45 -46 -47 47 -49 -50 51 -52 -53 -54 54 56 -57 -58 -59 -60 -61 -62 -63 -64
leaf_value=-0.025490216723421812 -0.019361218184869425 0.0023504988549426648 0.0027633275549030557 0.15145424786281181 0.068463363133610455 -0.02015417418399805 0.068327749014446645 0.039512614084135422 0.13836894233705677 0.14598972018645481 0.063364094260281001 0.20357013349806499 0.023329571686966786 -0.011563182564302346 0.0055134620001119922 0.13655649493935854 0.16298243969758702 0.0093248293851436199 0.0059869798138145391 0.09691050208471326 0.063806650241550508 0.024964873204198084 0.00050362316151601261 0.025053536450255265 0.16501661794055067 0.029555583023229665 0.076541552688407413 -0.016810415588006555 0.029303119612907776 0.028249839418759744 -0.0012898411420898441 -0.011240375725001563 0.074439568222264246 0.025298359781138827 0.17998484083373301 -0.0098577777183218376 0.033447912611805353 0.069117771970403807 0.056155767535259075 0.016615999602123677 -0.00041680783928221376 0.10607489117498022 0.12905956272378336 0.032415966585277227 -0.015869795888361401 0.16767469575529884 -0.029286660758099367 0.087803083549952518 0.17871643906816959 0.0087227044995049265 0.0062506238164103381 0.083313520928316662 -0.020995987240313548 0.11465532594009704 -0.012729543242760162 0.016245737545773489 0.083241562999870788 0.071641180174509919 0.063519082120936807 0.0036012953821376011 0.019288708122630737 0.15931744845563572 -0.0074260947508298855
leaf_weight=1175.3252754565328 25.836599634960297 12.96872268617153 82.628989495337009 11.054060315713285 8.9449652004987019 75.138345189392567 15.724424194544552 72.190487593412399 12.152531351894138 10.914128240197899 11.540094733238218 19.892753258347511 8.3964938614517433 883.36088890768588 151.84344047680497 6.7272606529295444 7.1755558885633972 26.289727775380015 18.289923952892423 6.7773958742618579 12.061728002503513 106.07413351349533 72.601982850581408 7.5416910368949157 4.5574387945234767 13.197853570803998 10.323514817282559 4.8694976270198822 5.2269375212490576 7.8298534452915183 21.054148223251108 5.292460022494196 9.752853265032174 4.8993906378746059 10.683596467599271 161.9055875968188 45.772558107972145 4.8257635254412952 6.0025835298001757 92.936233356595039 5.8884345088154069 5.6743937972933045 16.185127945616848 9.1497188434004766 15.976660437881945 8.1307855471968633 5.8208341635763636 9.41847533918917 7.2536553032696238 13.174680195748808 5.1041229143738738 11.256527079269288 27.319050038233399 9.8651128839701432 26.415288617834449 6.4344963878393164 5.7084063664078704 6.3425203505903474 9.9064344596117717 146.43599572218955 7.526272000744938 5.1801004707813263 95.427736138924956
leaf_count=67030 1267 489 4092 328 224 3811 642 2883 372 433 286 458 354 47301 7346 290 315 1187 880 326 576 4867 3403 341 217 476 352 240 233 359 923 243 428 221 473 8502 2332 208 288 4874 222 211 622 342 668 298 214 346 242 536 213 431 1374 467 1300 293 279 309 439 7604 329 224 5010
internal_value=9.00255e-05 0.037559 -0.013591 0.0302698 0.0882986 0.0226288 0.0127546 0.0677464 0.0624902 0.0347969 0.138446 0.165361 0.0598133 -0.00451633 0.00263036 0.0387957 0.0628144 0.0366633 0.0162432 0.0475457 0.0198567 0.0309233 0.0101617 0.0831234 0.0913789 0.0822554 0.0954839 0.0517947 0.102034 0.0372178 0.0553203 0.0818909 0.0966465 0.115909 0.135438 -0.00623178 0.00202326 0.0476932 -0.00384765 0.010246 0.0576708 0.0306161 0.0789506 0.0967128 0.0061116 0.109371 0.0903937 0.0440299 0.126057 0.070502 0.104446 0.0450146 0.0100034 0.0141838 0.037693 0.0789915 0.0186352 0.0052445 0.0207856 -0.00940541 0.0703272 0.102311 0.00446105
internal_weight=3710.18 991.889 2718.29 868.69 123.199 722.904 449.904 145.786 82.8214 140.838 40.3778 28.8377 134.732 1542.96 309.067 273 65.6675 40.5587 117.123 34.4943 100.388 207.332 84.6637 14.269 16.2043 62.5416 49.3438 11.6469 25.1089 175.493 69.4187 38.4582 33.1657 25.3358 20.4364 1425.84 396.042 70.6688 31.8392 234.137 57.7001 26.4768 31.2233 25.3348 20.8024 40.9473 32.8165 15.2393 17.5772 40.4495 16.0183 24.4312 233.928 206.609 54.7658 16.2996 38.4662 32.7578 30.9606 1029.8 17.9333 10.407 188.364
internal_count=191843 43435 148408 39333 4102 33840 21413 5493 3134 6234 968 682 5165 81378 15179 12427 2919 1818 5755 1663 4621 9508 3979 631 783 2282 1806 566 1101 7953 3086 1724 1481 1122 901 75623 20718 2762 1555 12216 2273 1087 1186 964 876 1452 1154 560 594 1613 646 967 11368 9994 2648 760 1888 1609 1362 54905 786 457 9884
is_linear=0
shrinkage=0.05


Tree=5
num_leaves=64
num_cat=0
split_feature=83 77 77 111 77 91 83 40 78 29 83 83 29 50 108 35 28 29 26 81 70 90 32 38 55 109 29 8 93 41 32 13 39 61 56 47 5 29 44 47 4 37 5 84 4 50 47 41 27 77 50 10 46 54 109 32 32 77 5 83 81 62 14
split_gain=524.554 143.813 135.529 90.6901 57.0844 52.3983 50.6508 38.3202 37.26 33.2218 31.9618 30.9801 26.5811 24.5328 23.3261 21.0148 20.3654 19.8819 19.45 23.9103 18.6798 18.6725 24.6568 20.3203 18.4114 18.2192 18.1065 18.1063 17.6415 17.2191 21.7946 17.764 16.8599 16.7962 16.5634 23.36 15.3179 17.1772 14.6442 14.2744 14.8522 13.9472 19.4621 17.5949 16.7255 13.7845 16.2614 13.781 13.5632 13.5163 13.1406 12.9767 15.9553 29.413 12.9573 12.8868 12.8752 13.6368 12.8646 12.4989 15.7791 12.0586 13.9868
threshold=0.5818152427673341 0.054878048598766334 0.018292682245373729 0.79649129509925853 0.26219512522220617 0.82235518097877514 0.26542469859123236 6.5043046474456796 -7.642857313156127 17.613636016845707 0.16545099765062335 0.902807116508484 16.477272510528568 14.321137905120851 0.050051201134920127 -0.25268816947937006 -139.49073791503903 2.6704545021057133 3.5000000000000004 -4.6634616851806632 0.80465000867843639 0.0024941998999565844 -0.08441558480262755 1.3000000119209292 -1.1666666865348814 0.014277999754995109 7.5568180084228525 242.50000000000003 0.0037030499661341314 -0.075757574290037141 -0.08441558480262755 2065.5000000000005 1.3235294222831728 74.16315078735353 126.70833206176759 37.479488372802741 222.50000000000003 5.2272727489471444 4.3758616447448739 44.044961929321296 141.50000000000003 0.21428571641445163 143.50000000000003 0.94027230143547069 908.00000000000011 30.454025268554691 40.949533462524421 -1.0000000180025095e-35 12.458333492279055 0.18902438879013064 7.7509198188781747 1044.5000000000002 28.650468826293949 0.92268040776252758 0.11186600103974344 -0.071428570896387086 -0.27922078967094416 0.32317073643207556 431.50000000000006 0.34772744774818426 -9.5288462638854963 14.250000000000002 1540.5000000000002
decision_type=10 10 10 10 10 10 10 10 10 10 10 10 10 10 10 10 10 8 2 8 10 10 10 10 10 10 10 2 10 10 10 2 10 10 10 10 2 10 10 10 2 10 2 8 2 10 10 10 10 10 10 2 10 10 8 10 10 10 2 10 10 10 2
left_child=1 8 5 4 11 34 14 12 10 21 -1 36 13 -7 56 61 33 -6 29 -20 -15 22 -8 -23 -9 28 50 55 49 30 -13 -32 54 -5 35 41 -4 -38 -22 40 -29 42 43 -2 -43 46 -19 -46 -12 -24 -26 52 -42 -54 -21 -25 -3 -58 -51 -50 -61 -16 -63
right_child=2 6 3 16 17 7 9 24 -10 -11 48 18 -14 20 15 -17 -18 45 19 32 38 23 25 27 26 -27 -28 39 -30 -31 31 -33 -34 -35 -36 -37 37 -39 -40 -41 51 44 -44 -45 47 -47 -48 -49 59 58 -52 -53 53 -55 -56 -57 57 -59 -60 60 -62 62 -64
leaf_value=-0.024288246781949081 0.15518723456036965 0.051943519213457134 0.0049050831137627702 0.15916861347820804 0.024940038345031057 -0.0012419030769114962 -0.025055259621457895 0.0054747192482801858 0.11304947041783989 -0.0197712373186167 0.058758926782407267 0.12798339030020542 0.11940495152006073 -0.0057853480109006268 0.0024357391127904559 0.11385239648397744 0.054889169195057687 0.18677792876745014 0.18539878032259061 0.14462379503479639 0.031663176192550054 0.077389394532068584 -0.0080614750681144726 -0.01776776038947812 0.056409061768892502 -0.0086966158247044657 0.044011732517604506 -0.0051629257159131713 0.1602248762081728 0.020185178245383125 0.088679197950051802 0.0095568973528581194 -0.0061596142346020191 0.072622381239528147 -0.0086572532521600257 0.074132030370540766 0.056777531719304775 0.01094855174019032 0.12810665934982843 0.012848661591610022 0.046346090757954088 0.00014618602205725069 0.0090863531299612086 0.019784765775675239 0.10711398519707116 0.072763111779098666 0.088970850123254105 -0.0012248427175102653 -0.015786927705758007 0.032731128471665087 0.15520239539725333 0.021643183577787422 0.17828328187686443 0.028525187632170643 0.044559269770864371 0.014716643556384957 -0.010292529937386299 0.069906638859384362 0.13637887547017 0.053817910063845613 -0.0059442072132956415 -0.0015709370971331339 0.090904335785430723
leaf_weight=963.07576313987374 4.8200237955898055 7.7547513414174309 63.173509305343032 28.500847803428769 8.8114750124514085 54.993510978296399 6.70901896059513 6.0544987190514794 4.4770896248519412 46.99581878259778 5.8383867777883998 10.435359125956891 6.0361174382269374 7.8068741466850069 53.261641418561339 4.7657278589904299 11.132117623463271 10.095465585589411 5.33558664098382 6.1480186767876193 8.0493518617004174 14.17639200016856 4.8353825490921833 44.04283157736063 6.4097343143075767 4.9086459707468739 11.028727935627101 14.266153069213031 6.8087913002818814 36.059027351438999 11.492763146758081 17.05645470507443 5.6764773800969115 10.192345090210436 112.23733943141997 14.567702123895286 48.051028192043304 36.051847871392965 8.7518311776220781 81.082915715873241 38.997254092246294 150.25681642629206 16.436566717922688 4.6508132386952648 5.9562748391181231 19.056015599519014 12.851944785565136 5.0393441766500455 695.85761199891567 6.7520361971110088 14.223561359569429 28.561759164556861 6.6311430335044843 6.54286764934659 8.3741933926939964 93.927658217027783 440.33346943370998 4.378779435530304 5.9333219416439533 10.458076097071169 308.60730159841478 7.110711943358182 8.5164572391659004
leaf_count=55818 214 418 2820 664 298 2332 312 237 167 2368 288 414 246 312 2727 231 283 262 186 238 320 647 233 2136 206 217 366 695 296 1479 424 659 241 243 5602 655 2010 1674 318 3836 1770 7302 742 205 270 560 381 247 38305 285 454 1353 299 301 301 4430 23775 202 246 546 16079 368 430
internal_value=-5.04902e-05 -0.00979435 0.0361925 0.0594161 0.0486912 0.0175927 0.00634711 0.0450664 -0.0174028 0.0194729 -0.017754 0.038506 0.0260333 0.0175594 -0.00392835 0.0219806 0.121482 0.096668 0.0598256 0.0974199 0.0579839 0.0245775 0.0584314 0.0207036 0.0864937 0.0777834 0.101344 0.0179073 0.0948858 0.0459209 0.0686252 0.0433315 0.0665304 0.138775 0.00668963 0.0152289 0.0236412 0.0374918 0.0862755 0.0284898 0.0415668 0.0102745 0.0436099 0.0969353 0.004683 0.110785 0.138003 0.0614989 -0.0115713 0.062214 0.128538 0.0497864 0.0644969 0.111166 0.0935099 0.00429376 -0.0081851 -0.00934779 0.0876332 -0.0120334 -0.00382334 0.0140868 0.0512622
internal_weight=3711.42 2925.61 785.814 348.494 298.669 437.319 937.294 123.354 1988.31 411.172 1983.84 247.854 85.6377 79.6016 526.122 73.6545 49.8253 50.8149 100.578 25.5343 24.6081 364.176 35.9472 328.229 37.7165 29.2382 31.662 314.053 24.3295 75.0436 38.9846 28.5492 20.1987 38.6932 313.965 201.728 147.276 84.1029 16.8012 176.082 94.9992 187.16 25.9074 9.47084 161.252 42.0034 22.9474 10.9956 1020.76 17.5207 20.6333 80.733 52.1713 13.174 14.5222 137.97 452.467 444.712 12.6854 1014.92 319.065 68.8888 15.6272
internal_count=191943 158778 33165 13137 11947 20028 47575 4791 111203 19424 111036 10446 3528 3282 28151 3756 1190 1501 3942 966 950 17056 1589 15467 1263 1277 1026 14820 1060 2976 1497 1083 780 907 15237 9635 6504 3684 638 8254 4418 8980 1161 419 7819 1203 643 517 55218 764 660 3723 2370 600 539 6566 24395 23977 531 54930 16625 3525 798
is_linear=0
shrinkage=0.05


Tree=6
num_leaves=64
num_cat=0
split_feature=75 75 75 77 92 0 40 29 34 83 75 55 54 4 29 36 4 55 83 81 11 26 4 70 70 27 4 51 77 75 51 9 42 29 75 83 33 45 107 47 40 107 31 55 36 75 90 34 84 81 13 111 46 29 43 53 28 77 4 56 47 48 109
split_gain=620.246 124.86 84.0473 81.5875 63.5794 39.9277 33.2537 27.0922 25.0531 26.7708 23.1925 23.7251 23.126 22.3805 20.219 19.8955 19.8639 19.1586 19.6226 19.0244 17.4975 16.449 19.7624 16.2738 22.4906 15.4978 14.184 17.8261 27.4366 13.9398 13.9047 13.7436 17.7996 15.299 13.5468 12.7166 16.4581 15.4766 13.3908 12.6212 12.3743 12.2812 15.6729 12.0162 20.9253 17.8061 16.5936 11.973 11.7073 21.7481 13.8085 11.8555 18.6325 13.3183 11.4732 27.7816 12.8397 11.4204 11.2254 12.5392 18.4946 14.0087 18.0308
threshold=0.088135000318288817 0.27127875387668615 0.035615000873804099 0.030487803742289547 0.14791184663772586 1.5000000000000002 4.6816148757934579 11.647727012634279 -45.700000762939446 1.1717561483383181 0.17734249681234363 -39.640352249145501 0.30412369966506964 179.00000000000003 4.6022727489471444 -315.69285583496088 756.50000000000011 -64.95613861083983 0.23453725129365924 -0.31730769574642176 3168.5000000000005 1.5000000000000002 604.50000000000011 1.3044500350952151 6.133049964904786 15.708333492279055 228.50000000000003 0.025773195549845699 1.0000000180025095e-35 0.36258250474929815 4.7268042564392099 36.500000000000007 -0.13380281627178189 5.5113637447357187 0.045543750748038299 0.4005711972713471 0.65625000000000011 10.460555553436281 0.097243998199701323 45.138887405395515 2.2956532239913945 1.0029935836791994 1.0000000180025095e-35 -26.377193450927731 -104.37857055664061 0.11575125157833101 0.0056666999589651832 -150.01110839843747 0.26643274724483496 -2.3749999999999996 3131.5000000000005 0.27283409237861639 26.043610572814945 2.4431818723678593 57.09632873535157 4.472222328186036 -1800.722229003906 0.31097561120986944 46.500000000000007 1823.791687011719 33.741411209106452 7.6510303020477304 0.01711200084537268
decision_type=10 10 10 10 10 2 10 8 10 10 10 10 10 2 8 10 2 10 10 10 2 2 2 8 10 10 2 10 10 10 10 2 10 10 10 10 10 10 10 10 10 10 10 8 10 8 10 8 10 8 2 10 8 8 10 10 10 10 2 10 10 10 8
left_child=2 4 -1 6 5 57 23 8 9 -5 15 39 16 30 34 17 29 40 -19 -18 -10 -9 -23 -3 26 -15 -25 28 -28 -8 41 32 -27 48 -4 36 -17 -37 43 -12 -7 -6 -43 44 46 -45 -39 -48 49 51 -50 53 -53 -33 -55 -56 -57 -2 -36 -60 61 62 -61
right_child=1 3 14 7 13 10 12 21 20 -11 11 -13 -14 25 -16 35 19 18 -20 -21 -22 22 -24 24 -26 31 27 -29 -30 -31 -32 33 -34 -35 58 37 -38 38 -40 -41 -42 42 -44 45 -46 -47 47 -49 50 -51 -52 52 -54 54 55 56 -58 -59 59 60 -62 -63 -64
leaf_value=-0.02452838150565706 -0.012393276541704992 0.00051658324927560876 -0.011318530206135428 0.065999717565541183 -0.015700438468651084 0.092890305775224724 0.0077019325577671301 0.016682267381420781 0.10168777620960685 0.15232190275488688 0.11872471682685917 0.020723357999276801 -0.01276281532631343 0.08260578120011304 -0.011511360636341679 0.091067603542252185 0.1760782362119688 0.087681701070305165 -0.0062242265837993711 0.05579912754317029 0.0077240445625159958 0.029832598136735944 0.12737979049237189 0.019553014431474638 -0.011013547327106282 -0.00075801478211353517 0.050925675890598737 0.022185890549372801 0.15938675093029603 0.066108417475562481 0.054000578649386691 -0.044944011350713131 0.078945168770955157 -0.0013255681847270501 -0.017174536794253327 0.12506848528725786 0.018064777447034268 0.10210709875275106 -0.0089274754473391837 0.043580533451318217 0.03100459241778046 0.091994200809040333 -0.017012325313524177 0.17250500496171256 -0.023430060850397703 0.049493379290843263 0.0032434131247966141 0.080558834634977664 -0.0024945261975517215 0.1183423990868739 0.059720835401924723 0.13093639770658813 0.019480261087729808 -0.0073409371904918589 0.12813523451040598 0.055819757289953545 -0.013454039919806093 0.046914068846956258 0.0015619007450922303 0.15482306027972925 0.011644978519725291 0.023495341129128405 0.017086968014618769
leaf_weight=1109.5429357085377 49.419039571657777 53.05818903632462 171.91511071845889 15.1180661637336 139.03536626882851 9.0624806191772205 12.593348562717436 17.133635573089123 9.3939330633729714 35.097038622945547 22.451120985671881 14.928595339879392 9.4071133174002153 7.2265367154031983 768.35251824371517 8.4934785999357683 7.1331123486161232 5.1318269502371541 59.051818672567606 7.8287079185247404 9.8076338674873096 10.58698081597686 10.952636333182452 27.939793594181538 20.098147489130497 11.919261962175369 18.573441457003359 16.000132694840431 8.7219947148114425 60.481836907565594 7.5760438889265052 7.2065188139677039 15.924397392198443 153.77838228829205 49.297357503324747 8.6406937278807145 45.935233347117901 14.970644457265726 7.2982177399098864 9.4978871624916774 54.292190592736006 5.2976679261773807 6.3775765728205442 4.8168331626802656 8.0198272708803469 8.439137963578105 13.695359924808143 6.9750220663845566 62.736315947026014 6.0830370169132939 9.3832026775926334 5.314724059775469 10.301935030147433 18.429473154246807 6.2560346797108677 10.687185050919652 14.940750552341342 8.6780532691627723 267.34012641198933 5.5632767323404559 113.88383699953556 13.101612906903027 4.1563747264444837
leaf_count=66207 2398 2256 9516 455 6947 368 547 466 246 826 660 527 389 309 41619 363 257 242 2618 229 245 286 265 1158 809 551 766 632 309 1942 375 326 764 7515 2592 335 2045 589 314 286 2246 259 323 217 336 353 577 298 2913 263 435 206 391 854 281 464 683 339 14140 285 5765 662 221
internal_value=-6.61829e-05 0.0293408 -0.0142661 0.0544823 0.019039 0.0350282 0.038075 0.0905058 0.109386 0.128129 0.0423155 0.0746033 0.0605525 0.00745092 -0.00608396 0.0361074 0.0684419 0.0218837 0.00251402 0.120581 0.0564518 0.0547146 0.0828849 0.0225937 0.0352744 0.0146641 0.0483056 0.0660001 0.0899915 0.0562828 -0.00804629 0.0129466 0.0459826 0.00979148 0.000593266 0.0500778 0.0308941 0.063797 0.053761 0.0983863 0.0411628 -0.0115007 0.0358052 0.0618147 0.0472338 0.103157 0.0633399 0.0318463 0.0210223 0.0341738 0.00630614 0.0256714 0.0630086 0.0146309 0.0238735 0.0415905 0.0164454 -0.0028905 0.00512539 0.00788188 0.0201401 0.0602645 0.103012
internal_weight=3711.35 1208.2 2503.15 349.926 858.272 359.797 241.836 108.09 69.4167 50.2151 301.7 46.8776 97.4441 498.474 1393.61 254.823 88.037 127.538 64.1836 14.9618 19.2016 38.6733 21.5396 144.392 91.3335 340.188 71.2354 43.2956 27.2954 73.0752 158.287 332.961 27.8437 305.118 625.258 127.284 54.4287 72.8557 64.215 31.949 63.3547 150.711 11.6752 56.9168 43.6609 13.256 35.641 20.6704 151.339 79.2197 72.1195 73.1366 15.6167 57.52 50.3134 31.884 25.6279 58.0971 453.343 404.045 136.705 22.8213 9.71965
internal_count=192060 51053 141007 12083 38970 15111 9294 2789 1772 1281 12374 1473 3364 23859 74800 10901 2975 5474 2860 486 491 1017 551 5930 3674 15955 2865 1707 1075 2489 7904 15646 1315 14331 33181 5427 2408 3019 2684 946 2614 7529 582 2370 1800 570 1464 875 6816 3468 3348 3205 597 2608 2282 1428 1147 2737 23665 21073 6933 1168 506
is_linear=0
shrinkage=0.05


Tree=7
num_leaves=64
num_cat=0
split_feature=75 75 75 77 77 107 76 15 88 1 40 77 81 1 49 35 40 40 76 38 8 109 52 11 52 41 25 26 48 111 6 6 13 27 11 50 35 45 96 54 49 82 50 50 10 70 46 53 40 8 43 45 10 107 109 84 34 10 38 55 41 51 93
split_gain=492.975 105.234 76.9471 62.6011 54.8376 36.8408 40.6009 27.7161 22.6587 21.3338 21.1639 21.008 18.9702 18.8663 21.1801 17.7124 22.6207 17.5509 16.6558 15.1338 15.0532 13.8943 17.3624 17.5916 12.748 12.6141 20.7952 12.2323 11.7638 13.9885 11.482 10.9884 11.546 10.8526 10.689 11.7283 18.2349 13.152 13.6015 13.4788 12.4109 12.8602 14.6691 15.8428 11.6799 15.5373 11.976 11.3183 17.8292 10.5735 10.5327 10.5166 10.9564 10.3789 11.3216 10.3531 10.2902 10.2202 10.2158 10.8551 12.7179 12.1704 10.2086
threshold=0.086167503148317351 0.4191462397575379 0.033695001155138023 1.0000000180025095e-35 0.079268291592597975 3.0292415618896489 -1.2499999999999998 1.5000000000000002 0.065912000834941878 1.5000000000000002 20.04250526428223 0.27439025044441229 -2.5288461446762081 1.5000000000000002 23.743315696716312 -0.57526880502700795 4.8686687946319589 16.719063758850101 -0.13888889178633687 0.36666667461395269 278.50000000000006 0.0075230000074952849 -4.4277107715606681 2522.5000000000005 -4.3433735370635977 -1.0000000180025095e-35 8.5000000000000018 2.5000000000000004 1.0345596671104433 0.86913582682609569 247.50000000000003 95.000000000000014 95.000000000000014 52.541666030883796 4646.5000000000009 29.166209220886234 -10.908602237701414 6.8058958053588876 0.0023536001099273567 0.8195876181125642 73.833946228027358 0.28683805465698248 11.856960296630861 20.838461875915531 1163.5000000000002 2.6869499683380131 26.969416618347172 22.009259223937992 13.221145153045656 26.500000000000004 5.3814644813537607 8.9069781303405779 111.50000000000001 0.045427201315760619 0.013397999573498966 0.047479350119829185 -143.6111145019531 460.50000000000006 0.10000000521540643 -20.850877761840817 -0.28787878155708307 4.3969073295593271 0.0071104499511420735
decision_type=10 10 10 10 10 10 10 2 10 10 10 10 10 10 10 10 10 10 10 10 2 10 10 2 8 10 2 2 10 10 2 2 2 10 2 10 10 10 8 10 10 10 10 8 2 10 10 10 10 2 10 10 2 10 10 10 10 2 10 10 10 10 10
left_child=2 4 12 10 9 6 -5 8 11 17 25 15 -1 28 50 51 -17 27 49 -16 -10 24 23 -23 -13 26 -3 -2 -8 -30 -29 -20 -33 -28 35 37 47 38 -34 40 -39 -42 -43 -44 46 -46 -38 48 -37 -4 -15 -6 -53 54 -24 -9 -18 -21 -51 60 61 -60 -54
right_child=1 3 18 5 7 -7 13 55 20 -11 -12 21 -14 14 19 16 56 -19 31 57 -22 22 53 -25 -26 -27 33 30 29 -31 -32 32 34 -35 -36 36 44 39 -40 -41 41 42 43 -45 45 -47 -48 -49 -50 58 -52 52 62 -55 -56 -57 -58 -59 59 -61 -62 -63 -64
leaf_value=-0.024937756594285019 -0.01799864912781508 -0.015851713058742941 -0.02773585305194038 0.15292812465965622 0.086420991050844026 0.14834152080906784 -0.033516063152853402 -0.028366533492353192 0.14505806439907543 0.01431716674411769 0.097107836067015341 0.050010975335553903 0.069669511564694864 0.068825392140482319 0.022354458248212875 0.011535395554082097 0.12526830206619102 0.055592174431338848 -0.020559018442375274 0.12049081749981981 0.035890600230803572 0.088478405807609573 0.15332659009138078 -0.0070958433109236376 -0.031581970744696403 0.0060169032397194002 0.041207240070499813 0.0016024687679988396 -0.01477415931286093 0.072317677078984219 0.073157830254377318 0.063623526188870905 0.088996050958304318 0.12429201352922528 -0.025434401981766414 -0.0086250240974568518 -0.038532138609906799 -0.0088291195714921052 -0.013644726385923511 -0.016534344704611684 0.0035536914134883936 -0.0029927105170505382 0.142108738864486 0.014804487264706413 0.00068096025680845903 0.13034368156374634 0.027965244751642599 -0.015773054094148625 0.08322860334866887 0.071863453623515525 0.14419452021757587 -0.019063724478957676 0.038472647640672902 0.051189162560364793 0.066765602753352637 0.015976979160407519 0.051545077803942976 0.048605954181622418 -0.011692026774219745 -0.035083516615313906 0.028522627979490733 0.0068107674275702237 0.013054069985745764
leaf_weight=1002.687822367996 121.4692878741771 8.8508232273161429 29.129585489630699 11.560256641358135 5.1700988113880149 15.914189092814921 7.2555185910314348 18.753706676885486 7.3949519004672748 502.22021015919745 8.3853973094373924 12.779648141935466 4.3942281939089289 13.845115143805744 28.40334171243012 15.669216854497789 10.603489259257911 9.7811663039028627 204.82123220711946 8.2596376743167657 6.4426208063960075 7.2003153674304512 10.69838123209775 11.335194796323774 6.5039073843508985 66.890066020190716 11.937012160196902 31.267611989751458 7.1476277019828585 10.655500404536722 5.8437947053462258 4.68240569718182 5.7900556866079542 6.4015420190989962 77.448579853400588 14.379091802984478 7.1315159704536191 94.002671407535672 5.7122230492532262 331.882907519117 32.969250554218888 6.3185212388634708 5.479663506150243 4.336914625018836 3.8591132499277574 4.7964948173612356 42.094004038721323 78.638691717758775 7.2047467753291121 4.298074970021843 10.689308021217583 16.069644022732973 65.847296291962266 11.571722548454998 9.5265986025333387 38.457529492676258 12.114472422748806 16.329228347167373 131.31248562969267 17.911457046866417 44.907805949449539 269.7116486672312 100.6925268098712
leaf_count=61495 5997 316 1522 165 185 363 240 848 251 23251 217 433 226 351 722 571 389 445 11444 204 219 210 312 355 210 2575 404 1506 234 299 261 262 284 226 4283 786 392 5179 287 18469 1832 347 300 236 208 259 2298 4337 392 222 255 648 2745 288 257 1740 448 405 6872 938 2334 14080 4075
internal_value=-0.000711346 0.0245341 -0.0138775 0.0548767 0.0176868 0.077814 0.0667781 0.0332056 0.039096 0.00916067 0.0252915 0.0359156 -0.0244563 0.0556873 0.0677803 0.0283005 0.0589487 -0.00621479 -0.00640934 0.0484385 0.100075 0.0599043 0.0735999 0.0326596 0.0222912 0.0179364 0.0460066 -0.0103515 0.0171088 0.0384258 0.014494 -0.0103501 -0.0074485 0.0751375 -0.00799675 -0.00586546 0.00593785 -0.00970569 0.0410087 -0.0110174 0.00180318 0.0219271 0.0570714 0.0924347 0.0280337 0.0785911 0.0177561 -0.00697395 0.0243636 0.000978889 0.106024 0.0217561 0.0194646 0.0957421 0.11762 0.00120368 0.0897858 0.0765178 0.00282094 0.00202796 0.00359376 0.000738147 0.0232738
internal_weight=3705.84 1269.94 2435.9 232.525 1037.41 130.06 114.146 366.831 309.62 670.582 102.465 295.783 1007.08 102.585 77.5266 226.167 38.3872 168.362 1428.82 52.9922 13.8376 69.6158 50.3322 18.5355 19.2836 94.0794 27.1894 158.581 25.0586 17.8031 37.1114 931.548 726.727 18.3386 722.044 644.596 158.104 486.492 11.5023 474.99 143.107 49.1043 16.1351 9.81658 57.8811 8.65561 49.2255 100.223 21.5838 497.271 24.5344 187.78 182.609 31.7967 20.225 57.2112 22.718 24.5889 468.141 463.843 445.932 401.024 166.54
internal_count=191904 52620 139284 6976 45644 3238 2875 14184 11596 31460 3738 11126 61721 2710 1937 9061 1408 8209 77563 1331 470 2065 1422 565 643 3521 946 7764 773 533 1767 51595 40151 630 39889 35606 8672 26934 571 26363 7894 2715 883 536 3157 467 2690 5515 1178 25968 606 7653 7468 857 569 2588 837 609 24446 24224 23286 20952 6820
is_linear=0
shrinkage=0.05


Tree=8
num_leaves=64
num_cat=0
split_feature=75 75 75 77 107 107 78 77 47 43 43 53 75 62 76 61 29 53 91 93 29 26 9 48 111 54 29 98 44 100 34 31 56 33 100 50 56 47 40 96 6 13 96 70 9 61 4 4 10 45 82 82 56 40 111 17 29 46 91 31 85 75 98
split_gain=477.18 88.9575 74.7375 54.9065 46.6872 27.4301 24.9327 24.4582 24.4353 25.2986 23.6314 19.2424 28.0325 20.9536 19.2423 18.9024 16.7111 16.1041 15.9387 17.994 15.9154 15.0035 16.3561 14.4981 14.3869 15.0191 14.1965 13.9659 13.8544 13.5693 16.5803 12.4543 14.6978 15.3503 12.8511 12.3741 15.3755 21.9564 12.3574 12.33 11.8057 11.7367 14.9535 11.6131 11.3115 12.7974 11.0694 11.0256 11.6792 10.9188 10.9986 10.9871 10.9095 10.6946 14.9734 10.5323 13.7798 10.8427 10.4874 13.3761 12.0924 14.7963 13.3076
threshold=0.09363999962806703 0.27127875387668615 0.035923751071095474 1.0000000180025095e-35 0.087659601122140898 3.0292415618896489 -1.4999999999999998 0.030487803742289547 30.111009597778324 11.636111259460451 5.3814644813537607 13.361110687255861 0.16780125349760058 8.549999952316286 -0.13888889178633687 80.196601867675795 9.943181514739992 1.4722222089767458 0.079307097941637053 0.0071721000131219634 6.3068182468414316 3.5000000000000004 124.50000000000001 7.5177304744720468 0.94640204310417186 0.41752576828002935 4.4886362552642831 0.12509384751319888 4.3758616447448739 0.0023614499950781469 -276.74444580078119 -0.14705882966518399 3935.708374023438 10.906250000000002 0.01033500023186207 11.244933128356935 196.87500000000003 37.479488372802741 4.4162850379943857 0.00071905000368133198 132.50000000000003 1845.5000000000002 0.0012404500157572331 3.6151499748229985 36.500000000000007 80.196601867675795 200.50000000000003 858.50000000000011 1010.5000000000001 71.258773803710952 3.7706141471862797 6.0035705566406259 2249.708374023438 13.221145153045656 0.11642234772443773 1.5000000000000002 9.3750000000000018 27.213143348693851 0.051186600700020797 -0.36274510622024531 0.051349999383091934 0.084257502108812346 0.017329200170934204
decision_type=10 10 8 10 10 10 10 10 10 10 10 10 10 10 8 10 8 8 10 10 8 2 2 8 10 10 8 10 10 10 10 10 8 10 10 10 10 10 10 10 2 2 10 10 2 10 2 2 2 10 10 8 10 10 10 10 8 10 10 10 10 10 8
left_child=2 4 29 6 11 7 17 8 9 10 46 13 20 28 16 21 58 38 19 -14 31 24 -23 -15 25 27 35 -9 39 30 -1 34 33 41 -13 -6 37 -37 49 -2 -16 42 -33 -27 45 -28 -5 48 55 50 -3 -52 -43 -22 -55 -41 57 -57 59 -4 61 -61 -63
right_child=1 3 14 5 26 -7 -8 15 -10 -11 -12 12 18 23 40 -17 -18 -19 -20 -21 53 22 -24 -25 -26 43 44 -29 -30 -31 -32 32 -34 -35 -36 36 -38 -39 -40 47 -42 52 -44 -45 -46 -47 -48 -49 -50 -51 51 -53 -54 54 -56 56 -58 -59 -60 60 -62 62 -64
leaf_value=-0.018817966566566105 0.0037989736971710051 -0.0022980979400580889 0.071029379418236671 -0.021966180029623916 0.00096015106854418445 0.12265855657314113 0.076279120350791652 -0.02774410637027603 0.092336000315813599 -0.00096183932797208821 0.11767406879009411 0.095651664170739503 0.069699176234238172 -0.025236966338958802 -0.016747245359929656 0.021702482531966692 -0.011061660896013292 0.086145900144459858 0.082481299253628682 -0.024023865941117273 -0.020355867927849561 0.052236893473670845 0.13647200922782718 0.063589264465762893 0.10698844045077219 0.041964231904170778 0.0098277186976955862 0.055769918250135164 0.016318274096314572 -0.022539352225424095 0.11015432125792853 0.10642898013443705 0.093693494606969727 -0.0055767272146591057 0.0096505768343082259 0.034528397344955462 0.01687536401874291 0.13328775465628498 0.031705005280329997 0.035412156004872415 -0.0048103655064994063 -0.010302406570520506 0.016536070323168634 0.10201022023166124 -0.00035831503124689402 0.08141539174648095 0.05282253624245619 0.14608817063773344 0.024435737644539941 -0.0210581599992462 0.087014818026655255 0.0048857790408423085 0.059491876932317528 0.076522598371036921 -0.004480973574978825 0.18242439900852891 0.033747260838047521 0.083016219704458313 0.020390816541291018 0.0020835218824325091 -0.024509822533581974 0.093470988248665454 -0.0083248383477257503
leaf_weight=5.27247722633183 5.3573277592658988 30.699394624680281 5.9712687674909821 7.4889933168888154 50.811854520812631 17.212193900719285 18.499188710004091 9.3905181344598549 14.970545245334504 43.436653103679419 9.9193030856549722 10.907120119780304 8.8721838165074605 12.494130333885552 313.5568234231323 17.174550510942936 148.08103792928159 6.6431529708206645 27.629344820976257 9.8631178531795722 39.510680746287107 10.449931761249902 20.103157179430127 5.9724687859415999 16.065765295177698 20.686761759221554 21.168737556785349 8.7509602885693294 12.32245879806578 1050.7032115887851 3.3500585872679931 9.1420057844370621 5.2063991259783498 48.14689932949841 7.2254596911370745 24.081481250002984 62.803076263517141 6.8602691981941453 45.813868040218949 8.8028852697461861 610.28928417898715 17.293247928842906 9.3084792122244817 15.483402416110037 327.00859169103205 8.0601253490895015 11.418704628944395 6.3472176380455485 10.90018002130091 35.462145578116179 7.6816025953739855 7.9074635058641443 7.1237222347408524 7.2303618900477913 18.265235301107168 6.059080243110663 6.0707786232233039 10.162320220842956 126.38548138365149 192.0642032455653 38.636213894933462 7.6512255612760756 4.8628783095628032
leaf_count=326 202 1344 299 276 2319 349 541 278 497 1556 311 413 249 534 17615 419 7899 262 779 313 1723 240 430 245 245 501 1008 251 507 65643 182 341 182 1889 300 1047 2619 275 1609 343 33676 687 337 353 15574 374 348 239 455 1527 305 305 267 323 785 221 257 378 6312 9935 1971 353 222
internal_value=0.000433313 0.0265472 -0.0119298 0.0466541 0.0171976 0.0624719 0.0233452 0.0568569 0.0361124 0.0233635 0.0588204 0.0324101 0.0246016 0.0527398 -0.0045387 0.0717472 0.00311479 0.0155386 0.0588729 0.0216419 0.0154651 0.0799664 0.11023 0.00528203 0.0654677 0.0514734 0.00772851 0.0133498 0.0657371 -0.0220155 0.0375309 0.0266176 0.0190506 0.0138089 0.0636776 0.0208864 0.0315627 0.0599122 0.0112201 0.0765715 -0.00887551 0.0352128 0.0642588 0.0697211 0.0023457 0.0316089 0.0235847 0.0843957 0.0718906 -0.000504238 0.0153547 0.0481611 0.0115998 -0.00425942 0.0205122 0.0872459 0.105315 0.128584 0.00871885 0.00274105 0.000780494 0.00565276 0.056225
internal_weight=3693.09 1186.27 2506.82 375.258 811.007 222.551 152.707 205.339 87.2342 72.2637 28.827 310.213 225.724 84.4888 1447.5 118.105 523.652 134.208 46.3646 18.7353 179.36 100.93 30.5531 18.4666 70.3774 54.3116 500.794 18.1415 66.0222 1059.33 8.62254 114.353 96.2208 91.0144 18.1326 144.557 93.7448 30.9418 127.564 53.6998 923.846 42.8675 18.4505 36.1702 356.237 29.2289 18.9077 48.3425 41.9952 81.7506 46.2885 15.5891 24.417 65.0063 25.4956 31.0951 22.2922 16.2214 375.571 249.186 243.215 204.578 12.5141
internal_count=191565 47132 144433 11947 35185 6054 5893 5705 2988 2491 935 11969 8588 3381 78282 2717 26991 5352 1341 562 7247 2298 670 779 1628 1383 23216 529 2602 66151 508 4416 3703 3521 713 6260 3941 1322 5090 2095 51291 1632 678 854 16956 1382 624 1893 1654 3481 1954 610 954 2831 1108 1199 856 599 19092 12780 12481 10510 575
is_linear=0
shrinkage=0.05


Tree=9
num_leaves=64
num_cat=0
split_feature=75 75 75 76 40 1 77 29 13 51 31 35 40 44 34 100 81 75 10 47 82 13 18 44 70 3 70 46 6 9 17 61 25 104 34 9 40 70 27 93 29 43 10 93 108 35 9 13 40 61 25 11 29 107 51 36 40 49 68 26 29 75 33
split_gain=384.064 78.4999 56.6512 35.7546 30.5063 20.9569 19.8565 16.782 15.6871 15.6779 14.9121 19.409 23.0297 18.8114 16.4277 16.9015 18.3813 15.0886 14.4801 14.4045 14.0964 13.3388 16.9472 13.2262 13.7038 13.1597 12.5648 12.4945 12.1683 12.7796 13.0673 14.1069 12.7424 12.1115 13.9061 12.0344 13.9354 14.2963 11.6465 11.4871 18.4064 11.5909 15.926 11.4633 15.3181 11.3202 16.7048 11.2724 11.0655 12.6999 10.8341 10.723 11.6937 12.7517 14.7489 16.6178 16.9922 10.9382 10.2179 12.8316 13.9924 11.3724 10.5947
threshold=0.10001125186681749 0.033379999920725829 0.31653749942779547 -0.25000000745058054 6.1597373485565194 1.5000000000000002 0.030487803742289547 5.6250000000000009 3140.5000000000005 3.2010309696197514 -0.12745098397135732 -26.435483932495114 25.279205322265629 35.998624801635749 -276.74444580078119 0.0053397500887513169 -18.932692527770993 0.081446249037981047 1224.5000000000002 44.55513000488282 0.21473955363035205 2330.5000000000005 1.5000000000000002 0.17509493231773379 6.1540498733520517 15.500000000000002 2.6869499683380131 20.588140487670902 30.500000000000004 93.000000000000014 4.5000000000000009 84.738002777099624 3.5000000000000004 0.015871499665081504 -314.43333435058588 60.500000000000007 4.1801946163177499 5.8999500274658212 63.736112594604499 0.013577399775385858 17.613636016845707 58.525848388671882 547.50000000000011 0.0032413500593975191 0.032761599868536002 -3.7258064746856685 154.50000000000003 95.000000000000014 22.003571510314945 68.281951904296889 9.5000000000000018 4654.5000000000009 4.204545497894288 0.05792639963328839 4.0979380607604989 -159.34999847412107 5.3575007915496835 72.473083496093764 2.0999999642372136 2.5000000000000004 8.693181514739992 0.55594125390052807 3.7812500000000004
decision_type=10 10 10 10 10 10 10 10 2 10 10 10 10 8 10 10 8 10 2 8 10 2 10 10 10 2 10 10 2 2 10 10 2 8 10 2 10 8 8 10 8 10 2 10 10 10 2 2 10 10 2 2 8 10 10 10 10 10 10 2 8 10 8
left_child=1 33 3 39 5 26 9 8 18 -3 11 -8 13 17 15 -15 -17 -13 28 -14 -20 25 -23 -7 58 -6 27 -4 -5 35 31 -31 -32 34 -1 36 -30 -38 -34 43 41 -41 -43 44 -2 -28 -47 -11 49 -24 -10 52 53 -12 -55 -56 -57 -54 59 60 62 -62 -25
right_child=2 6 4 7 21 23 10 -9 50 47 51 12 19 14 -16 16 -18 -19 20 -21 -22 22 48 24 -26 -27 45 -29 29 30 32 -33 38 -35 -36 -37 37 -39 -40 40 -42 42 -44 -45 -46 46 -48 -49 -50 -51 -52 -53 57 54 55 56 -58 -59 -60 -61 61 -63 -64
leaf_value=-0.029175680511220894 0.028159814506208615 0.0022421373438098941 -0.019262207906781393 0.074141273273378647 0.023559327921700873 0.015072301416268112 -0.0085756359735915232 0.000712410968809083 0.0085335476300722555 0.043264934560505015 0.00068418238045531501 -0.0099419168659458067 0.12961712994241681 -0.0020888475570099135 0.0093369635093170297 0.16792632934699975 0.053236000186118196 0.043845112423238658 0.05086775616126208 0.023605268549218628 -0.036150884587490821 0.013816496613997484 0.080115455693640023 0.08984743646322621 0.0083912371408802477 0.074579451353077517 -0.017296564357303142 0.042837371932672237 -0.01926195430582342 0.014881075636981983 -0.0087000234549329293 0.08644447800390942 0.11406565404967542 -0.022971780356754967 0.094073702034006917 -0.03428450875732892 0.014120815157367451 0.10276444904720339 0.021441916167135571 0.028136556217729591 -0.015817785413802736 0.15304418229765465 0.050959466245119968 0.023851098985378918 0.11472547283808653 0.11429683783755039 0.010906165145685227 -0.016976130176510784 0.11814466357502784 0.016848347944571157 0.089479146336119295 -0.021626818185510155 0.049935440906119677 -0.013054693130910172 0.021336427001042414 0.020997792561302551 0.1387221630845363 -0.0076270072672402671 0.11287411302239139 0.083387880233619913 -0.032552818093677841 0.037425873359457545 0.009598224972555575
leaf_weight=3.6589455828070641 14.656123358756306 157.87723380327225 40.909597283229232 8.5741031114011985 41.684332609176636 36.921390132978559 75.639794863760471 267.25410501100123 6.534194132313135 6.9720556717365971 214.67229801975191 63.628404550254345 6.7554429750889513 6.1716304421424892 22.210919117555022 4.9416770953685045 12.43727493286133 15.334476636722682 4.8886392954736975 6.3840535953640947 22.316363176330924 11.083911048248408 40.785814136266708 12.403682757169006 15.591470682993529 18.203188857063651 6.2153383195400265 9.061797956004737 19.37551655434072 158.44016602635384 4.9028112255036858 6.2667876798659554 9.2877209149301017 945.76237672753632 3.8302232390269628 19.848566291853786 18.888478055596355 5.1745556816458693 5.8890626933425674 9.046896234154703 6.0543142333626738 7.547386351972821 9.7301642782986146 175.77424528636038 7.7100075501948586 6.5306327026337376 8.6095913499593717 457.16466061584651 17.101090278476477 10.559719389304517 11.437580032274125 70.567316502332687 7.4312102254480115 17.456697057932615 35.63667118921876 5.9569395221769792 6.3827061653137207 420.06691433303058 8.0913295634090883 21.095798661932349 9.624719815328719 11.834613148123024 6.3106325473636415
leaf_count=232 466 8674 1612 352 1059 1154 3994 12843 258 390 11125 3462 345 314 1145 251 637 737 213 330 994 291 1014 405 503 396 203 317 857 6670 210 252 392 60715 195 943 787 216 244 309 235 234 328 6078 227 218 314 25914 352 264 464 3776 392 892 1838 309 323 22676 237 577 362 327 194
internal_value=-0.000389543 -0.011089 0.0238565 0.0166075 0.0411807 0.0280787 -0.00436345 0.00984695 0.0179062 -0.0113589 3.13381e-05 0.0117052 0.022814 0.0158164 0.0409493 0.0691686 0.0932105 0.000921137 0.0149033 0.0834217 -0.0192649 0.0590076 0.0726179 0.040598 0.0513873 0.0400374 0.00642195 -0.0073816 0.0185858 0.0163757 0.0229869 0.0181092 0.06024 -0.0224578 0.0375148 -0.00298487 0.0117667 0.0365226 0.081672 0.0331827 0.0606983 0.0782309 0.101487 0.0284041 0.0616334 0.0376072 0.0598214 -0.0159801 0.0818038 0.0676744 0.0620499 -0.00318249 -0.00131517 0.00661152 0.0257549 0.0398544 0.0877254 -0.0065122 0.0607957 0.052216 0.0342194 0.0059878 0.0646462
internal_weight=3699.16 2566.94 1132.22 799.598 332.619 193.201 1613.69 569.079 301.825 622.014 991.674 213.504 137.864 124.724 45.7615 23.5506 17.379 78.9629 283.853 13.1395 27.205 139.418 79.5305 121.874 84.9522 59.8875 71.327 49.9714 256.648 248.074 184.787 164.707 20.0796 953.252 7.48917 63.2871 43.4386 24.063 15.1768 230.519 32.3788 26.3244 17.2776 198.14 22.3661 21.3556 15.1402 464.137 68.4466 51.3455 17.9718 778.171 707.603 280.105 65.433 47.9763 12.3396 427.498 69.3608 61.2694 40.1736 21.4593 18.7143
internal_count=192037 148666 43371 33572 9799 6423 87524 25695 12852 34978 52546 11215 7221 6546 2347 1202 888 4199 12130 675 1207 3376 1921 3759 2605 1455 2664 1929 10923 10571 7768 6922 846 61142 427 2803 1860 1003 636 7877 1106 871 562 6771 693 735 532 26304 1630 1278 722 41331 37555 14487 3362 2470 632 23068 2102 1865 1288 689 599
is_linear=0
shrinkage=0.05


Tree=10
num_leaves=64
num_cat=0
split_feature=75 75 75 48 84 40 29 45 50 76 47 75 35 70 11 75 27 44 91 83 33 81 9 47 53 55 103 53 100 91 88 85 9 13 107 85 34 44 8 4 41 35 36 91 43 35 32 9 70 50 82 45 44 4 83 52 109 100 99 98 40 14 70
split_gain=377.658 68.6471 49.6175 42.3572 33.2489 26.8037 22.0706 20.1444 21.353 19.9273 19.6548 18.7629 18.2293 33.5956 22.5541 17.8343 16.4183 14.7322 15.8601 26.8482 15.1035 14.4999 13.887 13.7262 12.7793 12.1511 16.5684 16.7156 14.0345 14 12.2251 24.6365 12.0785 15.2843 15.5712 13.3327 13.1773 12.0287 11.3296 25.4391 17.8057 16.5249 18.1992 15.2948 21.565 12.3216 11.7446 13.2095 11.4211 11.2297 13.9365 11.2026 10.8357 10.5982 17.1654 14.5193 19.0112 16.0876 13.0917 13.2282 12.0663 15.8881 11.6886
threshold=0.075717497617006316 0.22941999882459643 0.052637498825788505 3.2613636255264287 0.041589798405766494 1.1169514656066897 5.5113637447357187 5.653691530227662 29.432242393493656 -0.19444444775581357 8.8218450546264666 1.043027460575104 -1.1559139490127561 2.63444995880127 2813.5000000000005 0.029076250270009044 57.597223281860359 1.6183359026908877 0.10332494974136354 0.48650515079498297 5.2187500000000009 -2.836538434028625 37.500000000000007 44.819406509399421 1.6203703880310061 -67.815788269042955 0.078983999788761153 53.009260177612312 0.0046936499420553454 0.022306050173938278 0.016916800290346149 0.026819000020623211 195.50000000000003 2012.5000000000002 0.043828399851918227 0.033205250278115279 -284.78887939453119 0.14970925450325015 333.00000000000006 608.50000000000011 -1.0000000180025095e-35 -6.9623656272888175 -220.49285888671872 0.21445559710264209 36.418481826782234 -0.33870968222618097 -0.032467531971633427 199.50000000000003 0.4301500022411347 22.575814247131351 0.60338467359542858 79.336044311523452 2.1666083335876469 82.500000000000014 0.72373464703559887 -6.4277107715606681 0.012234000023454429 0.013545349705964329 0.10909274965524675 0.050614200532436378 25.279205322265629 1535.5000000000002 2.5154500007629399
decision_type=10 10 10 10 10 10 8 10 10 10 10 10 10 10 2 8 10 10 10 10 8 10 2 10 8 10 8 10 10 10 8 10 2 2 10 10 10 10 2 2 10 10 8 10 10 10 8 2 10 10 8 10 10 2 10 10 10 8 8 10 10 2 10
left_child=2 3 15 49 -3 22 9 -4 51 12 -11 38 32 14 -14 21 -13 -12 -19 -20 -21 -1 -6 -10 -24 26 27 29 -29 -25 31 -31 33 34 35 36 -5 -37 39 40 41 42 -7 -41 -45 46 47 -40 -43 -2 -51 -9 -36 -8 55 56 -55 -58 59 60 -57 -62 -63
right_child=1 4 7 6 5 11 53 8 23 10 17 16 13 -15 -16 -17 -18 18 19 20 -22 -23 24 25 -26 -27 -28 28 -30 30 -32 -33 -34 -35 52 37 -38 -39 45 43 -42 48 -44 44 -46 -47 -48 -49 -50 50 -52 -53 -54 54 -56 58 57 -59 -60 -61 61 62 -64
leaf_value=-0.02412568449319932 -0.01579396459216147 0.1030148707237977 0.094562153240993513 -0.015834867824738114 0.067241564481068355 0.042004175682731168 -0.0080821602122352135 -0.0053238308428380232 0.0014848385589079284 0.092289895212861073 0.0027230503355024872 0.050526874828217633 0.051972622137251318 0.026571235870240319 0.15865902079985941 -0.013071335253690867 0.11990420398770581 0.010186280362085836 0.15113334135338785 0.090124183948786143 -0.0027067251597210741 0.063754096792044704 0.0013013178160697831 0.13951300984527579 0.053322986817261525 0.0010505455304879404 0.133196747344385 0.054917038586765055 -0.023100298497049983 -0.012670135279409654 -0.019070261364469755 0.14832372181671169 0.074873283916932196 0.0092659213026174674 0.030753382936842495 0.041511554678335762 0.073960304139969887 0.14077419355098972 0.0022850236683368071 0.14306680610963832 0.0061656346754127393 0.010725690840845967 -0.033168422765137949 0.10341102202266968 0.0046069153509679392 0.060874446453472869 -0.0177279289213913 0.050655794113995005 0.063528438460959388 0.076029803194546636 -0.014627774242192632 -0.0328833988195706 -0.043700954270070036 -0.014304434981814249 0.033415807309249444 0.0042668484596824294 0.12990859255480583 0.0067257024529306514 0.07379652590589407 -0.014863276420662359 -0.014864114794660259 0.015202747490747286 0.10921423515021444
leaf_weight=753.02488415502012 149.28950919955969 16.288118666037917 4.4988482929766169 7.4189048279076815 9.5203643944114429 19.168823998421431 81.62815690971911 332.17332579754293 108.53323561511934 6.676825623959302 158.47876584902406 46.042289374396205 11.543522980064155 32.898234227672219 10.186713490635155 868.9846426025033 10.753933947533367 35.677321037277579 5.4310056921094683 5.7246782295405838 12.41528396867216 3.7961637154221526 104.93509441427886 4.2534081563353565 12.309793045744298 23.99474966712296 3.8914438020437947 7.9731807857751873 15.150317041203378 4.2368937507271731 5.2912466451525697 4.0206437781453133 10.882549567148088 91.216454258188605 18.457914575934414 6.5416230615228397 7.3650075402110833 7.5881172716617584 32.180913429707289 7.4440838899463442 45.808915065601468 12.599864507094024 12.472889352589847 10.918408341705801 10.472736196592448 14.05429378710687 23.670409314334393 24.280521757900715 66.796129690483212 6.8725558612495634 8.6113382913172245 40.579467637464404 5.5734221450984469 7.140597295016053 72.203113254159689 157.74334095045924 6.7341138254851076 4.2061819788068542 5.4152413997799149 83.250044990330935 7.2895656228065517 5.7939194720238438 8.0427898131310922
leaf_count=49572 7444 332 211 260 344 547 4120 18276 5589 312 7153 891 379 1150 370 50948 172 1614 245 232 539 181 4063 216 396 1256 203 391 773 210 271 199 407 3487 675 249 245 285 1012 190 1748 404 409 344 311 405 695 690 1920 325 399 2240 205 301 3094 7326 293 201 268 4116 330 262 351
internal_value=-0.000252447 0.0188894 -0.0135817 0.0116428 0.0345168 0.0318927 0.0160271 -0.000665326 -0.0016143 0.0240148 0.013567 0.0392606 0.0350792 0.0598167 0.106765 -0.0179846 0.0655103 0.010742 0.0317899 0.0627441 0.0297673 -0.0236013 0.0121706 0.0126238 0.00716795 0.0299198 0.0450159 0.0336542 0.00496211 0.0686766 0.038378 0.0732731 0.0260356 0.0218585 0.0429799 0.067107 0.0307507 0.1006 0.0337193 0.0408994 0.0325744 0.0433171 0.0122635 0.0835729 0.0574043 0.0192832 0.0113281 0.0236058 0.0553865 -0.0115562 0.0277821 -0.00840404 0.0124297 0.00810045 0.0118044 0.00624352 0.0483885 0.0870785 0.00322563 0.00149275 0.00914554 0.043734 0.0735263
internal_weight=3698.42 1518.01 2180.4 1038.3 479.718 463.429 873.523 554.597 550.098 434.076 224.404 336.664 209.672 54.6285 21.7302 1625.81 56.7962 217.727 59.2483 23.571 18.14 756.821 126.765 177.345 117.245 68.8119 44.8171 40.9257 23.1235 17.8022 13.5488 8.25754 155.044 144.161 52.945 28.9137 14.7839 14.1297 279.868 185.682 156.847 111.038 31.6417 28.8352 21.3911 94.1861 80.1318 56.4614 79.396 164.773 15.4839 372.753 24.0313 439.447 357.819 285.616 18.0809 10.9403 267.535 262.12 178.87 21.1263 13.8367
internal_count=192046 61510 130536 46637 14873 14541 38469 29835 29624 17807 10095 9738 7712 1899 749 100701 1063 9783 2630 1016 771 49753 4803 9108 4459 3519 2263 2060 1164 896 680 409 5813 5406 1919 1039 505 534 8675 5873 5028 3280 956 845 655 2802 2397 1702 2324 8168 724 20516 880 20662 16542 13448 795 494 12653 12385 8269 943 613
is_linear=0
shrinkage=0.05


Tree=11
num_leaves=64
num_cat=0
split_feature=75 75 75 40 103 98 29 9 75 41 75 35 80 51 50 61 29 0 52 50 46 44 10 1 55 81 32 100 47 6 109 44 4 91 29 50 6 33 100 37 11 45 70 61 47 26 33 13 70 6 44 9 11 3 6 25 72 70 17 44 70 55 83
split_gain=353.031 70.2847 45.3118 43.0674 29.1073 28.9327 22.1305 26.2516 21.5107 30.8168 18.096 16.7577 15.6978 15.5647 20.6362 15.1187 14.239 14.1292 16.4248 13.8785 14.4593 13.5711 13.4748 13.4667 12.758 12.765 17.0813 14.3335 17.8386 11.9177 11.9678 11.8223 11.4899 12.4262 20.77 13.5536 12.5029 14.0444 14.5459 18.1244 11.1266 12.6832 10.8968 10.7258 15.6843 10.5655 18.8283 10.5552 10.518 10.3513 11.0021 10.3469 11.9036 11.2652 21.2501 13.3286 10.2396 10.4418 11.326 10.1949 10.0929 10.0899 10.0813
threshold=0.071356248110532774 0.15531374514102939 0.033379999920725829 1.183614253997803 0.032984999939799316 0.042092399671673782 5.7386362552642831 107.50000000000001 0.71456876397132885 -1.0000000180025095e-35 2.3082387447357182 -0.57526880502700795 -40.928571701049798 1.1701030731201174 26.222984313964847 77.612701416015639 4.6022727489471444 1.5000000000000002 -0.030120480805635449 17.993845939636234 28.207932472229007 1.2319216728210451 1425.5000000000002 1.5000000000000002 -55.868421554565423 -9.5288462638854963 -1.0000000180025095e-35 0.011019450146704914 39.596195220947273 74.500000000000014 0.014277999754995109 0.75671571493148815 961.50000000000011 0.083474550396204009 4.6022727489471444 6.9569935798645028 179.50000000000003 33.343750000000007 0.0098806498572230356 0.34415584802627569 4653.0000000000009 5.653691530227662 1.2386499643325808 86.256149291992202 37.971618652343757 4.5000000000000009 70.218750000000014 1908.5000000000002 6.0070500373840341 99.500000000000014 0.34569628536701208 28.500000000000004 672.50000000000011 5.5000000000000009 210.50000000000003 7.5000000000000009 1.0000000180025095e-35 6.4053502082824716 4.5000000000000009 35.999132156372077 6.3878498077392587 -81.061405181884751 0.29103444516658789
decision_type=10 10 10 10 10 10 8 2 10 10 8 10 10 10 10 10 8 2 10 10 10 10 2 10 10 10 10 10 10 2 10 10 2 10 8 10 2 10 10 10 2 10 10 10 10 2 10 2 10 2 10 2 2 2 2 2 10 8 10 10 10 10 10
left_child=2 5 12 10 -5 6 7 31 9 17 23 29 -1 14 15 -10 22 18 -6 -13 -21 -11 40 -3 60 27 -27 42 -29 -9 -31 -2 33 -19 35 -35 37 38 -37 -40 41 -4 -26 -7 -45 -18 47 -47 -33 -41 -51 52 -43 54 -53 -56 57 58 59 -25 -8 -32 -63
right_child=1 3 16 4 8 43 24 11 13 21 -12 19 -14 -15 -16 -17 45 32 -20 20 -22 -23 -24 56 25 26 -28 28 -30 30 61 48 -34 34 -36 36 -38 -39 39 49 -42 51 -44 44 -46 46 -48 -49 -50 50 -52 53 -54 -55 55 -57 -58 -59 -60 -61 -62 62 -64
leaf_value=-0.0218923948261351 -0.008409154211327206 -0.016649557599491632 0.076464236769408764 0.09693264882513436 -0.0055027307367047761 -0.0031689897050611315 -0.01829361784049786 -0.016712166559615476 0.058017691835384792 -0.015791172403654241 0.066971622038317913 0.0090778681846465075 0.072915895394328079 -0.0029712330182073581 0.11677267710306549 -0.0071076159432626549 -0.012918048239668226 0.015263138292311768 0.069306618846545404 0.12338433714747604 0.038871345812332279 0.02327592024338241 0.064842013699108789 0.0022808792212419804 0.068095378957381575 -0.0077363486136329158 0.076223888939597639 -0.002223849822954337 0.092516964715985806 0.052300166056736756 -0.028964780660735295 0.039120659433580743 0.095958631251566895 0.0046280529848230119 0.029079772408178224 0.025322938441228456 0.042020327769008055 0.01959976859949164 0.047277377153928636 0.062542980716399452 -0.023879097201773555 0.077949857378813298 -0.0055361844739826643 -0.01756183546573338 0.082118508096525281 0.059038213732958936 0.092380736709889361 -0.023786172379404627 -0.018517692444939091 0.09546959521256447 0.19028676418766946 -0.021340769542787488 0.010747908938417787 -0.0043199239702332347 0.013766242073984395 0.14281474986402515 0.072803905598722449 -0.032461562197294395 0.063246751560133554 0.051750306979198114 0.031082028545165886 -0.0024827608418145322 0.03809463833363852
leaf_weight=908.05224196054041 62.054964875802398 53.880460793152452 4.4938248302787533 18.323654605075717 36.976147184148431 384.00123656541109 70.513560062274337 12.067628616467116 70.381923543289304 46.954023890197277 11.164288239553569 7.2955630254000452 3.4387430027127257 10.553079422563313 13.598631666973231 9.9491469245403987 608.32962774578482 53.264733478426933 8.1168430056422931 12.733682515099646 10.076347466558216 40.451812218874693 6.7816182170063248 76.889093045145273 5.2985836211591986 63.659305574372411 5.6839988417923442 7.2072660066187408 14.672427183017133 53.973394095897675 7.996348410844802 32.196901336312294 8.1368586588650924 10.588048273697494 137.51491327211261 7.9096537232398978 41.053325766697526 8.7743964996188861 12.13277694582939 7.3087117634713676 48.958578636869788 6.7655814550817004 24.241088639944792 6.4937741365283719 8.0137325134128314 4.0107360780239167 5.6358948489651075 15.619016468524931 9.7285134475678188 10.508866354823114 8.9096845965832454 7.4777677785605174 46.831551460549235 396.80975559446961 3.6493567712605 4.1657283082604408 5.8500590976327649 12.126987954601644 9.8929195106029493 11.06608181633055 11.171252805739639 20.610257672145963 57.199778538197279
leaf_count=60864 2741 2410 207 379 1383 18879 3277 534 1468 2053 306 300 151 152 198 214 34757 1592 316 492 371 1535 380 2903 246 3201 277 352 703 2132 327 1375 252 381 4785 143 1273 258 385 219 2781 375 1149 324 380 230 320 886 422 278 262 416 2590 21839 198 229 229 465 371 352 517 987 2456
internal_value=0.000576675 0.0179837 -0.0131186 0.0293268 0.0361543 0.00846781 0.0166127 0.0255452 0.0339292 0.0289498 0.00805266 0.0369493 -0.0214552 0.0543595 0.0607641 0.0499636 -0.00655251 0.035545 0.00917461 0.070739 0.0892512 0.00234802 -0.000467947 0.00380699 0.00393319 0.0142091 0.000131547 0.0328291 0.0625757 0.029831 0.0339394 0.00542748 0.0393872 0.0375265 0.0422908 0.0588146 0.0646457 0.0803295 0.0910741 0.103486 -0.0014441 0.000937646 0.00946851 -0.00153057 0.0392449 -0.0115945 0.0195522 -0.00482206 0.0256262 0.126377 0.146163 4.65642e-05 0.0205032 -0.00265717 0.0381041 0.0909516 0.0133842 0.00959583 0.015084 0.00901667 -0.0112467 0.0219208 0.0274514
internal_weight=3700.19 1629.17 2071.02 742.277 561.407 886.89 488.381 285.933 543.084 438.601 180.87 181.953 911.491 104.483 93.9297 80.3311 1159.53 351.195 45.093 30.1056 22.81 87.4058 525.934 169.706 202.447 120.763 69.3433 51.4194 21.8797 151.847 139.78 103.98 306.102 297.965 244.7 107.185 96.5974 55.5441 46.7697 38.86 519.152 470.194 29.5397 398.509 14.5075 633.595 25.2656 19.6298 41.9254 26.7273 19.4186 465.7 53.5971 412.103 15.2929 7.81509 115.825 109.975 97.8481 87.9552 81.6848 85.8064 77.81
internal_count=192227 66004 126223 24562 17526 41442 21859 12137 17147 15115 7036 7599 61015 2032 1880 1682 65208 11527 1699 1163 863 3588 29015 6730 9722 5928 3478 2450 1055 6436 5902 4538 9828 9576 7984 3199 2818 1545 1287 1144 28635 25854 1395 19583 704 36193 1436 1116 1797 759 540 25647 2965 22682 843 427 4320 4091 3626 3255 3794 3770 3443
is_linear=0
shrinkage=0.05


Tree=12
num_leaves=64
num_cat=0
split_feature=83 83 77 77 29 78 81 77 53 45 44 91 108 83 84 13 40 26 13 77 50 17 36 70 77 108 45 90 91 29 35 91 103 77 29 38 45 85 44 40 81 109 78 53 10 56 52 70 10 36 45 107 2 14 94 17 5 109 81 8 26 13 77
split_gain=240.991 51.0294 62.4953 35.6897 33.7294 31.453 24.938 20.1865 20.0314 18.0705 17.2373 31.3644 19.844 15.1088 14.7428 14.2225 13.6669 15.0886 13.693 13.3591 13.3769 15.6075 13.0802 15.5113 12.753 15.8992 16.0679 18.7133 12.5528 14.6611 12.6537 12.4846 12.4295 12.3877 12.1939 11.9819 12.227 15.9118 11.9269 13.2269 11.2557 14.9833 11.1551 16.9134 13.4184 12.3924 23.3243 12.1399 15.6958 11.1867 10.8091 10.6842 10.5377 10.4373 10.3687 10.6911 10.3 10.8855 27.4747 12.6392 10.7949 12.3021 10.2002
threshold=0.31230989098548895 0.82418006658554088 0.018292682245373729 0.054878048598766334 4.7159092426300058 -45.642858505249016 -0.12500000372529027 1.0000000180025095e-35 57.250000000000007 5.653691530227662 35.999723434448249 0.10675530135631563 0.10529599711298944 5.7731406688690194 0.03728930093348027 95.000000000000014 10.404180049896242 2.5000000000000004 2360.5000000000005 0.030487803742289547 31.515398979187015 2.5000000000000004 -83.021427154541001 2.2900500297546391 0.18902438879013064 0.051376000046730048 72.398033142089858 0.0045149999205023059 0.051706349477171905 4.6022727489471444 -2.6397850513458248 0.025109999813139442 0.034928999841213233 0.25000000000000006 17.613636016845707 0.76666668057441723 58.662942886352546 0.30023175477981573 3.3390694856643681 16.719063758850101 -0.75961539149284352 0.17883799970149997 -196.49999999999997 10.916666984558107 490.50000000000006 2151.541625976563 -4.3554217815399161 4.7813498973846444 401.50000000000006 -296.42141723632807 75.056987762451186 0.027910399250686172 2.5000000000000004 1585.5000000000002 0.014535449910908939 1.5000000000000002 424.50000000000006 0.059201000258326537 -2.6057691574096675 262.50000000000006 3.5000000000000004 2970.5000000000005 0.054878048598766334
decision_type=10 10 10 10 8 10 10 8 10 10 10 8 10 10 10 2 10 2 2 10 10 8 10 10 10 10 10 10 10 8 8 10 10 10 8 10 10 10 10 10 10 10 10 10 2 10 10 10 2 10 8 10 2 2 8 10 2 10 10 2 2 2 10
left_child=3 4 6 5 9 14 16 -8 -6 -2 12 -12 42 32 -1 50 17 -3 -19 -17 52 53 -20 -24 25 28 27 -27 -5 30 -30 -26 -4 -10 51 36 -14 -38 -29 -40 41 56 45 44 -44 -11 -47 48 -48 -50 -16 54 -21 -22 55 -33 62 60 -59 -60 61 -58 -34
right_child=1 2 13 24 8 -7 7 -9 33 10 11 -13 35 -15 15 19 -18 18 22 20 21 -23 23 -25 31 26 -28 38 29 -31 -32 34 40 -35 -36 -37 37 -39 39 -41 -42 -43 43 -45 -46 46 47 -49 49 -51 -52 -53 -54 -55 -56 -57 57 58 59 -61 -62 -63 -64
leaf_value=-0.025289421112450867 0.083335258000138968 -0.0046638421120558313 0.094494107858403731 -0.0096929702588126037 -0.00232715032482546 0.080150487492465616 0.02747792523612861 0.10004145072941661 0.014191209677005141 0.011542376791808443 0.015063965230365635 0.14671576415325435 -9.1848174930920408e-05 0.084306865034833742 0.0090339042408893941 -0.016641447293244033 0.030345096670472738 0.00021289838436074914 0.015660070952527604 -0.016116729592932182 0.012432939359429726 -0.025174641938834327 0.035172055626815212 0.13803686709685425 -0.012115243139021091 0.076840520552225108 -0.015036786828804771 -0.00041878554985431201 0.058511988857117087 -0.0084436974052504755 -0.018036654973503152 0.098043912897853996 0.0088499720764393074 0.090834275604230075 -0.027074747942340455 -0.0041198235127273605 0.10075016200340776 0.012374336550288564 0.014941572368623826 0.11060410531475801 0.068485162500520044 -0.0014125446306447939 0.15028355017782002 0.011935159802854076 0.038010387204352909 0.0082303488375316848 -0.00011232450523487582 0.11280194142953025 0.040628184495995617 0.12942655604799644 0.10132030558855237 -0.0081072930117816848 0.0039722545794441556 0.12334916261092024 0.12264838306283987 0.018227721325186925 0.047264920396957094 0.12640974346992528 -0.016290443113288512 0.062620638354084684 0.078380325470700146 -0.015765494170637315 0.040353588451674333
leaf_weight=297.46060605812818 9.3993271235376579 193.13883166201413 9.7492805346846563 402.78630201984197 521.79761522915214 7.688709467649459 53.74559866823256 11.088844100013374 13.56052179541439 145.90519225969911 13.296398529782893 6.0734882056713095 22.514620263129473 21.805781150236726 13.209556244313719 814.20110203139484 53.187374642118812 38.752843827009201 22.082901986315846 134.14361610636115 3.7543229982256854 4.8699355926364669 11.126077516004445 5.3348435014486304 16.948060160502791 14.648276184685527 29.552606333978474 39.430669255554676 21.369077786803246 31.942217210307717 6.59286676719785 5.3718357402831414 41.22667109593749 8.1316727232187969 5.2895536087453356 153.09166896250099 8.5493594687432068 11.612184038385747 10.370810262858866 4.8796403035521498 26.991754388436675 26.246928306296468 5.2026487980037945 11.673665128648279 6.2835430763661861 37.417418221011758 11.624308260157706 9.0389923155307752 11.492441717535259 5.3589700665324917 3.2769869333133093 5.9611462745815507 125.65206402074546 4.7444415222853422 5.3280665855854741 14.135910099372266 15.444898441433908 13.828386647626756 7.4267138149589327 12.973786709830163 9.2770003471523506 13.90717759542167 70.353070382028818
leaf_count=20304 370 8444 146 22882 25937 194 1652 222 647 5864 525 249 1054 247 820 52617 1859 1609 838 7813 232 291 424 189 790 756 1469 1878 1063 1724 318 239 1523 281 261 7278 394 549 498 225 604 635 205 509 252 1315 406 318 430 189 201 235 7259 282 212 635 336 390 232 408 201 347 1691
internal_value=0.00115185 0.0152076 0.0260418 -0.0104476 0.00814797 -0.0148305 0.0131554 0.0412198 -0.000331555 0.0179638 0.0164473 0.0615199 0.014327 0.0445174 -0.0154084 -0.0127252 0.0074233 0.00282001 0.0213404 -0.0134341 -0.00384831 0.043143 0.04204 0.0745059 -0.000391931 -0.00261983 0.0154811 0.0285187 -0.00651325 0.0146748 0.0404638 0.0228108 0.0406855 0.0456589 0.0390982 0.0024454 0.0255519 0.0528396 0.0144264 0.0504731 0.0380916 0.0338927 0.0238111 0.0563028 0.0968275 0.0201652 0.0365821 0.0639123 0.0450929 0.0745356 0.0321226 0.0509578 -0.00642257 0.0808192 0.0648998 0.0439157 0.0388974 0.0536163 0.0741501 0.0344745 0.0340094 0.0178653 0.0288956
internal_weight=3693.32 1669.71 657.689 2023.61 1012.02 1409 388.457 64.8344 543.49 468.534 459.135 19.3699 439.765 269.231 1401.31 1103.85 323.623 270.435 77.2967 1087.37 273.164 13.3687 38.5438 16.4609 614.607 561.572 98.882 69.3294 462.69 59.9042 27.9619 53.0346 247.426 21.6922 36.0865 195.768 42.6762 20.1615 54.6811 15.2505 237.676 210.685 243.997 23.1599 11.4862 220.837 74.9321 37.5147 28.4757 16.8514 16.4865 30.797 259.796 8.49876 24.8358 19.5077 184.438 72.858 34.2289 20.4005 38.6291 29.3521 111.58
internal_count=191967 68769 21997 123198 46772 90013 15237 1874 26865 19907 19537 774 18763 6760 89819 69515 13363 11504 3060 68494 15877 805 1451 613 33185 30813 4826 3357 25987 3105 1381 2372 6513 928 1582 9275 1997 943 2601 723 6367 5763 9488 966 457 8522 2658 1343 1025 619 1021 1321 15072 514 1086 874 5128 1914 1030 640 884 683 3214
is_linear=0
shrinkage=0.05


Tree=13
num_leaves=64
num_cat=0
split_feature=75 75 76 75 98 40 31 33 44 50 92 83 37 56 8 75 91 50 36 29 28 29 10 27 44 91 45 35 13 33 33 29 91 25 13 33 5 32 35 35 40 29 26 5 28 52 52 8 28 9 75 53 86 25 90 55 40 33 29 83 28 76 107
split_gain=266.712 54.3631 39.8155 28.898 30.0472 19.9167 19.3386 18.7906 14.9683 14.8041 17.027 13.4156 13.3667 16.2116 13.2421 12.8257 12.5884 12.2414 20.5482 15.3458 18.6266 12.092 15.8041 11.538 11.4485 11.1043 10.6467 12.0167 10.5764 11.4478 10.4881 14.2366 13.7852 12.8258 11.7564 16.057 13.9037 13.6982 11.5109 14.6131 11.2615 10.3652 14.0887 10.9023 12.1144 10.3342 18.0926 16.0803 15.0312 17.0649 13.8076 14.6165 13.9101 14.8778 13.7301 13.9156 24.6308 16.8059 12.584 11.3064 11.0713 11.6031 10.4723
threshold=0.086167503148317351 0.033379999920725829 -1.138888895511627 0.23812124878168109 0.048183450475335128 16.214636802673343 -0.32352942228317255 0.21875000000000003 0.095689948648214354 26.599178314208988 0.035033101215958602 0.21275895088911059 0.11038960888981821 9.3750000000000018 420.50000000000006 0.054057501256465919 0.012879000045359136 15.53115224838257 -287.43571472167963 16.477272510528568 -275.24999999999994 4.7159092426300058 774.50000000000011 14.986111164093019 0.5487322509288789 0.089912697672843947 6.8058958053588876 -1.8763440847396848 3139.5000000000005 212.09375000000003 22.531250000000004 5.7386362552642831 0.026642249897122387 11.500000000000002 2994.0000000000005 9.4062500000000018 691.50000000000011 -0.071428570896387086 -3.5215053558349605 -0.89784944057464589 9.3054466247558612 4.3750000000000009 2.5000000000000004 179.00000000000003 -370.47221374511713 -2.4638555049896236 -3.1265060901641841 362.50000000000006 -3045.9628906249995 125.50000000000001 0.15927749872207644 10.546296119689943 0.035033600404858596 14.500000000000002 0.0074189999140799054 -57.640352249145501 23.408074378967289 24.718750000000004 16.477272510528568 0.5818152427673341 -5886.0646972656241 -0.69444444775581349 0.058469599112868316
decision_type=10 10 10 10 10 10 10 10 10 10 10 10 10 10 2 10 10 10 10 10 10 8 2 10 10 10 10 8 2 8 10 8 10 2 2 10 2 10 10 10 10 8 2 2 10 10 10 2 8 2 10 10 10 2 10 10 8 10 8 10 10 10 8
left_child=1 -1 8 4 7 6 -5 -4 -2 10 11 -3 -7 -14 45 25 -12 19 -19 -8 -21 22 -10 -6 28 -11 27 -18 29 -17 33 32 -32 34 35 38 -36 -37 -26 -40 -34 -20 -43 -44 -45 46 50 -47 -48 -50 51 -9 53 -52 55 58 57 62 60 -49 61 -53 -57
right_child=2 9 3 5 23 12 17 14 21 15 16 -13 13 -15 -16 24 26 18 41 20 -22 -23 -24 -25 30 -27 -28 -29 -30 -31 31 -33 40 -35 36 37 -38 -39 39 -41 -42 42 43 44 -46 47 48 59 49 -51 52 54 -54 -55 -56 56 -58 -59 -60 -61 -62 -63 -64
leaf_value=-0.020365543234415751 0.0091739552404182852 -0.0012254682133916971 0.067196997949112713 0.096085336045359182 0.056214756376278867 0.014961254255628557 0.0064255564460225824 0.077989515414532806 0.13650165890359464 -0.0070959844517595981 0.068008468857313514 0.11512870605218613 0.10476571142552925 0.042831575877801766 -0.018699663180915937 -0.009649011104292643 0.089583459222469769 -0.013896297965458668 0.060725938809561168 -0.010834870918927826 0.085748358723082993 0.037420850299336908 0.049194715789028655 -4.8607643687186036e-05 -0.021406295779224028 0.040698517311024807 -0.012401447687256465 0.00014549263424017391 0.054149622610827633 0.059096493383940088 -0.021083196423949048 -0.010282252768463687 0.0056693162671633025 0.0053468756530126059 -0.026590450632103375 0.17391498282248835 0.067850586813609073 0.050290342807908756 0.10858245233372431 0.0037826214605466979 0.057431093281934867 0.010464362050543602 0.013033438463632441 0.081044216219869292 0.023073636280572223 -0.0015304038062232681 0.12348619164125452 0.019428019705895958 0.086241624075396067 -0.01097949559067459 0.095507348039947995 -0.003244410766814719 0.0075551025978994437 0.010824497591027755 -0.0093163408003550281 0.025710109376227627 0.13956750622156314 -0.015466080221259629 -0.02562590835392526 0.083889750227443605 0.008440327547241569 0.079089205294988973 0.10240605596150938
leaf_weight=876.32551269885153 11.644803944975136 5.0545951211824995 18.778662219643593 7.4193762447684994 8.3018483500927669 21.726343447342515 190.2292741201818 7.902922121807932 11.840274661779405 384.75696643348783 4.0528172394260755 3.8197219669818878 15.37474352121353 38.26432222686708 23.556021427735686 127.15794903691858 4.3394455369561911 23.566338941454887 32.50359015353024 7.5007088761776712 12.802509292960165 16.010919433087111 11.638620687648652 446.65946588665247 5.7871753480285433 11.562722967006264 644.42807557620108 12.671900078654291 6.6152009554207316 5.3657858110964289 12.367821242660282 61.671674566343427 17.520022202283144 30.934174355119467 9.2528853639960271 4.3392975740134716 5.3142985422164193 5.917740020900963 6.2112099342048177 6.3131797853857288 26.181881070137024 57.235091770067811 18.810326144099236 24.728320155292749 15.496163468807934 105.45836007222533 7.0117560606449842 26.555112492293119 7.7248134333640399 8.9398368410766107 16.608826657757167 6.2588762044906643 14.126846414059399 7.7493308931589118 52.578123532235622 12.624210707843305 5.0264087449759236 13.002928651869295 18.590874215587974 8.6091303247958404 59.864910973235965 12.025918442755936 6.8096881806850424
leaf_count=60922 204 285 656 199 321 455 6568 329 184 22124 231 189 272 940 979 6637 214 580 825 224 402 310 221 20414 299 659 37190 600 338 276 601 3284 857 1563 457 223 258 299 318 317 1226 1718 493 577 395 4442 277 1064 304 366 429 204 413 199 2170 487 187 557 840 311 2162 435 266
