tree
version=v4
num_class=1
num_tree_per_iteration=1
label_index=0
max_feature_idx=111
objective=binary sigmoid:1
feature_names=l_feat_1 l_feat_2 l_feat_3 l_feat_4 l_feat_5 l_feat_6 l_feat_7 l_feat_8 l_feat_9 l_feat_10 l_feat_11 l_feat_12 l_feat_13 l_feat_14 l_feat_15 l_feat_16 l_feat_17 l_feat_18 l_feat_19 l_feat_20 l_feat_21 l_feat_22 l_feat_23 l_feat_24 l_feat_25 l_feat_26 l_feat_27 feat_e_1 feat_e_2 feat_e_3 feat_e_4 feat_e_5 feat_e_6 feat_e_7 feat_e_8 feat_e_9 feat_e_10 feat_d_1 feat_d_2 feat_d_3 feat_d_4 feat_d_5 feat_d_6 feat_c_1 feat_c_2 feat_c_3 feat_c_4 feat_c_5 feat_c_6 feat_c_7 feat_c_8 feat_b_1 feat_b_2 feat_b_3 feat_b_4 feat_b_5 feat_b_6 feat_a_1 feat_a_2 feat_a_3 feat_a_4 feat_a_5 feat_a_6 feat_a_7 feat_a_8 feat_a_9 feat_a_10 feat_a_11 feat_a_12 feat_a_13 feat_a_14 feat_a_15 feat_a_16 feat_a_17 feat_a_18 history_a_1 history_a_2 history_a_3 history_a_4 history_a_5 history_a_6 history_a_7 history_b_1 history_b_2 history_b_3 history_b_4 history_b_5 history_b_6 history_b_7 history_b_8 history_b_9 history_b_10 history_b_11 history_b_12 history_b_13 history_b_14 history_b_15 history_b_16 history_b_17 history_b_18 history_b_19 history_b_20 history_b_21 history_b_22 history_b_23 history_b_24 history_b_25 history_b_26 history_b_27 history_b_28 history_b_29 history_b_30
feature_infos=[1:2] [1:2] [1:3] [1:26] [1:1026] [1:870] [1:301] [1:2] [1:461] [1:254] [1:1446] [1:4856] [1:2] [2:3191] [2:2535] [1:2] [1:461] [0:6] [1:2] [2:2] [1:2] [1:2] [1:1] [1:2] [1:2079] [1:18] [1:5] [0.3611111044883728:65] [-155664.9375:17137.591796875] [1.1363636255264282:170.45454406738281] [-0.10000000149011612:0] [-2.2745099067687988:0.019607843831181526] [-1.2857142686843872:0.012987012974917889] [-0.0625:1267] [-778.9111328125:0.02222222276031971] [-587.67742919921875:0.01075268816202879] [-2391.94287109375:0.014285714365541935] [0:0.38961037993431091] [0:2] [0:1.7647058963775635] [0:78] [-0.30303031206130981:0] [-0.42253521084785461:0] [0:58.840435028076172] [0:35.999992370605469] [0:83] [0:29] [0:47] [0:7.9719300270080566] [0:73.891685485839844] [0:32] [0:2065.36083984375] [-278.43374633789062:0] [0:778.70367431640625] [0:1.3195875883102417] [-587.21051025390625:0] [0:86991.8359375] [0:14.399999618530273] [0:4.8000001907348633] [0:30.600000381469727] [0:88.199996948242188] [0:86.808601379394531] [0:17.100000381469727] [0:36.900001525878906] [0:63] [0:90] [0:76.5] [0:37.799999237060547] [0:14] [0:47.700000762939453] [0:7] [0:62.099998474121094] [0:18.899999618530273] [0:3.5999999046325684] [0:47.700000762939453] [0:12.5] [-32.611110687255859:0] [0:15.634146690368652] [-7713.5712890625:0] [-4.7536230087280273:0] [-3826.857177734375:0] [-234.46153259277344:0] [0:41] [0:89] [0:30.5] [0:32.5] [0:17] [0:1] [0:16] [0:33] [0:3] [0:18] [0:46.5] [0:4.5] [0:18.5] [0:37.5] [0:0.5] [0:46.5] [0:10.5] [0:7.5] [0:6.5] [0:1.5] [0:5.5] [0:45] [0:45] [0:7.5] [0:3] [0:28] [0:32] [0:10] [0:26] [0:33]
tree_sizes=6866 6973 7017 7025 7016 7018 7027 7015 7019 7061 7044 7060 7038 7068 7052 7068 7084 7061 7053 7060 7063 7058 7055 7105 7095 7091 7075 7097 7086 7104 7081 7122 7084 7096 7103 7057 7105 7066 7076 7087 7101 7062 7079 7065 7068 7083 7078 7061 7109 7101 7079 7081 7075 7065 7072 7076 7095 7070 7093 7081 7089 7052 7104 7096 7094 7052 7068 7063

Tree=0
num_leaves=64
num_cat=0
split_feature=75 75 76 75 40 75 78 76 41 75 75 44 75 79 50 78 0 32 51 35 79 5 40 54 44 11 25 44 47 75 75 50 48 56 4 48 98 36 98 36 3 1 44 75 3 11 50 33 4 75 11 44 35 11 9 31 78 103 51 4 61 91 50
split_gain=1226.63 393.68 351.458 262.093 240.808 83.6298 79.3702 78.264 72.5944 79.3065 65.142 56.9703 45.3703 41.6197 38.9377 37.4174 37.2561 34.0392 31.5964 28.0442 25.8895 21.8834 20.6154 24.1512 21.8655 20.366 20.3275 20.2151 19.5991 21.4436 19.007 18.4444 18.4028 29.1554 21.4749 18.0026 17.4459 17.0601 18.1987 17.057 22.7415 16.1049 19.4345 18.0958 16.012 14.9315 20.6926 14.3871 14.3856 14.1232 13.9453 13.5516 23.7956 13.427 17.0707 21.1902 13.2826 12.9876 12.8632 12.8424 22.0855 17.5967 12.6769
threshold=0.15325124561786654 1.0009112358093264 -0.30555556714534754 0.059387499466538436 9.1805024147033709 0.29603248834609991 -4.0714285373687735 -0.13888889178633687 -1.0000000180025095e-35 0.31260874867439276 0.089121252298355116 35.998819351196296 0.032724998891353614 -0.065217390656471239 24.14240646362305 -307.64286804199213 1.5000000000000002 -0.032467531971633427 0.89175257086753856 -1.2956988811492918 -0.10869565233588217 243.50000000000003 1.1848176717758181 0.067010307684540762 0.26824134588241583 4654.5000000000009 13.500000000000002 1.0749503970146181 29.284270286560062 0.094656247645616545 0.22546499967575076 8.3810229301452654 1.2147562503814699 14.208333492279055 96.500000000000014 7.3836159706115732 0.025806900113821033 -417.60714721679682 0.018121950328350071 -315.70715332031244 17.500000000000004 1.5000000000000002 35.999677658081062 0.70588624477386486 11.500000000000002 1812.5000000000002 29.571265220642093 0.84375000000000011 765.50000000000011 0.28097875416278845 4814.5000000000009 0.16114986687898639 -4.6182794570922843 1691.5000000000002 212.50000000000003 -0.12745098397135732 -304.92857360839838 2.3226749897003178 4.4484534263610849 497.50000000000006 34.12140083312989 0.032250149175524719 27.423332214355472
decision_type=10 10 10 10 10 10 10 10 10 10 10 10 10 10 10 10 2 10 10 10 10 2 10 10 10 2 2 10 10 10 10 10 10 10 2 10 10 10 8 10 2 10 8 10 2 2 10 10 2 10 2 10 8 2 2 10 10 8 8 2 8 10 10
left_child=3 2 5 12 6 15 -3 10 9 21 -5 25 50 -7 30 26 -12 47 -13 -17 -19 -4 -23 24 -24 32 35 -8 -9 36 -10 -6 -11 57 -35 -2 56 -37 -39 -22 45 -32 43 -43 53 -41 -47 -18 -38 -16 -1 -36 -53 -25 55 -55 -30 -34 -28 61 -61 -58 -31
right_child=1 4 8 7 31 13 27 28 14 11 16 18 -14 -15 49 19 17 20 -20 -21 39 22 23 44 -26 -27 58 -29 29 62 41 -33 33 34 51 37 48 38 -40 40 -42 42 -44 -45 -46 46 -48 -49 -50 -51 -52 52 -54 54 -56 -57 59 -59 -60 60 -62 -63 -64
leaf_value=-3.9328839761050776 -3.8366257274697144 -3.6273895939996192 -3.8838051244740335 -3.8972932264786246 -3.6823591829327564 -3.5837146256553338 -3.8587949049232111 -3.9173544577817396 -3.9296526758620955 -3.8736290797432726 -3.9046280541652685 -3.6763386457860117 -3.9178124792714422 -3.801846822733856 -3.8787907753450801 -3.891521798342195 -3.8061503929109368 -3.7365587787598882 -3.8544339004218595 -3.7649064587075296 -3.8682506140581885 -3.8986383000337548 -3.872223729456389 -3.8886233466164049 -3.7378915483655351 -3.9213852289399842 -3.7670386837567937 -3.7568139625840584 -3.9079809543434223 -3.8916077257170425 -3.9118213893744573 -3.4247691676732579 -3.7071125672283785 -3.92430970086982 -3.8812455085204776 -3.7776733579832134 -3.9218439197852173 -3.5645030792017787 -3.7428237315780666 -3.8603936117552111 -3.9068557538832995 -3.894891682054642 -3.7865127663208131 -3.8148203031117411 -3.8926510419560136 -3.8151275614223352 -3.7093157519978681 -3.8786556184637289 -3.8854953222223294 -3.7634447865462772 -3.8716190993396484 -3.8681320653153994 -3.7157631061516208 -3.8930877128248311 -3.9021220365452427 -3.7698396954396132 -3.8437195020564014 -3.8247873132045354 -3.885196103239128 -3.8777019358639762 -3.7575153542682531 -3.9347133967305288 -3.8542278035310651
leaf_weight=1133.3925232216716 4.0672675520181683 6.9337227791547766 81.616502210497856 235.47542332112789 3.9510599076747877 10.846046805381773 14.564691424369817 253.79749524593353 36.179313272237778 12.492321766912935 36.566672086715698 11.194669738411902 1006.5325114801526 4.2222110778093329 4.900089003145693 10.787942983210089 6.7206754311919203 6.7787792533636084 3.9704278483986846 6.6238357275724402 29.478005781769753 15.804239630699156 5.035664588212966 8.7736771479248983 9.5871306583285314 4.9388248845934859 4.3190507814288113 7.5728648230433455 38.174211166799068 95.677627176046371 39.33628761023283 7.1080342456698418 8.6768374443054164 5.5004951655864742 5.7716463357210186 8.5799977406859398 157.77124513685703 4.3771546036005011 7.2436098307371148 11.136565916240214 6.2558448538184157 42.105903133749962 5.2293439954519263 7.5534968823194495 17.392410770058632 24.345501489937309 6.5269960239529601 78.67257522046566 31.995838075876236 6.565731905400753 8.579997740685938 5.3261836990714073 5.2680798768997175 4.6483057737350455 4.6676737144589415 15.726767867803579 8.4250542148947734 5.907221920788289 4.7257775366306314 11.911283545196058 5.0744004696607581 11.233405619859694 29.206854611635208
leaf_count=58519 210 358 4214 12158 204 560 752 13104 1868 645 1888 578 51969 218 253 557 347 350 205 342 1522 816 260 453 495 255 223 391 1971 4940 2031 367 448 284 298 443 8146 226 374 575 323 2174 270 390 898 1257 337 4062 1652 339 443 275 272 240 241 812 435 305 244 615 262 580 1508
internal_value=-3.90438 -3.82989 -3.84388 -3.91546 -3.68169 -3.73813 -3.76565 -3.89544 -3.86287 -3.84571 -3.87926 -3.80103 -3.92557 -3.63466 -3.89118 -3.77348 -3.85883 -3.84903 -3.717 -3.8384 -3.8266 -3.86512 -3.84691 -3.83476 -3.77914 -3.82767 -3.74245 -3.81905 -3.90657 -3.89953 -3.89929 -3.49077 -3.81805 -3.80033 -3.84148 -3.71774 -3.9076 -3.69812 -3.65406 -3.83648 -3.8182 -3.88749 -3.87022 -3.88119 -3.85274 -3.80524 -3.78734 -3.87188 -3.91565 -3.80674 -3.9324 -3.81409 -3.78265 -3.83313 -3.81504 -3.79612 -3.88729 -3.74662 -3.82073 -3.86621 -3.83564 -3.89467 -3.88254
internal_weight=3713.82 480.093 439.962 3233.73 40.1304 65.7929 29.0713 1085.22 374.169 232.299 441.957 69.0467 2148.51 15.0683 141.87 50.7246 206.482 169.915 15.1651 17.4118 84.5217 163.252 81.6359 65.8316 14.6228 53.8816 33.3129 22.1376 643.267 389.47 130.404 11.0591 48.9428 36.4505 21.8664 24.268 264.585 20.2008 11.6208 77.7429 48.2649 94.225 54.8887 49.6594 51.2088 42.0091 30.8725 85.3933 189.767 11.4658 1141.97 16.3659 10.5943 33.8164 25.0427 20.3751 74.8184 14.5841 9.04483 36.6441 16.9857 19.6585 124.884
internal_count=191751 24788 22716 166963 2072 3397 1501 56032 19319 11994 22819 3565 110931 778 7325 2619 10661 8773 783 899 4364 8429 4215 3399 755 2782 1720 1143 33213 20109 6733 571 2527 1882 1129 1253 13661 1043 600 4014 2492 4865 2834 2564 2644 2169 1594 4409 9798 592 58962 845 547 1746 1293 1052 3863 753 467 1892 877 1015 6448
is_linear=0
shrinkage=1


Tree=1
num_leaves=64
num_cat=0
split_feature=75 75 77 77 75 75 76 75 75 50 75 75 41 109 36 41 33 5 5 48 46 53 13 90 31 9 98 34 51 5 36 35 2 33 76 33 56 5 45 49 96 48 34 1 75 49 45 10 82 52 28 53 82 46 45 9 56 39 5 82 48 53 34
split_gain=1024.39 307.9 216.358 131.554 102.58 90.7792 63.7079 79.9362 50.8466 46.0048 44.6281 35.1626 33.0182 32.3556 26.5022 26.2444 25.9467 25.9433 25.6936 23.1525 22.3764 23.1218 24.9923 21.5312 21.1238 20.7967 20.1966 18.8954 21.2733 18.5767 18.9297 18.3485 18.2032 17.6604 15.8723 15.1052 14.4682 14.3404 14.1685 15.0343 13.795 13.9395 13.5192 13.1005 14.9844 13.0909 13.0021 12.9448 12.6909 16.8168 13.9961 13.8212 12.5493 12.4805 12.4085 12.1733 11.7424 11.5436 11.1928 11.119 11.0395 15.8397 11.0149
threshold=0.097028750926256194 1.0009112358093264 0.18902438879013064 0.018292682245373729 0.032724998891353614 0.16894999891519549 -0.083333333954215036 0.24393749982118609 0.35597999393939977 21.450676918029789 2.3082387447357182 0.066432502120733275 -0.015151515137404202 0.024309000000357631 -64.007141113281236 -1.0000000180025095e-35 1.2187500000000002 142.50000000000003 4.5000000000000009 0.990979164838791 26.043610572814945 0.21296296268701556 2065.5000000000005 0.0024225000524893407 -0.049019608646631234 99.500000000000014 0.034458899870514877 -139.65555572509763 4.4587628841400155 453.50000000000006 -518.42144775390614 -21.188172340393063 2.5000000000000004 0.71875000000000011 -0.69444444775581349 1.9687500000000002 1040.6250000000002 693.00000000000011 76.424213409423842 73.833946228027358 0.00027464999584481126 7.9207630157470712 -29.166666984558102 1.5000000000000002 0.82462874054908764 73.636970520019545 17.790184974670414 863.50000000000011 0.55941015481948864 -2.7530120611190791 -3363.314819335937 44.675926208496101 0.32816401124000555 23.585116386413578 79.579483032226577 116.50000000000001 1284.2083129882815 1.6176470518112185 312.00000000000006 0.12204470112919809 1.3974065780639651 0.21296296268701556 -285.03332519531244
decision_type=10 10 10 10 10 10 10 10 10 10 8 10 10 10 8 10 10 2 2 10 10 10 2 10 10 2 10 10 10 2 10 10 2 8 10 10 10 2 10 10 10 10 10 10 10 10 10 2 10 8 10 10 10 10 10 2 10 8 2 10 10 10 10
left_child=4 2 6 10 -1 23 7 16 15 12 19 40 60 37 17 -8 26 -11 -7 42 21 -9 -23 25 -19 -4 33 28 -20 31 -31 -25 -32 58 -29 -21 45 52 39 59 41 -6 -3 -14 46 -28 -45 -12 50 -50 51 -18 -13 -52 -55 -51 -33 -47 -2 -39 -10 -62 -30
right_child=1 3 5 -5 11 18 8 20 9 14 47 13 43 -15 -16 -17 48 24 27 35 -22 22 -24 29 -26 -27 36 34 62 30 32 56 -34 -35 -36 -37 -38 38 -40 -41 -42 -43 -44 44 -46 57 -48 -49 49 55 53 -53 -54 54 -56 -57 -58 -59 -60 -61 61 -63 -64
leaf_value=-0.027032466078940533 0.1677899203047965 0.087344244729685633 0.01723292051963278 0.31600188766517406 0.076686301616645747 0.036387839401292012 0.0187232212895212 0.073321683886835173 0.022194429585946498 0.032824382311153907 0.11044317972394102 0.0085033550191648734 -0.010040222283395484 -0.0083336499321854871 0.0052544098092075706 -0.0093142711014357268 0.062558920239311686 0.088942350142249299 0.2348502497499986 0.1839300973585927 0.06489701067490572 0.069496479400420003 0.23547070924970753 -0.036528326656144694 0.25041834480521413 0.155241816827284 0.0025001746905872107 0.14535262939006457 0.071168901338854937 0.0025875045780439062 0.042994888757293709 -0.02307457790228349 0.18688831350583357 0.036089976593273336 0.024098058996814886 0.058744883212327029 -0.017830241697736667 0.021639838568877801 -0.013435159981409898 0.024444522158635233 -0.01300605011278585 -0.0048345446692239207 -0.0074779641477006158 0.071332931324938148 0.10728641629615009 0.138921575359198 0.0028942440283152688 0.24637894240474287 0.14443244599540442 0.085328442877149482 0.06616506071518316 -0.0083144070572663542 0.072023095616812721 0.0036961717897219895 0.057553217959736537 0.0048423986617708095 0.064754019961087927 0.034315284403909511 0.066776501969841182 0.12005337627032338 0.16299865431088167 0.04719119823904025 0.17144155679302392
leaf_weight=1116.0740640424192 9.0568758957087976 5.1423651743680194 4.1400178391486397 10.706342281773685 7.6229198947548893 4.7212826143950215 262.7893230356276 9.0533589795231837 5.1568567566573646 4.3727132324129334 6.1215809490531665 192.21746722981334 28.305732689797878 273.23970256373286 4.341496147215369 121.35931568033993 32.458696119487286 5.4325223192572594 15.958706613630058 5.1713434737175685 17.113045396283269 4.3983876369893542 8.7739974744617921 9.397316746413706 5.4700398202985507 8.940309835597871 6.4904867596924367 6.3806457370519638 7.1835438888519993 4.6125276945531359 4.8575914148241264 4.3898040503263536 4.6768057644367218 8.1914944332093018 4.9941577706485969 6.280529111623764 8.0590058770030719 4.5188863277435294 8.3382587116211635 17.563769679516554 1148.0045515950769 13.102482590824364 9.3239952716976457 8.4056148342788202 5.0047955457121125 5.3222787603735897 26.821273885667324 6.3958024010062218 4.1209216061979532 7.0739981196820798 9.6744068898260576 8.386074258014558 7.1348989345133296 101.31855617277324 10.981109721586106 11.54512441344559 15.411535015329717 6.0407673716545114 6.6459706146270028 10.404001478105782 6.710448516532777 6.6416602004319429 8.4373540859669429
leaf_count=59208 442 223 203 397 398 206 13275 424 253 201 272 9815 1445 14209 204 6300 1621 249 699 226 818 208 414 465 251 427 326 265 325 229 235 208 220 403 226 257 396 230 424 892 59937 684 421 420 237 265 1325 275 205 355 488 420 361 5061 552 580 747 300 324 527 309 318 372
internal_value=-0.000243579 0.0455361 0.0385384 0.166129 -0.0152856 0.105861 0.0292572 0.0485104 0.0184045 0.0487843 0.117427 -0.0074804 0.0324319 0.00342197 0.116253 0.0098645 0.0371681 0.14554 0.156311 0.0751196 0.113768 0.146983 0.188864 0.0612542 0.184191 0.115887 0.069023 0.168365 0.189785 0.0425261 0.0876282 0.0184958 0.124618 0.101619 0.0983647 0.125506 0.0363069 0.0167749 0.0434391 0.0580022 -0.0122686 0.027299 0.0296966 0.0158397 0.0338498 0.0603937 0.0207429 0.192989 0.0282936 0.0627344 0.0231299 0.0481566 0.0111249 0.0144259 0.00942402 0.0382122 0.0451099 0.090585 0.131595 0.0934828 0.0899104 0.112695 0.132386
internal_weight=3716.98 918.76 869.618 49.142 2798.22 104.102 765.516 274.705 490.812 106.663 38.4356 1682.15 87.0464 513.417 19.6168 384.149 235.366 15.2753 47.6757 25.9182 39.3388 22.2257 13.1724 56.4259 10.9026 13.0803 49.8069 42.9544 31.5796 43.3456 14.1469 29.1987 9.5344 23.8943 11.3748 11.4519 25.9125 240.177 40.8249 32.4867 1168.73 20.7254 14.4664 68.5374 40.2317 17.8535 35.2269 12.5174 185.559 22.74 162.819 40.8448 199.352 121.974 112.3 18.6191 19.8013 11.363 15.7028 14.9229 18.509 13.3521 15.6209
internal_count=191972 45287 43216 2071 146685 4827 38389 13602 24787 5212 1674 87477 4307 26458 905 19575 11738 701 2093 1127 1864 1046 622 2734 500 630 2456 1887 1396 2104 684 1420 455 1169 491 483 1287 12249 2073 1649 61019 1082 644 3427 1982 891 1745 547 9282 1140 8142 2041 10176 6101 5613 935 955 565 766 757 880 627 697
is_linear=0
shrinkage=0.05


Tree=2
num_leaves=64
num_cat=0
split_feature=75 75 76 75 75 50 75 29 47 2 40 87 77 79 27 50 50 26 104 40 8 45 43 53 33 51 77 96 6 75 84 8 51 51 111 47 70 100 47 8 10 84 44 84 87 33 10 37 8 69 53 6 6 78 43 41 76 111 90 44 13 107 52
split_gain=930.998 248.293 191.601 114.029 81.1097 72.5867 58.4308 66.0034 50.126 45.3912 43.9102 33.6721 28.5303 27.2238 26.9485 26.0789 25.1674 23.3824 21.551 21.3795 20.7609 20.1806 19.9702 19.8844 19.2864 17.6036 21.1512 19.9954 17.1934 17.1165 17.1137 15.549 15.5416 14.5047 20.7238 17.624 14.2936 14.3048 14.1923 13.8971 26.7074 14.9994 20.0355 19.2303 17.4473 19.4937 15.2614 13.7715 13.7288 13.5837 13.4028 13.2109 14.5454 13.1623 25.095 31.6145 17.5176 24.3962 22.1047 21.9031 19.6619 15.3892 12.958
threshold=0.094656247645616545 0.82462874054908764 -0.30555556714534754 0.033953750506043441 0.17859500646591189 25.217825889587406 0.35597999393939977 5.3977272510528573 7.6195530891418466 2.5000000000000004 11.840125083923342 0.00073680002242326747 1.0000000180025095e-35 -0.036231884732842438 14.263888835906984 4.3340642452239999 27.929453849792484 2.5000000000000004 0.040419001132249839 4.4593405723571786 64.500000000000014 6.8058958053588876 56.862962722778327 5.1574072837829599 51.468750000000007 4.695876121520997 0.26219512522220617 0.0015389499603770675 66.000000000000014 0.055808750912547118 0.62351149320602428 298.50000000000006 0.036082473583519466 4.5618557929992685 0.089253451675176634 45.138887405395515 2.9529500007629399 0.0053397500887513169 41.379821777343757 119.50000000000001 584.50000000000011 0.064629498869180693 0.074648365378379836 0.021334749646484855 0.0014069000026211145 43.718750000000007 1154.5000000000002 0.13636364042758944 374.50000000000006 1.0000000180025095e-35 1.1574074029922488 130.50000000000003 162.50000000000003 -18.928571701049801 41.409257888793952 -1.0000000180025095e-35 -0.13888889178633687 0.30701385438442236 0.018079799599945549 0.05089190416038037 2012.5000000000002 0.078791998326778426 -4.5843374729156485
decision_type=10 10 10 10 10 10 10 8 10 2 10 10 10 10 10 10 10 2 10 10 2 10 10 10 10 10 10 10 2 10 10 2 10 10 10 10 10 10 10 2 2 10 10 10 10 8 2 10 2 10 10 2 2 10 10 10 10 10 10 10 2 10 10
left_child=3 2 4 -1 23 9 7 14 -8 47 12 -6 31 24 -4 -16 -9 19 -13 -10 -17 22 -15 -2 -5 26 27 -20 -25 -24 -19 -11 -32 34 -22 49 37 -26 -39 40 -30 43 -43 -41 45 -44 -45 -3 -37 53 -21 -18 -53 54 55 -36 58 -58 59 -56 -59 -61 -40
right_child=1 5 6 13 11 -7 8 16 17 10 -12 18 -14 21 15 20 51 30 25 50 33 -23 29 28 36 -27 -28 -29 39 -31 32 -33 -34 -35 35 48 -38 38 62 41 -42 42 44 46 -46 -47 -48 -49 -50 -51 -52 52 -54 -55 56 -57 57 60 -60 61 -62 -63 -64
leaf_value=-0.026580807281824378 -0.034768909679090201 0.090151875306000079 0.133385047254098 -0.0028481070671910183 0.22669657784449698 0.25906129890034363 0.019949445843598111 -0.00087393396859448849 0.027122684631689278 -0.013922951143828025 0.17007323740270608 0.011946318032734892 0.10823403310740978 -0.029472344759773502 -0.021952939298813298 0.0099692232744373905 0.0029087091050088013 0.046044644390655115 0.026076688343447108 0.12313769905334807 -0.0085302288890736089 -0.0094467793788978668 0.0090220132017205454 0.011251184454695879 0.013478837256307136 0.036036839637263465 0.17520543911379247 0.12460445100481643 0.040087696494089824 0.12524710732853536 0.070720519417695957 0.066221420379703758 0.20543367774530275 0.011270822730709217 0.20423694297152994 0.16652147571927609 0.0066012524870522615 0.12878043052972285 0.0018568908345338202 0.12645381075302572 0.18207943359368148 0.16044442044645116 0.14359013220518577 0.045076658258813442 0.010618543101571433 0.012262848754459127 -0.021331348795675956 0.20430038311829893 0.04112594110375372 -0.016304054769510329 0.028809340143945407 0.11698129711919836 0.035673519329109657 -0.0028730238508966736 0.1346395762655905 0.028012357490507147 0.017515548978264541 0.010737864909633431 0.173746187890749 0.070774446028256263 0.12957133760635722 -0.008567596697117881 0.075525998373780823
leaf_weight=1149.8382893763483 5.1818371005356303 6.4234142526984241 6.3241289202123872 140.19814150221646 7.4542665518820277 8.9800220485776645 51.803943855687976 324.90523339062929 21.369800457730889 15.129970638081433 9.3774792440235597 5.333673767745494 12.781329959630964 6.018713457509878 17.95632578805089 46.55070442520082 22.172165788710117 5.1780583579093244 8.0659940037876385 15.06856729835272 11.954923674464224 1313.3194578085095 5.6826451867818815 15.849738171324132 23.82765182107687 6.4546808302402487 17.755280580371618 17.198088865727186 7.2345624025911075 6.6656131409108639 4.7495362199842921 8.7977471165359002 8.1607129294425231 23.876547675579786 5.662676265463233 5.8982127830386144 52.829276189208031 6.2362867034971741 10.369210075587038 4.9171894192695609 6.5077947545796633 6.5670422576367882 7.4782663956284514 34.346584606915712 10.354439714923499 4.5399688631296184 10.786970276385544 12.691628627479075 4.4340461418032646 6.224501769989728 5.8902607839554539 6.1464035958051673 32.439380448311567 8.3647185396403057 6.8124051894992617 4.7083926443010551 47.148447144776583 5.4909386541694394 4.7858582977205506 12.546791911125185 9.5239989999681693 10.781151050701736 13.233219658955928
leaf_count=62516 242 238 306 7204 279 292 2512 16260 980 673 305 200 467 318 918 2338 1073 216 340 675 586 69021 301 741 1234 260 648 707 338 349 205 368 354 1158 276 285 2733 322 537 218 296 302 341 1585 484 215 509 491 214 309 264 296 1570 422 324 247 2358 274 222 595 467 514 683
internal_value=0.000445244 0.0420302 0.0347927 -0.0146111 0.0815287 0.129455 0.0235337 0.0175097 0.0566175 0.107962 0.0781706 0.127262 0.0508062 -0.00587999 0.0380948 0.0349457 0.0046849 0.0872215 0.109919 0.0642503 0.0397827 -0.00870614 0.042006 0.0556085 0.00934954 0.120035 0.131533 0.0953383 0.0601995 0.0764434 0.134794 0.017019 0.164521 0.0479255 0.0538697 0.0595265 0.0252845 0.0432191 0.0657609 0.0683563 0.115119 0.0588834 0.0875088 0.0409421 0.0601514 0.0987331 0.0290867 0.172331 0.121086 0.0533734 0.0991469 0.0339438 0.0512531 0.0572254 0.0618868 0.133732 0.0529273 0.0360439 0.0811374 0.0613252 0.0894982 0.0352611 0.0445521
internal_weight=3715.36 987.137 912.955 2728.22 176.026 74.1816 736.929 624.708 112.221 65.2016 46.0865 62.262 36.709 1578.38 239.045 232.721 385.663 60.4169 54.8077 42.3286 214.764 1331.69 18.367 113.764 246.694 49.474 43.0194 25.2641 108.583 12.3483 18.0883 23.9277 12.9102 168.214 144.337 132.382 106.496 53.6664 29.8387 92.7328 13.7424 78.9905 28.9397 50.0507 22.3727 12.0182 45.1336 19.115 10.3323 122.05 20.9588 60.7579 38.5858 115.825 107.461 10.3711 97.0896 62.1634 34.9262 30.1403 15.0149 23.3279 23.6024
internal_count=191975 46757 43923 145218 7705 2834 36218 31012 5206 2542 1813 2434 1508 82702 11813 11507 19199 2694 2155 1919 10589 69989 968 5271 12713 1955 1695 1047 5029 650 775 1041 559 8251 7093 6507 5509 2776 1542 4288 634 3654 1342 2312 1040 556 2094 729 499 6008 939 2939 1866 5699 5277 523 4754 3099 1655 1433 741 1109 1220
is_linear=0
shrinkage=0.05


Tree=3
num_leaves=64
num_cat=0
split_feature=75 75 76 75 75 77 75 76 44 41 29 29 82 4 76 43 51 44 4 29 75 56 44 80 29 90 10 36 44 70 77 70 70 53 81 25 29 29 36 107 3 26 48 31 2 34 8 34 34 4 94 51 32 83 82 33 33 81 48 76 75 11 86
split_gain=799.544 216.506 146.923 92.5003 85.9294 71.3194 61.6764 46.2245 47.5075 44.1389 42.9636 28.0481 26.6733 24.312 23.0182 22.9713 21.872 26.6043 27.1467 21.9525 19.6412 19.3604 20.6295 19.0957 19.0902 18.9689 18.7006 17.2077 16.3039 16.2775 17.9758 19.9663 15.8505 20.2412 15.7444 14.9333 24.0309 18.3504 14.8142 15.9838 14.6319 18.9182 19.0647 15.9104 15.983 14.6217 14.3075 13.9352 17.2655 13.7066 15.4809 16.5035 15.7251 13.5926 15.5658 19.5582 15.9265 13.2127 12.6599 12.3985 25.3377 12.315 12.2827
threshold=0.089121252298355116 1.3667500019073489 -0.30555556714534754 0.045460000634193427 0.16894999891519549 1.0000000180025095e-35 0.21742875128984454 -1.0000000180025095e-35 21.318294525146488 -1.0000000180025095e-35 10.170454502105715 7.5568180084228525 0.68922844529151928 181.50000000000003 -0.36111111938953394 58.772634506225593 1.0567010045051577 0.18920306861400607 122.50000000000001 9.7159090042114276 0.02483874931931496 964.79165649414074 0.09209421277046205 -1.071428596973419 4.829545497894288 0.0086487000808119791 1423.5000000000002 -292.00714111328119 3.5584120750427251 3.2756500244140629 0.030487803742289547 5.9195499420166025 6.3360500335693368 42.046297073364265 -0.16346154361963269 11.500000000000002 3.0113636255264287 16.477272510528568 -294.27856445312494 0.053757200017571456 17.500000000000004 2.5000000000000004 2.9282296895980839 -0.2254901975393295 2.5000000000000004 -33.29999923706054 350.50000000000006 -89.522220611572251 -162.81111145019528 284.50000000000006 0.030186450108885769 4.3969073295593271 -0.019480519462376829 0.18718925118446353 0.16507829725742343 62.156250000000007 36.031250000000007 -3.586538434028625 1.88261353969574 -0.13888889178633687 0.16894999891519549 1414.0000000000002 0.052890399470925338
decision_type=10 10 10 10 10 10 10 10 10 10 8 10 10 2 10 10 10 10 2 8 8 10 10 10 8 10 2 10 10 10 10 10 10 8 10 2 8 10 10 10 2 2 10 10 2 8 2 8 10 2 10 10 10 10 10 8 10 10 10 10 10 2 10
left_child=3 2 4 20 11 23 9 16 35 13 -7 15 21 25 27 -2 17 61 58 -20 57 62 -23 -3 26 -4 28 32 -16 -18 -31 -32 -5 -34 46 36 -9 -38 39 -24 41 43 -43 44 -15 -25 -10 48 -29 -17 51 -51 -53 -30 55 56 -55 -1 -19 60 -45 -8 -6
right_child=1 5 6 14 12 10 7 8 34 -11 -12 -13 -14 40 24 49 29 18 19 -21 -22 22 38 45 -26 -27 -28 47 53 30 31 -33 33 -35 -36 -37 37 -39 -40 -41 -42 42 -44 59 -46 -47 -48 -49 -50 50 -52 52 -54 54 -56 -57 -58 -59 -60 -61 -62 -63 -64
leaf_value=-0.029322878778420314 0.032761914357309692 0.018394668875621727 0.036756448758342206 -0.0028290473464351396 0.069595326253922382 0.29697391346415758 0.091771812795789998 0.072140871235780876 0.077031701844071362 -0.019727439217360261 0.11318150024913348 0.0033387911249297235 0.16118443147565079 0.01212495682217994 -0.0039190797659185506 0.033923726529185759 0.012580892511748494 -0.0087956719031871775 0.16832728586253048 0.073117887049734417 -0.017531722751774916 0.046700151148286399 0.1267971115283065 0.17099214373586255 -0.01175595069530181 -0.0091475713263105152 0.083031556784274735 0.032849594950322247 -0.013193330635601477 -0.0030135313449131777 0.15846970817049594 0.026919476725420922 0.13633503102189001 2.5054663017861327e-05 0.14693339667887884 0.034987748507766391 -0.015616764463201769 0.05734817061151052 0.18674235934486094 0.030691374128525257 -0.00023685868553950976 0.1291558586211756 0.043048443875050767 0.024812581306410106 0.1083394401258056 0.070547036180673969 -0.0055773826799080002 -0.0099254725071462706 0.14098496499959989 0.17294197311839943 0.0171528506052749 0.027729536330187432 0.13064276257615901 0.054762021756600603 0.010165316961473667 -0.005744783650938016 0.16314277725905874 0.055966609053202054 0.080937895740025495 0.011208345931350883 0.11124194615617927 0.0048117943130460668 -0.014251381970248013
leaf_weight=690.98551747947931 49.039909971877933 7.6116027683019665 27.471334721893072 52.971305200830102 13.882101472467186 9.0321058072149771 4.9496161285787847 9.5544138215482217 21.225287301465873 88.592857079580426 7.4829467590898266 33.896689102053642 19.432027125731111 7.7202659808099279 326.19560945406556 11.352379037067292 26.456747798249125 6.0967449583113185 17.896479712799195 12.663951877504585 893.61781240999699 11.739976733922957 15.547924885526301 6.8675817772746086 527.94199029542506 106.39873767457902 6.0954167041927567 9.146797988563776 21.518060076981783 5.2551306057721403 6.6367967519909126 5.4165318831801414 4.0761202182620737 5.8769553378224382 6.0650702696293584 47.197697475552559 77.882996138185263 8.6877077501267177 9.0789219848811644 6.9268475957214823 47.223603596910834 7.0505688879638901 45.221125684678555 69.459290064871311 9.670360280200839 11.711158556863667 6.6902704592794171 5.108824115246537 6.2966855261474821 8.8190326634794527 4.8703706823289385 8.5175119172781706 6.7028323691338274 14.611523849889638 35.805815320461988 7.8620436117053059 4.3750259820371857 3.6861777752637854 9.2153776437044126 146.77502694353461 8.8603637143969518 13.279521064832805 5.7605490591377011
leaf_count=38597 2183 293 1324 2703 525 244 210 449 920 4654 202 1572 603 378 17171 513 1183 268 724 503 48627 418 541 234 27835 5266 318 467 1137 243 294 243 209 301 235 2219 3690 403 326 254 2324 340 2183 3229 469 430 290 262 321 380 218 378 282 766 1877 412 229 206 375 7277 411 560 216
internal_value=0.00011706 0.0359093 0.0313587 -0.0149113 0.0692044 0.145058 0.0221312 0.0410495 0.0251182 0.0125175 0.224914 0.0422227 0.10857 0.0185496 -0.00321949 0.0567816 0.0667649 0.0853892 0.105483 0.13244 -0.022471 0.0900586 0.108788 0.0882827 -0.00545101 0.000475032 0.00255064 0.0217924 0.00115627 0.0381884 0.0745055 0.105945 0.00844025 0.0631992 0.077393 0.0122739 0.000875981 -0.00772319 0.129745 0.099746 0.025603 0.0297297 0.0568693 0.0236697 0.0686085 0.114513 0.0577253 0.0603837 0.0828317 0.0845349 0.10261 0.118548 0.0783113 0.02064 0.0322844 0.0603587 0.086649 -0.0287905 0.0468603 0.0199097 0.0358696 0.031968 0.0455066
internal_weight=3714.06 1097.89 1055.18 2616.17 205.567 42.7054 849.614 285.17 177.303 564.444 16.5151 123.199 82.3683 475.851 1027.88 89.302 107.867 64.1017 45.8726 30.5604 1588.29 62.9363 43.2937 26.1903 944.405 133.87 416.463 83.4767 410.368 43.7652 17.3085 12.0533 62.9244 9.95308 33.9806 143.323 96.1251 86.5707 31.5537 22.4748 341.981 294.757 52.2717 242.485 17.3906 18.5787 27.9156 20.5523 15.4435 40.2621 28.9097 24.0394 15.2203 84.1725 62.6544 26.8486 18.9865 694.672 15.3121 225.095 78.3197 18.2291 19.6427
internal_count=191914 50476 49073 141438 8409 1403 40664 12809 8206 27855 446 5526 2883 23201 54008 3954 4603 2640 1870 1227 87430 2280 1539 957 49745 6590 21910 4263 21592 1963 780 537 3213 510 1445 6761 4542 4093 1121 795 16611 14287 2523 11764 847 664 1210 1050 788 1771 1258 1040 660 4421 3284 1407 995 38803 643 10917 3640 770 741
is_linear=0
shrinkage=0.05


Tree=4
num_leaves=64
num_cat=0
split_feature=75 75 76 75 75 77 40 75 40 4 16 26 47 75 32 29 26 5 90 96 82 79 16 39 70 52 109 27 25 82 29 55 10 75 4 109 89 45 82 16 43 11 49 93 61 111 90 49 94 35 28 46 43 4 35 4 100 78 70 28 53 0 109
split_gain=752.359 144.986 122.813 84.824 60.5269 49.8181 46.2819 45.0284 38.4287 35.9139 24.3196 24.0092 29.7144 35.1493 26.0455 23.6929 19.1362 19.0809 18.9073 24.5508 18.6339 18.4717 18.4611 18.4008 20.1087 17.148 17.0371 22.1266 16.7385 15.6559 15.33 18.1479 15.1127 14.7089 14.3561 13.5682 21.0653 17.8153 12.7672 12.6865 16.4044 23.4834 16.1184 12.5325 12.4062 12.3394 12.1962 18.7028 12.3019 14.7995 12.0905 11.9416 21.0327 11.8311 11.6058 11.4042 12.2706 19.6928 10.9832 12.2731 10.865 10.8199 11.2109
threshold=0.094656247645616545 0.82462874054908764 -0.30555556714534754 0.032724998891353614 0.17859500646591189 0.030487803742289547 2.9554069042205815 0.21742875128984454 4.8700954914093026 96.500000000000014 416.50000000000006 2.5000000000000004 6.1460006237030038 0.33358000218868261 -0.058441558852791779 4.7159092426300058 2.5000000000000004 816.50000000000011 0.036838199943304069 0.0031762999715283517 0.44833295047283178 -0.036231884732842438 82.500000000000014 0.44117647409439092 0.93484997749328624 -0.33132529258728022 0.039617000147700317 64.819442749023452 13.500000000000002 0.268098995089531 16.477272510528568 -24.026315689086911 374.00000000000006 0.20227124541997912 122.50000000000001 0.022452999837696556 0.073190700262784972 73.534679412841811 0.32816401124000555 350.50000000000006 29.946969032287601 1758.5000000000002 71.00360488891603 0.023151149973273281 29.406000137329105 0.3838807493448258 0.0084528001025319117 73.833946228027358 0.039961850270628936 -1.00537633895874 -428.46296691894526 15.248016834259035 10.562728881835939 35.500000000000007 -14.381720066070555 46.500000000000007 0.0056673500221222648 -782.64285278320301 1.3660500049591067 -84.972221374511705 20.064814567565922 1.5000000000000002 0.014359999913722278
decision_type=10 10 10 10 10 10 10 10 10 2 2 2 10 10 8 8 2 2 10 10 10 10 2 10 10 10 10 10 2 10 8 10 2 10 2 10 8 10 8 2 10 2 8 8 10 8 10 10 10 10 10 8 10 2 10 2 10 10 8 10 10 2 10
left_child=3 2 4 -1 25 8 11 17 51 -10 22 26 -13 14 -14 21 -11 46 19 -9 -21 55 -6 24 -20 61 27 32 29 -24 31 -31 -4 -28 -35 36 38 -38 -17 40 41 44 -42 -19 -26 -22 47 48 49 -8 -16 52 58 -48 -23 -5 -57 -58 -3 -60 -30 62 -2
right_child=1 5 6 15 10 -7 7 18 9 16 -12 12 13 -15 50 35 -18 43 23 20 45 54 28 -25 39 -27 33 -29 60 30 -32 -33 -34 34 -36 -37 37 -39 -40 -41 42 -43 -44 -45 -46 -47 53 -49 -50 -51 -52 -53 -54 -55 -56 56 57 -59 59 -61 -62 -63 -64
leaf_value=-0.025297587499482722 0.043631438276452404 0.0059939097049930687 0.14040450415065212 -0.021614868078125314 0.025352654342247722 0.17397131257861226 0.0074166821988334401 0.02526614902704389 0.032100023193401869 0.09285251275086559 0.0071351863129635795 -0.011917676278451909 -0.0090355895461895226 0.14352943997643949 0.034953351309991706 -0.0091980303518358706 0.19888424678535577 0.12841561052881997 0.015632678594926352 0.04283796092266557 0.19697790793552847 -0.013236696518234035 0.057896568484333812 0.0015992678577673503 -0.0096465256511003433 -0.027625848955556195 -0.02178850716203528 -0.0041425781570137658 0.018049711800307112 0.18598543181023539 0.076448722375689018 0.080449616848509264 0.031028161758788454 -0.018271918764144395 0.022230051087490245 -0.018680523565224295 0.0065605518505465815 0.1206657143775229 0.067662957854300418 0.028472408172020233 0.013286326766742762 0.15261160522178294 0.10641839277098636 0.018075714591791529 0.095921783915758729 0.08865086628497848 -0.016590461782646851 0.010036326127353345 0.092536521355710027 0.10023182746902487 0.1288642724016387 0.098527625358435789 -0.032239073052921334 0.016685949545182804 0.0012491688461572443 0.0033990614878570621 0.12675873545218941 0.0276742978788065 0.1169998404916979 0.026989476289601428 0.10258125638014487 0.054120359397393902 -0.029521620667638582
leaf_weight=1033.8565166220069 11.141741640865805 8.6037313938140887 4.7483731582760802 16.038838719949126 6.8053271044045678 16.438242116943002 16.094880292192105 12.082689454779027 9.7340967375785095 11.788909072056414 6.6788804214447728 24.558376071974635 18.049141628667712 8.2397942747920734 8.8896010369062406 434.59853725135326 10.957600841298698 5.6886620111763451 25.939096508547664 7.5191253796219852 6.8599634710699293 214.98051652312279 8.1394511479884368 21.749962091445923 5.045192018151285 7.5400550086051217 99.910257687792182 20.304502641782165 7.6301728487014753 22.764991940930482 9.5384978875517827 7.7145936451852384 8.7495020274072868 35.597406456246972 53.53728836402297 438.8458654768765 8.5741295609623176 4.831451714038848 4.4825447276234618 15.947718597948549 13.730665951967241 13.474240673705934 6.3002800680696955 4.7966240886598834 4.7831542249768972 8.6509360857307911 29.497244253754616 36.606032261624932 16.059896567836404 4.9511406980454913 5.9522903319448224 6.9998383466154328 9.4363674912601692 224.04520078003407 383.86556016467512 48.633799958974123 4.6299160234630099 59.359811592847109 7.9087023399770233 7.9439909644424924 7.7592493873089552 96.240619823336601 8.2966473642736656
leaf_count=59155 503 338 218 821 218 358 738 511 300 350 219 1199 873 314 423 23054 295 258 1144 331 290 11463 264 971 227 339 5065 943 254 691 292 253 404 1722 2507 23598 452 255 215 684 577 571 266 226 202 341 1465 1672 740 218 289 236 341 10874 20401 2492 231 2994 285 304 249 3979 381
internal_value=0.00010506 0.0357259 0.0300242 -0.0141157 0.0648193 0.0962103 0.0208835 0.0303844 0.0766841 0.116791 0.0994834 0.00503346 0.031355 0.0568619 0.0315557 -0.00696328 0.150155 0.0203466 0.0539358 0.0858228 0.11522 -0.000265795 0.108028 0.0427711 0.0531386 0.0425223 -0.00283082 0.0293472 0.116351 0.131329 0.14449 0.162678 0.0765358 -0.00870858 0.00603166 -0.0124234 -0.00632701 0.0532063 -0.00826139 0.0690181 0.082961 0.11132 0.0462462 0.0839079 0.0458441 0.145589 0.0180607 0.0358627 0.0604091 0.0328078 0.078373 0.0428004 0.0287972 0.0127646 -0.00396453 0.0168474 0.0224669 0.0366836 0.052689 0.0761724 0.0643285 0.0472922 0.0124917
internal_weight=3711.12 1058.42 968.609 2652.7 200.25 89.8115 768.359 479.823 73.3732 32.4806 77.0312 288.537 65.6892 41.1308 32.891 1618.84 22.7465 337.74 142.083 35.1127 23.03 727.508 70.3523 106.97 85.2203 123.219 222.847 33.8024 63.547 48.1575 40.0181 30.4796 13.4979 189.045 89.1347 891.333 452.487 13.4056 439.081 59.2813 43.3335 23.3026 20.0309 10.4853 9.82835 15.5109 327.254 73.7119 37.1059 21.046 14.8419 40.8926 33.8928 253.542 598.846 128.662 112.624 63.9897 24.4564 15.8527 15.3894 115.679 19.4384
internal_count=191843 46712 43905 145131 7642 2807 36263 22306 2449 945 2440 13957 3098 1899 1585 85976 645 16191 6115 1473 962 38402 2221 4642 3671 5202 10859 1565 2003 1500 1236 944 622 9294 4229 47574 23976 707 23269 2527 1843 1000 843 484 429 631 15707 3368 1696 956 712 1504 1268 12339 31864 6538 5717 3225 927 589 503 4863 884
is_linear=0
shrinkage=0.05


Tree=5
num_leaves=64
num_cat=0
split_feature=83 77 83 77 77 83 78 83 77 91 9 27 4 29 29 13 11 14 29 44 14 109 6 14 37 44 5 17 40 35 77 110 108 78 25 13 27 90 46 51 8 9 61 33 9 27 47 14 25 33 111 49 40 5 40 96 40 14 5 9 77 40 111
split_gain=472.151 118.818 93.3463 75.8237 74.2842 69.8269 57.714 53.8191 47.605 45.6631 32.4979 29.673 29.0793 27.6404 24.8051 22.6313 21.978 31.7473 27.5661 21.9189 20.2381 18.7961 17.2748 18.0822 27.9916 16.2207 16.1706 15.8945 18.9552 15.6594 14.7162 20.8254 13.7712 14.5025 14.6464 13.529 13.2593 12.9814 12.9721 12.473 12.2895 12.2832 11.9326 14.9587 11.9274 19.2922 15.0825 11.9235 11.803 16.0581 13.4204 11.8023 11.5578 11.1767 13.858 11.1575 11.051 11.8043 10.9799 15.311 12.7894 16.9255 10.8899
threshold=0.42214924097061163 0.28658536076545721 2.7972744703292851 0.018292682245373729 1.0000000180025095e-35 0.18718925118446353 -2.9285714626312251 0.89216715097427379 0.030487803742289547 0.18130905181169513 182.00000000000003 13.902777671813967 181.50000000000003 5.0000000000000009 4.829545497894288 3139.5000000000005 4227.5000000000009 786.50000000000011 18.750000000000004 35.999639511108406 786.50000000000011 0.01767199952155352 54.000000000000007 1188.5000000000002 0.30519479513168341 0.23834806680679324 377.50000000000006 1.5000000000000002 7.3138771057128915 -8.3817200660705549 0.079268291592597975 0.038929799571633346 0.11077440157532693 -470.21427917480463 11.500000000000002 3140.5000000000005 64.819442749023452 0.0027252000290900473 13.003723144531252 3.9845361709594731 352.50000000000006 4.5000000000000009 27.757349967956547 79.656250000000014 194.00000000000003 49.652776718139656 12.412678241729738 1155.5000000000002 5.5000000000000009 1.7187500000000002 0.17760104686021808 60.543869018554695 24.895469665527347 83.500000000000014 20.917191505432132 0.001376000000163913 8.105319023132326 2426.5000000000005 13.500000000000002 1.5000000000000002 0.15243902057409289 3.0034013986587529 0.025485900230705742
decision_type=10 10 10 10 10 10 10 10 10 10 2 10 2 8 8 2 2 2 10 10 2 10 2 2 10 10 2 10 10 10 10 10 10 10 2 2 10 10 10 10 2 2 10 8 2 10 10 2 2 10 10 10 10 2 8 10 10 2 2 2 10 10 8
left_child=5 2 3 11 19 6 30 14 39 10 27 51 20 58 29 41 17 -9 22 35 -6 26 -19 -24 -25 -14 -16 -3 -29 42 62 37 33 -31 48 53 -26 -32 -17 -7 -28 -13 52 55 -43 46 -46 -30 50 -50 -35 -2 -5 -4 -55 -44 -18 -58 -10 -60 -61 -62 -1
right_child=1 9 4 7 12 8 -8 16 13 -11 -12 15 25 -15 21 38 56 18 -20 -21 -22 -23 23 24 36 -27 40 28 47 32 31 -33 -34 34 -36 -37 -38 -39 -40 -41 -42 44 43 -45 45 -47 -48 -49 49 -51 -52 -53 -54 54 -56 -57 57 -59 59 60 61 -63 -64
leaf_value=-0.030667701035517737 0.017327677801542523 0.14700825547042898 0.081527050125069736 -0.013974140321494036 0.1040947365407202 -0.0053457425185937414 0.15197374466726035 0.021985112417157171 -0.02196138013582883 0.17637503789780637 0.010160382266514702 0.057960371772492428 0.068267973645006905 -0.0043186556877537049 0.0083959852610398546 -0.022544209562778219 -0.0013882526843292384 0.018872349606007879 -5.5479482402478744e-06 0.09413643236769717 0.0054891017513413231 0.0011194304054435004 0.17517571349899813 0.17582309800111659 0.086672988721369484 0.14619994589973589 0.1124453953816851 0.11684813795600202 -0.0064681312229712259 0.0015063913261290872 -0.020610705834347515 0.072766060562625065 0.023760291153803556 -0.0044165520165353684 0.026884261679756036 0.092616280227970804 0.0074461016502356441 0.0096309679971767464 0.071008610612926792 -0.021614420046679034 0.018983026038821904 -0.0090466491836006142 0.1156951834783297 -0.026941199653056559 0.010530878737300436 -0.00090284509732415697 0.11867005279511889 0.073008686529024022 0.061336386919644208 0.15727168003206748 0.086252483149379791 0.12441664305013388 0.06303220057074653 0.0044152327309519949 0.084333777708869267 0.02996365321595916 -0.00040979029239209214 0.088843970962120308 0.095871239888581095 0.011198766828304566 0.091613200862343258 0.023126243417340542 -0.019218062089484882
leaf_weight=268.58199655264616 4.8498954363167268 10.321327278390525 5.0282076578587285 32.638974096626043 8.2980746645480412 200.72181660123169 3.9148944653570643 21.497132260352373 17.947825964540243 12.112251108512281 16.775587571784854 6.8065039627254 12.303519619628785 367.35761167109013 17.46631520614028 4.297178095206621 18.022905547171831 5.4219549223780623 6.8118011672049752 11.002986732870339 12.086650494486092 156.97142740152776 10.91979795321822 7.3646208103746131 18.556229915469892 28.723725834861398 9.0855038780719024 12.054481811821463 8.9650672320276517 8.4792046807706338 96.26704915612936 7.0842472687363616 40.383051250129938 6.5055266674608019 14.37105757370591 5.2570021618157616 7.5095161050558081 55.116424037143588 14.9800369720906 287.17039064131677 6.1325725819915524 320.46190751716495 5.8971797153353718 5.2445895764976767 6.3188845589756948 39.887118464335799 6.0734209194779396 8.6257978249341232 10.548966931179168 10.275479614734648 9.5454656798392516 5.554089967161417 4.6998540703207246 71.655446898192167 4.8820240423083296 10.725701969116924 5.8743377178907386 8.9868390690535289 5.1310256216675034 271.40649451315403 10.562005810439585 46.78811807744205 975.66105797886848
leaf_count=15693 207 314 201 1491 256 10911 133 847 905 272 526 340 355 18994 763 215 715 210 273 353 376 7491 419 276 715 757 385 379 284 331 5279 350 1841 289 614 206 286 2949 733 15871 258 16194 260 243 305 1991 288 269 427 443 382 242 208 2979 146 497 214 339 249 13849 473 2124 55758
internal_value=-0.000177056 0.0273342 0.0230218 0.0165341 0.058109 -0.0117325 -0.0192992 0.0304412 -0.00290635 0.0904925 0.069423 0.000867759 0.100838 0.00527063 0.0206889 -0.00140267 0.060652 0.0750226 0.0944407 0.0305358 0.0486195 0.00839915 0.107112 0.117246 0.093785 0.12501 0.0422899 0.0934426 0.0706046 0.0351756 -0.0198852 -0.00549345 0.0471661 0.0623398 0.0721838 0.0214957 0.0649662 -0.00960922 0.050071 -0.014946 0.0782748 -0.00414172 0.0144549 0.0429028 -0.00542779 0.0165085 0.0684331 0.0343347 0.0886619 0.113711 0.0514002 0.0803932 -0.00289006 0.0158456 0.0105348 0.0652172 0.0253229 0.0557622 0.0152668 0.0173276 0.0158147 0.0370932 -0.0217122
internal_weight=3710.97 1097.26 1028.4 869.165 159.238 2613.71 1406.63 459.936 1207.09 68.8545 56.7423 409.229 61.412 719.193 348.971 398.825 110.965 78.0811 56.5839 97.8257 20.3847 189.656 49.7721 44.3502 33.4304 41.0272 32.6844 39.9667 29.6453 159.315 1402.71 158.468 100.109 59.7257 51.2465 86.8227 26.0657 151.383 19.2772 487.892 15.2181 379.548 59.2063 21.8675 372.741 52.2794 12.3923 17.5909 36.8754 20.8244 16.051 10.404 37.3388 81.5657 76.5375 16.6229 32.8841 14.8612 351.835 333.888 328.757 57.3501 1244.24
internal_count=191943 48405 46361 40732 5629 143538 80162 20217 63376 2044 1772 20515 1744 36594 15923 20066 4294 3026 2179 3885 632 8897 1906 1696 1277 1112 1406 1246 932 7026 80029 8578 4327 2486 2155 3532 1001 8228 948 26782 643 19118 2699 1000 18778 2584 593 553 1541 870 671 449 1699 3326 3125 757 1268 553 17600 16695 16446 2597 71451
is_linear=0
shrinkage=0.05


Tree=6
num_leaves=64
num_cat=0
split_feature=75 75 75 76 77 83 75 48 41 98 80 25 46 85 0 75 5 40 40 100 90 11 70 55 51 31 25 91 98 56 35 9 29 52 29 70 32 36 45 28 27 55 108 45 63 51 45 51 36 40 78 52 86 45 11 94 96 40 2 51 33 33 75
split_gain=594.887 104.309 84.754 72.9815 51.4602 46.4996 40.733 28.1768 22.5847 20.7824 20.4581 19.1952 22.4007 21.7435 21.4629 18.7332 18.6108 18.525 16.9441 17.5153 28.2384 20.1457 16.2768 15.5934 15.3567 18.8608 15.2241 18.6467 14.8978 15.2535 14.8841 14.3881 14.3181 14.2201 14.1778 19.3692 21.8656 21.2329 13.9151 13.2881 12.3083 11.966 20.9499 12.8963 11.9055 13.629 11.7942 11.6058 15.8951 12.2084 15.5996 12.3582 11.7188 11.4909 11.2378 12.1697 14.4879 11.1584 11.0857 14.9749 10.7342 15.5302 10.6696
threshold=0.094656247645616545 0.35597999393939977 0.045460000634193427 -0.13888889178633687 0.018292682245373729 5.6066484451293954 2.3082387447357182 2.5964912176132207 -1.0000000180025095e-35 0.023884350433945659 -32.928571701049798 12.500000000000002 28.03106784820557 0.08057074993848802 1.5000000000000002 0.02483874931931496 717.50000000000011 9.3982415199279803 7.7495927810668954 0.013866450171917679 0.0098723997361958044 2990.5000000000005 6.0868501663208017 -25.201753616333004 0.72680410742759716 -0.088235296308994279 2.5000000000000004 0.1343614459037781 0.010990350041538479 2791.958374023438 -1.0913978815078733 213.50000000000003 2.6704545021057133 -7.3795182704925528 13.06818199157715 0.93484997749328624 -0.11038960888981818 -69.621429443359361 5.653691530227662 -2779.4814453124995 55.791666030883796 -85.412281036376939 0.038672000169754035 69.58142471313478 14.34999990463257 4.5000000000000009 79.336044311523452 4.3659791946411142 -178.10714721679685 16.195818901062015 -328.64286804199213 -4.2951805591583243 0.031380299478769309 7.562589406967164 878.50000000000011 0.01302954973652959 0.00057984999148175131 4.8012740612030038 2.5000000000000004 4.6340208053588876 2.4687500000000004 8.0312500000000018 0.090162497013807311
decision_type=10 10 10 10 10 10 10 10 10 10 10 2 10 10 2 8 2 10 10 10 10 2 8 10 10 10 2 10 10 10 10 2 8 10 8 10 10 10 10 8 10 10 10 10 10 8 10 10 8 10 10 10 10 10 2 10 8 10 2 8 10 10 10
left_child=2 3 10 11 6 34 7 -3 22 33 15 12 14 26 -2 -1 38 -8 19 39 21 -21 31 -15 25 -9 27 -14 -28 47 41 -5 -10 44 35 -6 -37 -38 -11 -16 -36 42 43 -13 54 -46 -43 48 -30 50 51 -49 -50 -34 -4 -56 -57 -27 60 -60 -18 -62 -35
right_child=1 4 9 8 5 -7 17 24 32 16 -12 30 13 23 18 -17 58 -19 -20 20 -22 -23 -24 -25 -26 57 28 -29 29 -31 -32 -33 53 62 40 36 37 -39 -40 -41 -42 46 -44 -45 45 -47 -48 49 52 -51 -52 -53 -54 -55 55 56 -58 -59 59 -61 61 -63 -64
leaf_value=-0.02723924947546923 0.0079906744831210654 0.019479408132476478 0.11270861960649184 0.02389371559442862 0.02551623675933919 0.17407387225239571 0.061947925960589449 0.029712246505818798 0.055070064709214217 0.058928845758977083 0.076032291517876258 0.056553816106328564 0.01376459376570548 -0.027350846197177116 0.069566643187444377 -0.015888269133300766 -0.039871577516435053 0.16483354587623542 0.11006637035661589 0.19341203530581483 0.033334758348870945 0.049009869120594594 -0.0074387220917247381 0.042804950110507244 0.0046287791400590021 0.062573448662748249 0.0013409179571456271 0.095802430511728737 0.11368543590570523 0.12917697049591068 0.059032363861149934 -0.017025495967093535 0.05092447594358171 0.0012195667655225608 0.073816929194217104 0.032079788620537314 0.15108441637866024 0.050826855187144249 -0.013070298307618418 -0.022846838060411781 0.0063900478825668298 -0.0036120518207406701 0.12042415121071295 -0.043445800600935225 0.05510125958868211 -0.04042380679274097 0.048433350366506193 0.021262181816809875 -0.0083806120229743611 -0.015242330934293802 -0.0138477929070858 0.11926496508571552 0.082562875010072534 -0.015758044358965318 -0.02732333257474296 0.11375226918853992 0.012338945349959031 0.15640788787484619 0.019145905200719134 0.10716790985971048 0.066112897025302847 -0.0063485679831749896 0.037857269425399069
leaf_weight=644.66180706955492 12.524226197972892 110.41518494673073 5.419648369774225 292.25146484747529 10.608050720766185 13.29537516646087 13.078757258132102 10.075386600568892 7.4905917793512335 5.8308535534888497 4.519117282703518 5.4906641896814126 50.366623245179653 19.862626040354375 5.2025784496217966 848.48602785728872 12.597807077690957 7.7327337153255931 28.106784457340837 6.1518505718559044 15.542396012693642 4.9915543794631958 59.697940742596984 11.768137067556379 7.0432929620146743 7.7727821916341808 9.4092569760978204 7.1322794407606116 15.049002816900609 8.6852720417082292 21.637765130028129 22.484725063666701 5.8772955350577822 445.19017847813666 12.90834908001125 9.1100307311862654 21.374355146661397 8.7223035413771957 500.44473909214139 9.5489662364125234 13.588733432814477 65.056973695755005 5.7010799180716267 5.4260900486260653 5.135403294116256 8.5469672922044992 12.046304600313304 5.889546485617756 7.1396395191550273 8.7026004288345558 5.7113967612385812 7.7915761247277251 5.7210254818201065 115.32845501974225 5.3686527814716127 5.3789813537150595 8.4878896567970514 9.0940210502594692 28.239015398547053 5.0123701095581046 8.8290448710322362 29.27100457623601 19.804354652762413
leaf_count=38795 540 4379 281 13695 309 236 400 340 375 301 242 201 1918 797 184 48380 674 149 1069 231 619 199 2829 497 263 280 333 211 564 298 816 1046 307 23205 365 252 561 243 27065 369 406 2694 224 206 267 445 499 219 256 332 239 288 203 5987 271 279 441 291 1475 260 467 1561 932
internal_value=0.00041685 0.0308744 -0.0127382 0.0225348 0.0589454 0.0894348 0.04197 0.0320792 0.0101962 -0.00215224 -0.0204612 0.0396719 0.0475974 0.036489 0.0689861 -0.020804 -0.00851093 0.105981 0.0797018 0.0569974 0.0804866 0.138091 0.0163957 -0.000737678 0.0712877 0.0879245 0.0453748 0.0254045 0.0603266 0.0687551 0.0225552 0.0209258 -0.00782835 0.00530628 0.0726278 0.0884604 0.104433 0.124598 -0.0121265 0.0120929 0.0407278 0.0135992 0.0507927 0.00737493 0.0341754 -0.00325944 0.00503532 0.0572832 0.0799466 0.0327954 0.0540431 0.081398 0.0351132 -0.0121343 0.0542671 0.0330449 0.0566827 0.119088 0.0131799 0.035156 -0.00163482 0.0117046 0.00285788
internal_weight=3709.83 1118.61 2591.22 863.787 254.819 89.6072 165.212 144.401 503.13 1093.56 1497.67 360.656 245.297 163.229 82.0684 1493.15 590.225 20.8115 69.5441 41.4373 26.6858 11.1434 374.434 31.6308 33.9855 26.9422 131.598 57.4989 74.0993 64.6901 115.359 314.736 128.696 503.332 76.3118 49.8147 39.2067 30.0967 506.276 14.7515 26.4971 93.7211 16.6178 10.9168 38.3375 13.6824 77.1033 56.0048 27.9097 28.0951 19.3925 13.6811 12.8607 121.206 24.6552 19.2355 13.8669 16.8668 83.9492 33.2514 50.6979 38.1 464.995
internal_count=192060 46719 145341 38245 8474 2372 6102 5553 24239 57924 87417 14006 9366 6155 3211 87175 31803 549 2671 1602 1049 430 17570 1294 1174 911 4861 2129 2732 2399 4640 14741 6669 26121 2136 1365 1056 804 27366 553 771 3824 631 407 1984 712 3193 2101 1023 1078 746 507 459 6294 1272 991 720 571 4437 1735 2702 2028 24137
is_linear=0
shrinkage=0.05


Tree=7
num_leaves=64
num_cat=0
split_feature=75 75 75 76 48 75 75 1 33 43 50 45 27 9 6 33 50 40 31 76 45 90 111 43 9 85 3 6 84 45 5 70 84 5 11 24 81 50 50 29 70 70 5 29 38 55 14 53 90 29 29 8 11 5 35 40 75 3 9 5 42 5 35
split_gain=562.728 93.778 86.1816 60.6245 52.7928 35.6635 33.3412 22.7213 22.4844 20.6507 20.5109 20.4435 19.0468 19.2827 18.9865 18.2262 36.6248 18.1905 18.4634 16.7937 16.4058 15.7357 15.4225 14.9945 14.9046 14.7609 17.4294 19.1445 22.4865 24.2544 19.5415 18.4439 14.4818 14.3578 13.541 13.3014 13.2975 13.1358 13.0413 12.7845 12.3948 13.5234 12.7747 23.7361 12.7663 12.3707 13.5657 12.3077 13.0805 13.1184 12.1344 12.1163 12.8268 14.4929 12.5043 16.5426 15.6643 11.9587 11.7239 11.5243 13.2689 15.6327 11.9601
threshold=0.098357502371072783 0.44655874371528631 0.033953750506043441 -0.083333333954215036 1.8031746149063113 1.3667500019073489 0.16894999891519549 1.5000000000000002 4.4687500000000009 52.554166793823249 22.047470092773441 79.579483032226577 34.486112594604499 190.50000000000003 110.50000000000001 2.3437500000000004 21.468549728393558 13.35017251968384 -0.029411765746772286 -0.13888889178633687 6.8058958053588876 0.0024225000524893407 1.4721382260322573 56.98547554016114 131.50000000000003 0.025099750608205799 19.500000000000004 126.50000000000001 0.13094870001077655 12.929049491882326 708.50000000000011 2.2368500232696538 12.877777099609377 807.50000000000011 4814.5000000000009 1508.0000000000002 -2.5096154212951656 4.3340642452239999 12.761904716491701 5.5113637447357187 6.406750202178956 2.2193500995635991 231.50000000000003 5.8522727489471444 1.5000000000000002 -19.798246383666989 1457.5000000000002 45.194444656372077 0.0085485000163316744 21.022727966308597 15.340909004211428 352.50000000000006 4653.0000000000009 804.50000000000011 -4.7365589141845694 30.22733306884766 0.073211248964071288 7.5000000000000009 37.500000000000007 323.00000000000006 -0.35915492475032801 83.500000000000014 -23.629032135009762
decision_type=10 10 10 10 10 10 10 10 10 10 10 10 10 2 2 10 10 10 10 10 10 10 10 10 2 10 2 2 10 10 2 10 10 2 2 2 10 10 10 8 10 10 2 10 8 10 2 10 10 10 8 2 2 2 10 10 10 2 2 2 8 2 8
left_child=2 3 34 6 5 8 21 11 -3 24 12 -6 13 39 -7 17 22 18 -9 35 23 -2 -17 -21 -8 -11 27 45 30 -30 -29 -31 57 47 36 50 -1 -14 -10 -5 41 42 -12 44 -44 46 -27 48 49 59 -4 58 53 54 -53 56 -56 -16 -22 60 61 -23 -63
right_child=1 4 19 10 7 14 9 15 38 25 40 -13 37 -15 32 16 -18 -19 -20 20 51 33 -24 -25 -26 26 -28 28 29 31 -32 -33 -34 -35 -36 -37 -38 -39 -40 -41 -42 -43 43 -45 -46 -47 -48 -49 -50 -51 -52 52 -54 -55 55 -57 -58 -59 -60 -61 -62 62 -64
leaf_value=-0.024542275126215068 0.07018251565614779 0.0019795511571672748 0.0050502705054968344 0.053405475120769479 0.0079032318308499914 0.0051665284735760196 0.048105157791409933 0.10250978793805408 0.024072037490942555 0.11106229272193389 -0.0067510777412653523 0.10287787982532751 -0.029414939839148932 0.11200078115585188 0.075558646367161239 -0.014161025208789922 0.12001780950334096 0.066009850117079716 0.21623327660222411 -0.019469056624952668 0.0019836536052596581 0.0066038624796878808 0.072525407835013378 0.069935036851113061 -0.028365801173361356 0.07316595736935938 0.0017362000630363915 0.033376779571708405 0.19378256508840574 0.13166946585043537 0.11624418656770499 0.046001486171536571 0.02738137057174363 0.079034559219282721 0.037877806165569711 0.062942932570535015 0.057139007768504696 0.0032943852588129909 0.12445077592032279 -0.009593861975840938 -0.02317010412274581 0.056433742011913347 0.11855375418693884 0.00089527276614541514 0.016446346220402877 -0.0072282973058498973 -0.0075968719258670651 -0.013115545740485089 0.0093798598788756293 -0.012687111812657432 -0.012193702346166589 -0.0074607178958454399 -0.021481763178566319 0.067242946801897838 -0.0010174287118158928 0.10854055146463944 0.051025788136294152 0.15577002154759051 -0.015824939901983217 0.021713276325576562 0.10756862571646836 0.0017512283452090157 0.07696524583575981
leaf_weight=1008.3492444120347 17.493718421086669 59.817605936899781 426.08694761246443 13.824296250939371 15.675218781456353 8.5862100869417173 11.549161257222297 11.27638214081526 7.6263908632099611 13.081476083025334 27.172307593747973 8.0416457094252092 33.735345294699073 6.0531141813844433 17.755742806941274 10.973772944882514 21.850766804069281 9.5345842633396369 8.862583829090001 6.9651104025542763 108.60130764916539 19.714025901630521 8.2179058622568828 11.406351786106823 12.006522912532089 17.798851892352108 13.996398815885184 38.282685276120901 5.9313390776514998 10.467922812327744 8.2291521467268449 17.963421801105142 8.429103719070552 9.7420522421598417 8.0215939637273532 7.7844557091593733 4.0956567283719769 262.83067847043276 5.5326007567346096 17.075718834996223 9.773618044331668 39.432837953791022 9.0171523727476561 18.206173559650779 4.9317578189075002 13.718288028612731 6.9447597675025454 25.214773451909423 98.873179193586111 13.324716866016386 133.04203289560974 131.25094674527645 58.400375613942742 7.8882037401199332 59.114033680409193 3.7081654872745267 18.123687509447336 8.5911347419023496 611.28154071047902 55.820736311376095 9.0778952818363887 6.5701061598956585 27.062288349494338
leaf_count=61572 614 2320 21757 607 458 226 400 300 300 308 1249 233 1714 266 470 344 485 213 210 372 5984 766 217 568 433 539 471 1149 196 376 254 629 215 375 463 404 219 12695 177 796 463 1791 387 806 221 513 217 1037 4367 605 6995 7223 3173 411 3275 201 954 186 33779 2242 370 279 1065
internal_value=0.000381655 0.030251 -0.0123074 0.0231368 0.0602055 0.0371566 0.0359771 0.0879141 0.0154243 0.0534763 0.00993095 0.0429655 0.00375362 0.0371046 0.0725591 0.10218 0.0771 0.133224 0.160418 -0.00500006 -0.00884187 0.0253118 0.0247117 0.0367843 0.00955945 0.0604291 0.0546716 0.0608141 0.0746198 0.105351 0.0501762 0.080945 0.0885888 0.0221019 -0.0236316 0.00189352 -0.0241558 -0.000512754 0.0720844 0.0193819 0.028706 0.0340206 0.0184349 0.0392797 0.0859679 0.0306294 0.0510838 0.0196329 0.0232574 0.0335368 0.000932707 -0.00971742 -0.00085649 0.00468891 0.00205903 0.0173977 0.0116905 0.106453 -0.0131393 0.0388083 0.0535116 0.0425027 0.062747
internal_weight=3709.81 1105.69 2604.12 894.916 210.772 116.339 452.863 94.4329 72.9766 169.97 442.053 23.7169 333.519 36.9531 43.3622 70.716 41.0424 29.6736 20.139 1583.65 1016.74 282.893 19.1917 18.3715 23.5557 146.414 133.333 119.336 80.8745 34.3627 46.5118 28.4313 34.776 265.4 1020.47 566.913 1012.44 296.566 13.159 30.9 108.534 98.7602 59.3274 32.1551 13.9489 38.4619 24.7436 255.658 230.443 131.57 559.129 998.368 278.485 220.085 212.197 80.9459 77.2377 26.3469 719.883 118.245 62.4243 53.3464 33.6324
internal_count=191904 44554 147350 38200 6354 3894 17205 2460 2797 5485 20995 691 16078 1669 1097 1769 1046 723 510 85096 55940 11720 561 940 833 4652 4344 3873 2604 1201 1403 1005 871 11106 62254 29156 61791 14409 477 1403 4917 4454 2663 1414 608 1269 756 10731 9694 5327 28752 55000 15237 12064 11653 4430 4229 656 39763 4722 2480 2110 1344
is_linear=0
shrinkage=0.05


Tree=8
num_leaves=64
num_cat=0
split_feature=75 75 77 75 47 40 40 78 29 48 4 34 75 78 4 82 29 75 55 45 51 5 75 82 44 75 48 40 40 61 43 4 62 91 59 33 70 25 29 34 96 11 45 13 70 33 70 89 36 36 6 83 31 54 82 98 62 83 34 34 96 55 61
split_gain=438.905 98.7671 59.7101 56.868 43.9528 36.0225 26.3492 24.9333 22.0452 20.5398 19.9455 23.5581 22.4504 21.5635 18.722 17.8067 16.3329 25.8458 16.5417 16.731 15.1508 14.5723 14.5057 16.161 15.4855 14.2843 13.1722 13.7948 12.5833 12.5547 12.3541 12.3484 13.8371 14.0323 13.6679 12.3767 15.6122 14.5848 22.2821 12.3194 12.3113 12.0373 11.7632 11.6078 12.9502 21.9256 11.4095 11.0109 10.8281 14.0547 10.8143 12.4854 11.3173 10.7696 10.7507 40.2827 13.7777 18.7886 14.3872 14.459 15.1811 12.5137 10.7418
threshold=0.083117499947547926 0.33358000218868261 0.18902438879013064 0.029037499800324443 5.8940715789794931 4.7290208339691171 2.0019762516021733 -2.9285714626312251 5.0000000000000009 5.6148147583007821 152.00000000000003 -42.877777099609368 1.0009112358093264 -23.499999999999996 27.500000000000004 2.9436668157577519 5.5113637447357187 0.10246874764561655 -71.921051025390611 6.2490115165710458 4.7680411338806161 13.500000000000002 0.056852500885725028 0.3576368540525437 1.6370987296104433 0.058368749916553504 6.5786988735198983 0.77419832348823558 35.699569702148445 66.45059967041017 49.479543685913093 181.50000000000003 4.7499998807907113 0.037951199337840087 6.7999999523162851 1.6562500000000002 2.3257501125335698 11.500000000000002 8.2954545021057147 -216.49999999999997 0.0056258998811244973 4052.5000000000005 39.070932388305671 1393.5000000000002 3.2756500244140629 1.1562500000000002 2.8157498836517338 0.079539898782968535 -298.80714416503901 -169.90714263916013 179.50000000000003 1.0570663809776308 -0.14705882966518399 0.25257731229066854 0.37628979980945593 0.025806900113821033 6.6499998569488534 0.31015610694885259 -152.5222244262695 -289.14443969726557 0.00078945001587271701 -70.868419647216783 85.75589752197267
decision_type=10 10 10 8 10 10 10 10 8 10 2 10 10 10 2 10 8 10 10 10 10 2 8 10 8 10 10 10 10 10 10 2 10 10 10 10 10 2 8 10 10 2 10 2 10 8 10 10 8 8 2 10 10 10 10 10 10 10 10 8 10 10 10
left_child=3 2 6 -1 5 -3 9 41 21 -2 53 12 13 30 -4 -15 17 -8 -19 -20 54 -5 23 -23 47 -26 27 -11 31 50 -12 -18 -33 -34 35 46 42 38 -38 -22 -32 -7 -37 -13 -45 -46 -35 -24 -40 -50 51 52 -21 -6 56 -56 57 -16 59 -59 -61 -62 -27
right_child=1 4 14 8 10 7 16 -9 -10 26 11 43 -14 15 20 -17 28 18 19 29 39 22 24 -25 25 62 -28 -29 -30 -31 40 32 33 34 -36 36 37 -39 48 -41 -42 -43 -44 44 45 -47 -48 -49 49 -51 -52 -53 -54 -55 55 -57 -58 58 -60 60 61 -63 -64
leaf_value=-0.0242588833392752 -0.015002323405090652 -0.00061431048505018184 -0.0084837743309888036 -0.034802737285139045 0.047556594971580109 0.053031435171011977 0.0010169314468594357 0.11413018292195708 -0.013185723176080529 0.0669289467890231 0.15346459273884272 -0.0099678580945734476 0.13477572927793602 0.014857772335741794 0.12136797836461598 0.08930115598813497 -0.0070551072765044345 0.10004633353736625 0.10533777594511146 0.089310210410909419 -0.0070875109324271121 -0.0067059676168641754 0.012904863960945819 0.05699990273388509 0.10004212163773757 0.029881370282266978 0.0027647788633434096 -0.020080370851202584 0.06046648391741502 0.056207269703784847 0.10245372001489572 0.0028413514934279025 0.092486572650146912 0.12322530934225623 -0.012384693711381508 0.058127658469565427 -0.012616359034571504 0.0063952386517017821 0.03365285176942847 0.064540281061996121 0.031899141831619647 -0.016747222002210554 -0.023728822724988771 0.027812072491777196 0.14455998019071875 0.025168082788841053 0.02235303915592424 -0.012072683554697133 0.19140369600486259 0.05493495999962348 0.0063104552878447588 0.072485632000733283 0.017241898549213784 -0.0033912925528621395 0.14503449092006568 0.020337265729179013 0.0092331424896570681 0.026827461928641584 0.00041396617059980711 0.02606850759361598 0.15485056031764022 0.05936517167807525 -0.029043628550204682
leaf_weight=785.81751772016287 152.95267162099481 67.789984825998545 15.287920577451585 30.044318960979581 43.221597574651241 16.625006109476093 84.362217996269464 12.77532392926514 857.54948724992573 18.061462588608268 8.25466415658593 8.5378021672368032 19.684233214706182 23.044652622193098 9.4277769867330772 11.768495555967091 112.51333573460579 8.2518577482551319 6.3457524981349698 5.0533569622784844 19.263846566900614 428.66187065653503 99.889826664701104 9.1983655914664251 5.6282162237912408 55.860554689541459 56.446449542418122 5.4731334373354903 10.205958964303134 31.105133812874556 18.330805728212002 142.49666686169803 6.6653678100556126 5.6005843933671695 22.243779998272657 4.501447785645726 5.5170584227889803 15.531371068209408 4.9080152679234743 7.6132442131638518 10.905646683648227 8.9176594745367748 20.907096656039357 23.342400390654802 7.3928626440465433 8.0456678345799428 5.8165749404579401 77.437185073271394 4.3643572498112917 4.666024034842847 67.569392809644341 15.56354885175824 66.116124788299203 13.384840117767451 12.942732671275737 12.802707750350235 18.765508087351918 21.30529298260808 13.39616598561406 8.6512208450585621 7.9549637269228688 8.8977730367332715 8.137280320748685
leaf_count=49380 7672 2650 563 1668 1358 560 3993 267 48266 835 233 256 339 763 376 380 5402 313 252 206 702 24037 5045 502 302 2827 2509 254 462 1305 393 6518 303 256 1030 210 255 725 223 250 298 276 956 651 207 221 267 4169 203 216 2806 647 2735 399 325 325 688 725 424 280 237 262 408
internal_value=-0.000294904 0.0225278 0.0151879 -0.0132825 0.047658 0.0214597 0.0101199 0.0595342 -0.00778514 -0.00429626 0.0616661 0.071904 0.0867395 0.0720019 0.0435785 0.041814 0.0152824 0.0242561 0.0340046 0.0306583 0.0492425 -0.00129719 0.000221375 -0.00524083 0.00988822 0.0296887 0.01611 0.0467006 0.0082618 0.0275509 0.0982189 0.00659875 0.0129181 0.0270061 0.0214416 0.0319455 0.0221564 0.0433587 0.0711116 0.0147892 0.0780612 0.0289566 -0.00757495 0.0418652 0.0532403 0.0876559 0.0777738 0.00199085 0.102879 0.133397 0.0214495 0.0330372 0.0235257 0.03566 0.0571561 0.0861039 0.0478565 0.057987 0.0462412 0.0590733 0.0839821 0.110586 0.0220575
internal_weight=3699.79 1341.57 1039.55 2358.22 302.022 106.108 883.239 38.318 1572.41 232.934 195.914 139.307 91.9885 72.3043 156.309 34.8131 650.305 284.367 200.005 191.753 141.021 714.858 684.813 437.86 246.953 69.6261 79.981 23.5346 365.938 185.408 37.4911 355.732 243.218 100.722 94.0563 71.8125 60.3954 34.9868 19.4555 26.8771 29.2365 25.5427 25.4085 47.3187 38.7809 15.4385 11.4172 177.327 13.9384 9.03038 154.302 86.733 71.1695 56.6064 114.144 25.7454 88.3987 69.6332 60.2054 46.8093 25.504 16.8527 63.9978
internal_count=191565 54961 45710 136604 9251 3753 40553 1103 87224 11270 5498 3741 2406 2067 5157 1143 29283 12257 8264 7951 4594 38958 37290 24539 12751 3537 3598 1089 17026 7699 924 16564 11162 4644 4341 3311 2788 1622 897 952 691 836 1166 1335 1079 428 523 9214 642 419 6394 3588 2941 1757 3642 650 2992 2304 1928 1504 779 499 3235
is_linear=0
shrinkage=0.05


Tree=9
num_leaves=64
num_cat=0
split_feature=75 75 75 77 41 81 29 29 70 29 75 90 34 35 26 45 80 75 111 80 8 44 75 70 13 29 47 40 77 71 17 40 81 45 76 40 108 75 28 61 91 25 62 35 45 29 45 44 8 29 9 76 31 13 45 96 84 44 46 5 81 100 40
split_gain=403.867 69.4534 61.3253 46.7177 46.0874 31.7373 24.4826 21.9709 23.9555 20.3168 18.9912 24.0976 18.5288 26.3932 17.5256 21.9698 16.9682 15.7483 15.6411 22.9985 25.3465 14.6301 17.8884 14.6087 14.2601 13.9748 25.4323 17.6153 13.3729 13.3622 12.9241 12.4687 20.2224 12.3063 12.4205 12.2256 17.2374 12.0008 13.4429 14.8885 11.966 11.9228 11.8877 17.5566 19.6034 15.5229 12.7302 11.8245 11.7167 11.6464 11.6023 14.7903 11.2504 11.4442 13.1798 12.6111 12.9148 10.7174 11.7383 10.6222 10.2746 12.5157 13.4205
threshold=0.08504000306129457 0.22546499967575076 0.045460000634193427 1.0000000180025095e-35 -1.0000000180025095e-35 -0.12500000372529027 17.613636016845707 4.6022727489471444 3.3876500129699711 4.829545497894288 0.14017374813556674 0.0097443000413477438 -117.7222213745117 -0.11290322616696356 2.5000000000000004 12.929049491882326 -32.928571701049798 0.016961250454187397 0.44010779261589056 -122.2142868041992 270.50000000000006 1.6370987296104433 0.054388748481869705 6.3542499542236337 3140.5000000000005 16.477272510528568 6.9765031337738046 4.6813378334045419 0.042682925239205367 24.150000572204593 5.5000000000000009 5.1831343173980722 -2.5096154212951656 6.8058958053588876 -0.36111111938953394 2.9554069042205815 0.25024639070034033 0.065108750015497222 -5311.0461425781241 81.149250030517592 0.047879099845886237 11.500000000000002 2.8499999642372136 -7.1559138298034659 50.398752212524421 6.704545497894288 58.511281967163093 35.999734878540046 165.00000000000003 3.4659091234207158 116.50000000000001 -0.63888889551162709 -0.40196079015731806 672.50000000000011 8.8212108612060565 0.00087470002472400676 0.056757450103759773 0.84485498070716869 28.471755027771 437.50000000000006 -28.624999999999996 0.0081834997981786745 20.28261756896973
decision_type=10 10 10 10 10 10 8 8 10 8 10 10 10 10 2 10 10 8 10 10 2 10 10 10 2 10 8 10 10 8 10 10 10 10 10 10 10 10 10 8 10 2 10 10 10 10 10 10 2 8 2 10 10 2 10 10 10 10 10 2 10 10 10
left_child=2 4 16 25 6 7 10 8 18 21 11 52 42 47 15 -9 17 -1 41 -20 -21 33 -23 35 -13 27 -27 -3 -11 -29 -17 -6 -33 -4 48 -10 -37 38 -24 59 -30 -5 45 46 -45 -12 -44 -14 -35 -26 -8 -52 -2 55 -55 -54 -57 -48 -59 -40 -42 -62 -63
right_child=1 3 9 5 31 -7 50 14 23 28 12 24 13 -15 -16 30 -18 -19 19 20 -22 22 37 -25 49 26 -28 29 40 -31 -32 32 -34 34 -36 36 -38 -39 39 -41 60 -43 43 44 -46 -47 57 -49 -50 -51 51 -53 53 54 -56 56 -58 58 -60 -61 61 62 -64
leaf_value=-0.029607974548682605 0.091771856054073023 0.00067798787145981838 0.054300902765051409 -0.0084289575357161719 -0.030167564311336149 0.11965185033259546 -0.019415143426313085 0.088285477263186141 0.048637651014353751 -0.017287893359141129 0.019512774212710891 -0.00055869735377649273 0.0038523078479119062 0.1043196917975938 0.056445907380670728 0.0095339762646836478 0.065144983487456412 -0.016526286288721354 0.137898831898562 0.080221481113662202 -0.0099445688695850576 -0.0090543074153515042 0.11434344246447251 0.030526209229492025 0.10392345454562789 0.12629382396936531 0.0012821864508878881 0.045313443808262757 -0.0094514676772423575 -0.018053083432685364 0.076792867424317901 0.10226493644965612 -0.010162456272062907 0.075275022041911249 -0.0051609906207819266 0.080082621585069097 0.17870901127658168 0.015779091491602618 -0.006828278152692057 0.099797419177509172 0.069170919444589196 0.060433046945827386 -0.0022112342302296243 0.15754921799656724 0.051705742585436282 0.084916803263478544 0.11221983499706659 0.072190797897217926 0.0048483125592390488 0.00021418433400303668 0.072990705543143977 0.0038664770299094383 0.0038035154546014662 0.08434858648497795 0.017341245189004949 0.1337562896520734 0.044037587649244814 -0.012848718870669885 0.070100143549019639 0.060844993103604396 -0.020879221673161533 0.0095020500260982067 0.071331176591786102
leaf_weight=291.66001356113702 5.6488207317888728 105.72594998031855 8.9719786401838046 18.528476808220152 68.787276910617948 14.881381886079906 51.051789872348309 10.4051058255136 7.9328879415988949 256.29240611195564 50.237888058647513 180.9807995967567 79.688914071768522 7.0288454201072446 58.266818454489112 93.929873421788216 5.0327626131474963 1123.5399602903053 7.6138881221413603 17.528366439044479 13.109935438260434 37.18430819362402 6.5632658395916215 8.0726963616907579 5.1304688397794935 6.8689395282417509 8.4665481001138687 48.333724580705166 159.22591158375144 9.4399753119796497 6.7793013397604218 3.8983886335045126 21.060478048399091 8.5029974170029181 280.57935348153114 12.571944983676078 10.034433126449583 50.628253135830164 15.99184113182128 6.3001436032354823 6.4967151787132016 8.3612501602619869 11.219724660739301 8.3255261443555373 11.113866802304981 10.371449274942277 6.6465143617242601 5.89038704894483 15.999749569222329 4.8550441060215244 7.4295029286295167 96.239839434623718 8.9842540845274943 6.744708724319934 181.05696749873459 5.7568373363465097 14.214304856956003 6.8304435256868627 9.28332471847534 7.9458840880542985 25.599915059283376 52.756377682089806 9.6369098145514709
leaf_count=18919 234 4449 429 559 3749 282 2419 312 224 14608 1686 8592 3347 255 1618 2926 249 68426 118 544 348 1978 322 227 221 234 302 1564 8630 341 216 195 1098 401 14981 287 262 2497 816 323 334 261 445 283 400 395 258 244 766 212 247 4428 348 263 7463 218 578 285 335 395 1349 2827 515
internal_value=6.88414e-05 0.022049 -0.0123252 0.0375879 0.0136625 0.0500326 0.0176708 0.0458169 0.0640099 -0.00247784 0.0221045 0.0158528 0.0344744 0.0175821 0.0343625 0.0223822 -0.0188966 -0.0192413 0.0443747 0.0645544 0.0425451 0.00540536 0.019827 0.0951798 0.00279571 0.0173787 0.0615798 0.0128837 -0.00925563 0.0348286 0.0147721 -0.0192996 0.0106609 -0.000361787 -0.00214148 0.11076 0.129576 0.0320739 0.0534807 0.0370327 -0.00110579 0.0143825 0.0479213 0.0651773 0.102527 0.0319013 0.04149 0.0093355 0.0312813 0.0581087 -0.000124209 0.00947031 0.0270014 0.0248997 0.0201818 0.0538049 0.0750446 0.062219 0.0362428 0.0171743 0.0129093 0.00802481 0.0200264
internal_weight=3704.24 1335.33 2368.91 466.851 868.476 288.016 774.73 273.135 103.754 948.676 620.009 413.372 206.637 92.6081 169.381 111.114 1420.23 1415.2 65.1419 38.2522 30.6383 438.668 124.614 38.612 190.966 178.835 15.3355 163.5 510.008 57.7737 100.709 93.7461 24.9589 314.054 305.082 30.5393 22.6064 87.4294 36.8011 30.2379 253.716 26.8897 114.029 53.4194 19.4394 60.6093 33.98 85.5793 24.5027 9.98551 154.721 103.669 222.406 216.757 187.802 28.9554 19.9711 22.7603 16.1138 23.9377 94.4899 87.9932 62.3933
internal_count=192037 53272 138765 15074 38198 8184 33156 7902 2830 51171 26062 18129 7933 3846 5072 3454 87594 87345 1830 1010 892 22908 6331 1000 9025 6890 536 6354 28263 1905 3142 5042 1293 16577 16148 773 549 4353 1856 1534 13655 820 4087 2006 683 2081 1323 3591 1167 433 7094 4675 9104 8870 7726 1144 796 878 620 1211 5025 4691 3342
is_linear=0
shrinkage=0.05


Tree=10
num_leaves=64
num_cat=0
split_feature=75 75 75 76 48 75 29 40 40 5 50 29 10 32 54 86 100 40 84 75 98 75 70 104 29 13 50 28 13 11 52 29 4 56 47 56 35 11 47 91 81 75 29 44 56 47 51 54 100 31 35 9 1 9 48 56 56 34 91 97 86 90 82
split_gain=356.857 68.1305 53.592 42.4314 42.3278 24.487 23.22 20.9763 18.5647 17.713 17.2848 17.0131 16.5595 15.6236 16.8495 25.0042 22.8024 16.0934 15.2645 28.7882 15.2703 15.0263 14.9831 14.662 14.2481 19.4036 13.6887 20.4426 13.6535 18.3525 12.8215 12.7841 13.9298 12.717 12.541 25.9502 12.2312 13.2558 12.0706 12.0537 12.4919 11.8501 11.8449 14.0993 19.5605 24.2027 11.6191 17.8323 11.2632 11.1915 17.9312 10.7035 10.6369 10.3799 13.4103 17.5423 10.3424 10.9914 13.8008 10.247 25.3122 10.1885 10.3183
threshold=0.10246874764561655 0.045460000634193427 0.35597999393939977 -0.19444444775581357 1.8031746149063113 0.70588624477386486 21.022727966308597 2.6017355918884282 20.723942756652836 91.500000000000014 31.591968536376957 10.170454502105715 1304.5000000000002 -0.032467531971633427 0.76804122328758251 0.033872500061988838 0.0084870499558746832 17.935068130493168 0.12540684640407565 0.17859500646591189 0.035724150016903884 0.02483874931931496 1.665650010108948 0.015934499911963943 5.7386362552642831 3139.5000000000005 21.993379592895511 -2041.462951660156 3140.5000000000005 4506.5000000000009 -0.10240963846445082 5.3977272510528573 595.50000000000011 545.79165649414074 41.250570297241218 2819.8750000000005 -13.317203998565672 4186.5000000000009 38.476484298706062 0.11515634879469873 -1.509615361690521 0.13478250056505206 3.352272748947144 35.998819351196296 2125.1250000000005 38.24090766906739 4.4587628841400155 0.86082473397254955 0.012491049710661175 -0.10784313827753066 -38.983869552612298 23.500000000000004 1.5000000000000002 119.50000000000001 2.0526316165924077 49.791666030883796 232.62500000000003 -96.299999237060533 0.08182889968156816 0.058915499597787864 0.14857999980449679 0.026568299159407619 0.3576368540525437
decision_type=10 10 10 10 10 10 8 10 10 2 10 8 2 10 10 10 10 10 10 10 10 8 10 10 8 2 10 10 2 2 10 10 2 8 10 8 10 2 10 10 8 10 10 10 10 10 10 10 8 10 8 2 10 2 10 10 10 10 10 10 10 10 10
left_child=1 21 3 6 5 -4 13 -5 9 12 24 52 -7 14 33 16 -16 48 20 -20 42 23 -13 -1 25 61 30 -28 29 31 -27 32 51 -2 35 -12 -34 41 -26 -30 -41 -38 -15 44 45 -44 47 -22 -18 -36 -51 -9 -6 -53 -55 -56 -40 -58 -59 -54 -61 62 -3
right_child=2 10 4 7 11 8 -8 28 -10 -11 34 22 -14 18 15 -17 17 -19 19 -21 46 -23 -24 -25 38 26 27 -29 39 -31 -32 -33 36 -35 49 -37 37 -39 56 40 -42 -43 43 -45 -46 -47 -48 -49 -50 50 -52 53 59 54 55 -57 57 58 -60 60 -62 -63 -64
leaf_value=0.053411559369825293 0.03074543221149725 0.00083500347330732689 -0.0024644633427417452 -0.0050740804035736484 0.042997973128454492 0.10463262729768968 0.00055232072164442545 0.063434512577613678 0.10138546752883262 0.015641599406830398 0.14982597496818192 0.076622528553591168 0.015537028326565925 0.015530102798287466 0.0051952906285171576 -0.020078353024177684 0.018985925871353504 0.12098723787379664 0.026147807724418409 0.13148582963259803 -0.01763621475145492 -0.012892673912172602 0.024362309184683767 -0.024222856066876935 -0.01757361925450996 -0.03246870577468508 0.027928919850916886 0.1342222285527557 -6.0549139734700752e-05 -0.020985296576164821 0.051669849377895462 0.0074911351944149957 -0.00079050418801043234 0.12258291214004276 -0.024845057412562675 -0.011914584464963211 0.032298003667912252 0.034329067742443431 -0.035028591176951472 0.13876755441839039 0.029461590037865217 0.12955087883028693 0.10134753908102297 0.0014981433498128705 0.11418535116480602 0.0060660072747479735 -0.027193491646468438 0.071619906210020859 0.091974399056308512 0.095544719817976798 -0.0037264222919593444 -0.0066011931997250516 0.13609347321166976 -0.020827054663816222 0.11080631276155287 0.023654453692640454 -0.0026950338673623151 0.0076768654364670862 0.085386122208322979 0.01321000273674291 0.093313380372301497 -0.022478737590378235 0.030070085410699405
leaf_weight=5.2386961607262483 9.9415270052850264 514.73870099708438 59.333369733765721 181.54464293085039 23.65209393389523 12.060563253238797 47.938210599124432 10.333908397704361 9.6479392144829017 59.965422324836254 4.7301740217953894 19.111893024295568 9.3535158429294825 16.107032021507621 35.829707769677043 30.762733234092593 19.510120078921322 7.9799616560339919 12.523661093786361 13.976400088518856 9.2744317110627907 804.99770605750382 48.414330730214715 582.68736977502704 207.3055063765496 9.8074266426265257 14.826702473685147 6.0204394888132802 5.8415651489049223 33.751454349607229 6.7959728036075822 155.79902160540223 8.9273568857461196 6.1796702183783045 10.487034376710652 4.130567718297244 5.6011580359190694 19.440833469852805 21.055144965648651 5.0524537228047848 5.8216326721012575 9.7838054001331312 10.432220472022893 7.45295501127839 18.853708118200302 16.311854254454374 11.251858772709964 11.9627293869853 6.66391772404313 6.8525426220148802 10.642074005678301 41.561679692938924 9.2395661566406471 10.569013955071567 6.4080615229904643 30.385191563516855 263.13177483901381 20.333330653607849 7.0750535670667878 13.294228071346877 41.761700637638569 42.924297068268061 31.065988637506962
leaf_count=310 339 26367 2390 8878 647 314 1768 411 167 1678 239 465 262 517 1145 1088 642 262 431 361 290 48620 1230 38562 11514 483 706 289 226 1479 331 7034 376 203 527 201 248 790 1171 190 233 383 319 228 526 522 356 363 221 349 534 1782 127 481 262 1300 14238 1111 389 249 998 2342 1582
internal_value=0.000407774 -0.00987093 0.0238252 0.0171534 0.0416815 0.0225414 0.0323987 0.00869459 0.0386903 0.030117 -0.00103911 0.0599299 0.0681457 0.038602 0.0250353 0.0170458 0.0334174 0.0620342 0.0506849 0.0844652 0.0411411 -0.0173588 0.0400558 -0.0234416 -0.00213604 0.00293974 0.0373528 0.063364 0.0158452 0.0135201 0.00294907 0.0174745 0.0282231 0.0710527 0.0322096 0.0808662 0.0514851 0.0645337 -0.00825507 0.0587303 0.0876581 0.0982764 0.0542917 0.0655552 0.0757685 0.0455463 0.0123628 0.0336008 0.0402696 0.0145433 0.0382212 0.0175579 0.0745674 0.0115804 0.0273418 0.0413635 -0.00201901 0.000485101 0.0300359 0.0853444 0.0745517 0.000691009 0.00255095
internal_weight=3704.46 2574.85 1129.61 823.774 305.835 150.361 292.953 530.822 91.0274 81.3795 1181.92 155.474 21.4141 245.014 116.868 100.746 69.9837 34.154 128.147 26.5001 101.647 1392.92 67.5262 587.926 1145.08 626.18 37.4505 20.8471 349.277 332.561 16.6034 298.81 143.011 16.1212 36.8424 8.86074 43.7532 34.8258 518.901 16.7157 10.8741 15.385 69.1578 53.0507 45.5978 26.7441 32.489 21.2372 26.174 27.9817 17.4946 99.2579 87.9476 88.9239 47.3623 36.7933 311.595 290.54 27.4084 64.2955 55.0559 588.729 545.805
internal_count=192046 149865 42181 33654 8527 4811 9581 24073 2421 2254 62373 3716 576 7813 3900 3358 2270 1125 3913 792 3121 87492 1695 38872 60523 32100 1809 995 15195 14546 814 13067 6033 542 1850 440 1797 1421 28423 649 423 631 2112 1595 1367 841 1009 653 863 1410 883 4236 2021 3825 2043 1562 16909 15738 1500 1374 1247 30291 27949
is_linear=0
shrinkage=0.05


Tree=11
num_leaves=64
num_cat=0
split_feature=75 75 75 76 1 10 4 41 44 50 5 56 98 33 75 45 98 11 109 29 29 50 44 32 28 44 70 111 35 13 61 95 48 88 84 53 47 91 9 47 46 75 46 109 96 36 51 77 43 98 29 6 88 31 89 45 39 44 42 31 51 45 47
split_gain=334.802 56.3751 44.7552 43.9131 33.1278 23.1506 23.1739 22.5591 19.7535 16.0325 15.3771 15.3584 15.2723 17.2839 14.2562 19.8382 15.0139 15.3772 14.2434 14.2399 14.1351 13.9288 13.7611 14.4996 21.0653 14.1441 13.7261 13.5829 13.1057 12.8115 12.6713 12.6569 16.1062 12.5518 12.6571 18.644 17.1112 14.7136 12.5465 12.2527 11.8239 11.7216 16.2253 29.7331 11.7194 11.6801 13.7074 11.3514 11.2546 14.8663 12.6087 12.4582 12.6893 19.6053 21.3255 11.0792 10.8634 11.2045 21.2488 13.0767 10.1601 10.0261 13.3922
threshold=0.088032498955726637 0.033335000276565559 0.44655874371528631 -0.30555556714534754 1.5000000000000002 1266.5000000000002 185.50000000000003 -1.0000000180025095e-35 2.3942189216613774 18.872727394104007 94.500000000000014 126.29166793823244 0.040664400905370719 0.71875000000000011 0.16079249978065493 30.817458152771 0.020196749828755859 3130.5000000000005 0.022452999837696556 4.6022727489471444 3.352272748947144 24.092393875122074 8.7853517532348651 -0.071428570896387086 -532.58334350585926 35.998941421508796 3.4821500778198247 0.097937401384115233 -1.1881720423698423 3066.0000000000005 42.442949295043952 0.045712500810623176 7.2378187179565439 0.036302400752902038 0.088764149695634856 8.2314815521240252 42.635646820068366 0.076503150165081038 114.50000000000001 4.692547321319581 27.850831985473636 0.14017374813556674 28.471755027771 0.06139699928462506 0.0018492499948479237 -689.83569335937489 8.0360822677612322 0.31097561120986944 58.772634506225593 0.028043399564921859 8.0113637447357195 57.500000000000007 0.0098224002867937105 -0.14705882966518399 0.040233599022030837 46.767803192138679 1.7352941036224367 35.998819351196296 -0.41549295186996454 -0.068627452477812753 4.3659791946411142 72.398033142089858 45.461023330688484
decision_type=10 10 10 10 10 2 2 10 10 10 2 10 10 10 10 10 10 2 10 8 10 10 10 10 10 10 8 10 10 2 10 10 10 10 10 10 10 10 2 10 10 10 10 10 8 10 8 10 10 10 8 2 10 10 10 10 10 10 10 10 10 10 10
left_child=1 -1 3 14 55 6 8 11 28 10 -8 19 13 18 48 20 17 -17 -13 40 -16 -3 -21 25 -25 -24 -7 47 -6 -9 -10 -22 -33 -15 36 44 -35 -38 -12 -40 -5 -14 -43 -44 -36 -29 61 56 51 50 -50 -2 -53 54 -54 -4 57 -23 59 -59 -51 62 -47
right_child=2 21 4 7 5 26 9 29 30 -11 38 12 41 33 15 16 -18 -19 -20 22 31 27 23 24 -26 -27 -28 45 -30 -31 -32 32 -34 34 35 -37 37 -39 39 -41 -42 42 43 -45 -46 46 -48 -49 49 60 -52 52 53 -55 -56 -57 -58 58 -60 -61 -62 -63 -64
leaf_value=-0.021288045537742443 -0.041675399725728091 -0.011703573808631627 -0.016371964168120517 0.036985209958594584 -0.029199552117336932 0.039030212663288197 0.092185014876633914 -0.011973295989447075 0.10896276898808113 0.10140509918484231 -0.011836367744443139 0.096250564917463255 -0.0073970397185108066 -0.00047005085409821404 0.026108684408691116 0.020569723483862472 0.013952645884064691 0.098072802750415813 0.022899536947222118 0.0037009201614226703 0.040186729848334213 -0.0026007935924493991 0.081543602364205547 0.14611593058730593 0.021704931928849681 -0.0032563702576505933 -0.026577896881606583 -0.031133168593825557 0.038878317486496859 0.034831201796005164 0.023313581903724036 0.055765290748364976 0.15602900576220113 0.011471881416398841 0.023392872076261097 -0.008034579194466495 0.045363716196919333 0.14988883653498938 0.0029417504267858384 0.078949127283544529 0.1087891497602903 0.0061397273083364078 0.00061476774528516952 0.13475200960808661 0.10930225825880911 0.012669677527441659 0.075993917905307615 0.065620684647815022 0.038721099235843312 0.12337432045853894 -0.014258805917282142 0.075069125770580586 -0.0014043282964234787 -0.004068517357199466 0.12965375483762381 0.024074814772880034 -0.0094482875676423494 0.1199828581311882 0.004104146544166974 0.0082716676367996598 0.038805862474480673 -0.0053978044564558679 0.077224273669236357
leaf_weight=914.57626213040203 9.4458803143352252 547.21720879338682 22.748826527968049 55.529739961028099 14.224094962701203 18.619444780051712 17.959265036508441 143.52217950299382 8.895413279533388 36.894188847392797 10.108145954087375 11.531040912494065 157.93010494858027 80.673141857609153 12.396090248599647 13.348772289231421 51.031921142712235 12.618335345759986 15.83318457752466 80.016177522018552 9.7659486792981642 98.349722219631076 5.4077558033168343 5.5879111215472221 7.9062960576266033 20.837805911898613 12.530886325985191 16.635758776217699 12.202743986621497 15.295852256938813 8.8907908555120212 8.726999109610917 10.504678094759582 14.155741252005102 13.089825283735992 37.230710219591856 10.397100515663622 5.2189371753484002 8.0612728260457533 14.953258199617265 5.8733848463743916 127.66744002327323 9.6067050173878652 6.2604943308979264 5.2352487947791806 141.95556425862014 6.8827458955347529 4.5782370790839186 37.719779871404171 6.4350815135985604 15.204550124704836 7.2999822534620753 6.023929934948681 52.785065768286586 5.3572189267724752 59.190114894881845 502.72754991427064 7.19566117413342 27.186709372326732 4.0811241939663869 9.5307134855538589 80.193879015743732 7.5848009884357444
leaf_count=60684 374 30932 689 2134 417 457 411 7259 210 611 270 426 7425 3354 303 292 1287 291 611 3535 204 5552 229 226 314 847 321 845 372 731 210 216 231 594 581 1637 443 214 231 359 224 5135 382 249 224 7525 366 220 1245 215 607 251 229 1936 201 1736 27954 396 1545 223 342 4305 388
internal_value=-0.000222811 -0.0115804 0.0196441 0.0153228 0.0389358 0.0518975 0.060986 0.00964613 0.0304688 0.0758079 0.0557282 0.0136267 0.00903425 0.0199634 0.0328909 0.0458706 0.0302148 0.0604714 0.0561127 0.0260523 0.0735933 -0.00542401 0.0157934 0.0394531 0.0797497 0.0165678 0.0126322 -0.00158596 0.00250717 -0.00727579 0.0696693 0.0923453 0.115536 0.0137041 0.0269553 0.0124472 0.0527441 0.0872148 0.0338388 0.0535572 0.0454867 0.00198125 0.0122799 0.0583907 0.0523221 0.00820393 0.011089 -0.00544187 0.0223966 0.0371178 0.0235184 0.0095625 0.0168164 0.00913891 0.0657753 0.0127835 -0.00605223 0.00640477 0.0289141 0.0835209 0.0781544 0.00882352 0.0164352
internal_weight=3707.45 2359.17 1348.28 1103 245.278 163.34 132.189 834.807 44.213 87.9761 51.0819 675.989 494.83 193.365 268.195 118.393 76.999 25.9671 27.3642 181.159 41.3937 1444.59 119.756 39.7398 13.4942 26.2456 31.1503 897.372 26.4268 158.818 17.7862 28.9976 19.2317 166.001 85.3276 55.5558 29.7718 15.616 33.1227 23.0145 61.4031 301.465 143.535 15.8672 18.3251 253.253 236.617 644.119 149.802 68.8901 52.9243 80.9121 71.4662 64.1662 11.3811 81.9389 639.541 136.813 38.4635 11.2768 15.9658 229.734 149.54
internal_count=192227 140935 51292 44998 6294 3869 3091 36774 1209 1882 1271 28784 21275 8084 8224 2824 1870 583 1037 7509 954 80251 5151 1616 540 1076 778 49319 789 7990 420 651 447 7047 3693 2442 1251 657 860 590 2358 13191 5766 631 805 13429 12584 35890 5400 2409 1852 2991 2617 2366 430 2425 35670 7716 2164 619 557 12218 7913
is_linear=0
shrinkage=0.05


Tree=12
num_leaves=64
num_cat=0
split_feature=83 77 83 83 77 78 29 50 83 108 109 50 47 25 31 13 14 70 5 61 34 36 11 83 28 50 37 40 29 33 50 36 39 29 70 35 29 77 5 51 53 109 28 36 41 52 83 41 90 77 83 91 83 14 91 9 9 50 43 43 47 84 5
split_gain=233.026 47.2268 48.441 45.2866 33.7116 29.7402 28.6935 28.0436 21.1259 19.8527 17.4701 16.9305 16.878 16.0962 15.07 14.5663 14.4863 24.7078 14.2256 14.0613 14.0386 13.9246 13.4842 13.4691 13.342 13.8422 13.2998 16.1986 13.675 13.0532 12.5081 12.3872 16.4028 16.4098 13.4369 12.3935 12.037 15.9489 19.1684 11.7344 15.4188 11.6052 16.2461 15.8475 11.4562 11.4144 11.2234 15.5997 11.1715 11.1303 10.5737 12.2694 11.1028 13.4134 11.9725 10.8334 12.7013 10.3965 10.3071 17.1068 11.9778 10.1341 10.0683
threshold=0.31679549813270574 0.042682925239205367 2.7972744703292851 0.8643101453781129 0.030487803742289547 -2.9285714626312251 4.6022727489471444 24.092393875122074 0.22181914746761325 0.065718401223421111 0.0072790000122040519 14.471014499664308 27.957157135009769 14.500000000000002 -0.36274510622024531 102.50000000000001 856.50000000000011 6.4417500495910653 4.5000000000000009 80.196601867675795 -46.899999618530266 -414.57858276367182 2811.5000000000005 0.10017395019531251 -345.52778625488276 11.910832405090334 0.26623377203941351 2.5902869701385502 6.704545497894288 1.0937500000000002 25.790993690490726 -43.721429824829094 0.32352942228317266 4.204545497894288 1.1931500434875491 -0.9193548560142516 5.2272727489471444 0.31097561120986944 258.00000000000006 4.7577319145202646 17.750000000000004 0.00530699989758432 -5904.9443359374991 -427.19285583496088 -0.045454544946551316 -4.210843324661254 1.2033289074897768 -0.015151515137404202 0.0080991000868380087 1.0000000180025095e-35 0.40098950266838079 0.096851699054241194 0.44063454866409307 2370.0000000000005 0.066031198948621764 20.500000000000004 56.500000000000007 29.288206100463871 10.473739624023439 3.5504338741302495 24.329871177673343 0.036926349624991424 131.50000000000003
decision_type=10 10 10 10 8 10 8 10 10 10 10 10 10 2 10 2 2 10 2 10 10 10 2 10 10 8 10 10 8 8 10 10 10 8 10 10 8 10 2 10 10 10 8 10 10 10 10 10 8 10 10 8 10 2 10 2 2 10 10 10 10 10 2
left_child=4 2 6 14 5 45 11 49 9 15 19 20 13 22 21 61 62 46 -16 41 -2 -3 -5 -11 29 -26 27 -8 -29 -22 -28 32 -14 35 -35 57 50 39 -39 -38 48 -10 -43 -44 -30 -1 -18 -48 -41 -4 51 -20 53 54 -52 -54 -57 -34 59 -51 -60 -6 -13
right_child=1 3 7 12 8 -7 26 -9 10 23 -12 16 31 -15 18 -17 17 -19 36 -21 24 -23 -24 -25 25 -27 30 28 44 -31 -32 -33 33 34 -36 -37 37 38 -40 40 -42 42 43 -45 -46 -47 47 -49 -50 58 52 -53 55 -55 -56 56 -58 -59 60 -61 -62 -63 -64
leaf_value=-0.025580784472563831 -0.011553350993617654 0.015703597481872687 0.012188578461844164 0.13156801792074688 -0.0033442669772279637 0.083234752204610796 -0.0138620677034517 0.076805201705133608 0.0038688394875191698 0.090382135747676007 0.0024364114720263953 -0.041036593584392878 0.09826402683987441 0.019042093717807799 -0.014130520770316461 -0.013045600455197481 0.021706818262449197 0.12265295455638162 0.0053088906968632669 -0.032755781885271631 0.11679838941093111 0.11052588794340852 0.059047238847564631 0.0096084453556052503 -0.00174915771645647 0.081048289534885118 -0.013999175080309796 -0.021411744428391947 0.0027780221809043451 0.018501558770680559 0.0080440028936716208 -0.014985067734784311 0.010071928557263053 0.073077913585735704 0.006669303986639669 0.10603434863912305 0.00080421002514315045 0.11079584366653322 0.010564782739544525 0.1265814169324907 0.0078440515859121186 0.15087886567458675 -0.019717094106607488 0.089714839272277733 0.056055874577716894 -0.014149929857190827 0.11989508066676753 0.011064482047756001 0.019320240123898321 0.019483374320485282 0.06612187428106607 0.071261968507160642 0.065769766593758314 0.11404553866816768 -0.0087856771897707915 -0.01908423548353675 0.027669714372886896 0.074619090791576345 4.6440376428919911e-05 0.10665798235488565 0.063340723398015872 0.079106447135336544 0.01572814372575267
leaf_weight=328.57042087800801 78.622276984155178 7.9519718009978533 105.21216238476336 13.347728442400696 7.4396385578438622 6.346199629828333 37.983589322306216 26.621025327593088 7.1881155520677629 4.6658488884568206 305.68760276772082 8.9905292186886054 11.20242424122989 10.083297118544577 35.387566905468702 634.77661178261042 71.774063709191978 7.0620274636894456 79.39578403159976 4.4851304832845917 5.2582745915278775 7.3385880626738054 17.251227667555213 62.536417438648641 45.498007310554385 4.6724984366446725 314.713752200827 10.756941448897122 14.769416912458832 8.3463389817625266 80.125308401882648 9.6215552873909456 14.17736963555217 8.1529827211052162 46.965154187753797 10.287744291126726 177.54142462275922 7.2931027282029417 11.791105158627031 5.1919005662202844 20.179470770061016 4.6972274929285049 5.4070741645991873 6.4575171237811393 31.599862748757008 668.49696828611195 6.5812939014285803 6.2159546706825477 4.6879282444715509 11.459613952785732 12.621812656521803 6.7642393019050351 15.173350011929868 7.7680640872567883 8.420366292819379 15.921316120773552 113.47768033482134 10.682113649323581 22.632586037740111 11.204946676269172 10.161543332040308 6.3147767977789044 34.891897023655474
leaf_count=22153 3825 309 3566 289 464 144 1917 538 319 250 15648 424 232 217 1555 38132 3453 337 3381 211 251 272 364 3319 2097 201 16194 481 694 397 3980 215 349 203 1162 192 7669 203 339 226 902 218 263 291 1363 42486 213 241 208 260 492 293 491 294 339 549 3694 190 522 240 212 371 1663
internal_value=0.000562754 0.014587 0.00737829 0.0245598 -0.0106677 -0.0172166 0.0018029 0.0301054 -0.00439682 -0.00923787 0.00597612 0.0146076 0.0486122 0.076206 0.0176829 -0.0119219 0.02719 0.0384022 0.0161678 0.0429047 0.00252716 0.0652039 0.0938445 0.0164595 0.0197961 0.00739516 -0.00547525 0.0112277 0.0278615 0.0618899 -0.0095169 0.0379174 0.0430311 0.0351748 0.0176195 0.061456 0.0183974 0.00991443 0.0524779 0.00576886 0.034122 0.0579392 0.0798501 0.0421872 0.0395029 -0.0179387 0.0300158 0.0716665 0.0821402 0.0219406 0.0257399 0.0112449 0.0328373 0.0609822 0.0371077 0.0268482 0.0218148 0.0396208 0.039898 0.0652668 0.0209527 0.0373056 0.00344312
internal_weight=3696.9 1643.83 955.154 688.677 2053.07 1003.41 767.862 187.292 1049.66 715.733 333.923 277.913 151.772 40.6823 536.906 648.531 135.516 91.6333 521.615 28.2351 142.397 15.2906 30.599 67.2023 63.7751 50.1705 489.949 95.1098 57.1262 13.6046 394.839 111.089 101.468 90.2654 55.1181 35.1472 486.228 226.685 19.0842 207.601 30.0593 23.7499 16.5618 11.8646 46.3693 997.067 84.5713 12.7972 9.87983 160.671 259.543 86.16 173.383 28.8102 21.0422 144.572 129.399 24.8595 55.4587 22.6646 32.7941 13.7544 43.8824
internal_count=191967 67698 43069 24629 124269 64783 37731 5338 59486 42536 16950 13102 3413 870 21216 38967 6331 4244 20635 1302 6771 581 653 3569 2946 2298 24629 4455 2538 648 20174 2543 2328 2096 1365 731 19080 9547 542 9005 1336 1091 772 554 2057 64639 3907 454 434 4800 9533 3674 5859 1125 831 4734 4243 539 1234 500 734 835 2087
is_linear=0
shrinkage=0.05


Tree=13
num_leaves=64
num_cat=0
split_feature=75 75 77 75 81 86 75 17 40 45 33 75 52 45 48 41 56 98 10 111 33 5 82 50 9 35 29 29 45 5 6 62 80 50 10 40 81 33 98 6 36 9 108 9 78 108 84 29 44 51 44 39 90 107 50 52 52 44 81 8 82 8 48
split_gain=267.655 66.9926 39.9445 34.8808 24.2939 22.7785 16.3342 16.1598 14.2657 18.4606 14.2278 14.1694 21.9578 17.2703 18.7132 13.8425 16.5373 12.7246 12.6691 12.4772 12.7777 12.353 12.159 13.3641 17.8428 15.5861 14.7975 12.1417 12.6088 11.9737 11.9285 13.4179 11.9274 11.5715 11.5264 11.3023 14.0942 11.2537 13.7886 14.0755 14.4859 12.3879 11.8012 11.1341 12.2488 21.2556 11.0728 10.8126 10.6846 10.529 10.4199 10.0013 9.95332 12.3622 10.6949 9.92195 16.6395 9.88886 12.0587 9.76905 15.7932 14.1175 14.0012
threshold=0.074727501720190062 0.22546499967575076 1.0000000180025095e-35 0.02483874931931496 -0.12500000372529027 0.046848600730299957 0.16079249978065493 5.5000000000000009 1.915286183357239 45.12324523925782 4.0937500000000009 0.047833750024437911 -9.2108435630798322 6.8058958053588876 5.0508711338043222 -1.0000000180025095e-35 41.708333969116218 0.011742149945348503 737.50000000000011 0.18360045552253726 8.5312500000000018 17.500000000000004 0.32816401124000555 24.333912849426273 15.000000000000002 -0.75806450843811024 14.204545497894289 4.0340908765792856 51.335758209228523 142.50000000000003 85.000000000000014 14.250000000000002 -56.785715103149407 31.591968536376957 1404.5000000000002 5.1831343173980722 -2.586538434028625 37.531250000000007 0.0074980501085519799 186.50000000000003 -64.007141113281236 165.50000000000003 0.086166400462389006 45.500000000000007 -246.6428527832031 0.06388800218701364 0.033193150535225875 16.477272510528568 35.999711990356452 4.8814435005187997 0.22175157815217975 1.7352941036224367 0.0078449998982250708 0.072940003126859679 15.927927970886232 -0.343373492360115 -2.1506023406982417 6.7143373489379892 -0.27884615957736963 197.50000000000003 0.20658669620752337 102.00000000000001 7.2378187179565439
decision_type=10 10 10 8 10 10 10 10 10 10 10 10 10 10 10 10 10 10 2 10 10 2 10 10 2 10 10 8 10 2 2 10 10 10 2 10 8 10 10 2 10 2 10 2 10 10 10 10 8 10 10 10 10 8 10 10 10 10 10 2 10 2 10
left_child=3 5 8 32 7 6 30 22 47 10 29 -5 17 14 -14 16 27 -13 -9 20 -8 -15 -4 24 -24 51 55 28 -7 -10 31 -2 -1 37 43 -17 -37 38 -32 40 49 -41 -39 44 45 -23 -35 -3 -29 59 -38 -26 53 54 -43 56 -25 -11 -59 61 -61 -40 -62
right_child=1 2 4 11 -6 15 19 18 9 57 -12 12 13 21 -16 35 -18 -19 -20 -21 -22 34 23 26 25 -27 -28 48 -30 -31 33 -33 -34 46 -36 36 50 42 39 41 -42 52 -44 -45 -46 -47 -48 -49 -50 -51 -52 -53 -54 -55 -56 -57 -58 58 -60 60 62 -63 -64
leaf_value=-0.023540475606478622 -0.017711631777647736 -0.0092050490885235633 -0.0027752288787108309 -0.012583063118614155 0.094527820748251334 0.008116666195601167 0.02639153463086176 0.032606351978160135 0.067663915748524039 -0.0044476989492320115 0.1053277644980679 0.0034698517855849364 -0.02074664495394302 -0.02987944245754371 0.11280985606989985 -0.025701736714369761 0.0013959232080582617 0.091946007427340701 0.11791264979274881 0.025566120020143059 0.11748995942588142 0.01209558852682268 0.087951168043180303 0.060981850513327301 0.0095861103208675393 0.047376714837968181 0.0028829306760228702 0.0063285292887294469 0.10379733520826738 0.0034140673688465659 0.087203186194215535 0.032624914547327293 0.065266382341493956 0.1076122381319608 0.052081445751772197 0.082717832706357561 0.036646909579962354 -0.0039405387212960519 0.059302655650082386 -0.020407307105803248 -0.026433919751417387 0.080183223430998818 0.060703848066346502 -0.0069702740923765251 -0.011835046088777621 0.09482993343964613 0.022965667506543469 0.048644526769635328 0.071928318982208958 -0.022919028012481409 -0.031048873886256309 0.064629622117581761 -0.019674093294376294 0.091640872022687947 0.0099626879651452116 0.079292207305198467 -0.0072266017220216586 -0.0082402210091067941 0.069589828179532201 0.029010255260793372 0.015694155697951111 -0.0044797442730227397 0.10871148886217158
leaf_weight=548.84412628784776 55.604743849486113 79.596464950591326 21.276436563581228 856.46807768568397 18.769081516191363 5.7375410869717589 7.9324692524969604 9.0100400559604186 12.324711762368681 47.585483705624938 8.5453127138316614 7.2721996717154971 3.9850130286067706 46.587716616690159 5.4119603214785457 72.403648645617068 447.66381436493248 8.4505226369947177 9.8554924782365543 45.832723086699843 8.1473669409751874 42.591980557888746 10.766007730737327 30.702822027727958 111.17989985086024 48.415283447131515 13.380443017929791 42.517760371789336 8.3528328966349346 16.156940877437592 6.5748337507247916 16.304778207093477 2.8747179545462123 5.6054999884218004 8.2195265181362611 4.6107599716633558 8.1378941144794279 98.266704132780433 13.448132816702126 31.408523017540574 9.0399991050362569 5.0934506095945826 6.6006546467542639 519.64686934929341 31.004748563282192 8.606926625594495 11.116977779194711 7.9813882354646912 6.3202129006385794 6.0644253175705662 14.08916283212602 7.9802187811583272 14.833057479932902 5.3019004054367533 53.634036898612976 36.627750936895609 12.180760396644475 8.2387215439230221 10.871735028922556 27.020405568182468 5.7237226497381952 21.393795348703861 16.791519256308675
leaf_count=38644 2366 3262 587 53215 288 220 217 242 343 1691 283 364 202 2660 256 4128 20545 442 243 1149 227 2210 290 513 3237 1223 308 2005 334 517 235 724 140 205 405 216 425 4173 505 1331 347 214 278 28527 1755 450 440 269 289 240 744 216 611 211 2175 769 283 287 256 1138 222 843 612
